325 64
156 -0.1476974 0.15281868 1.7343467 1.149605 -1.205738 -1.8956648 -0.37372774 0.36554116 -1.2489783 -0.40074426 0.91826046 -1.7089245 -1.4921744 -0.36593252 -1.5810797 0.37382692 -0.121418566 0.7738767 -0.36639726 2.2410383 1.7284591 1.0534648 0.16935031 -0.95416087 -0.88910514 -0.6309034 -0.42587236 1.5314858 -0.8691473 -0.23837943 -1.4154054 0.23922239 0.64802647 0.2748162 -0.16150458 0.22040594 0.15550514 0.20774063 -0.46265647 0.097532675 -1.4525045 0.60329425 -1.0212029 -0.08685293 0.64282614 0.12249827 0.1618908 0.55095285 0.4233296 1.5153769 -0.56213105 1.2529911 0.9049427 0.066506915 1.1477783 -1.3139261 1.095548 -0.7483645 -0.36015025 0.2807867 -0.49530423 0.5810385 0.59345067 -0.7142515
115 -0.5140531 0.52330005 0.33914366 0.57765555 0.029691221 -0.08567534 0.21384789 0.9069361 0.6043235 0.09467775 0.4186438 -0.042379335 0.8418006 -0.84343874 -1.9791967 0.6461654 0.6745065 0.45872355 0.799209 2.6437454 -0.12203487 0.56134444 0.8876727 -1.4653467 -1.1071252 0.6107825 -0.30947265 0.13464831 -0.2511796 0.07814123 1.9696776 0.7421413 -1.0214399 -0.027704064 0.024884561 1.6405367 -1.4387131 0.65626705 0.9642204 0.8545549 0.058400277 0.1772618 -0.7457571 0.47890028 0.18859039 -0.24740332 0.32610092 -0.050179563 -1.820158 0.86799514 0.009890053 1.754151 0.9647295 1.5827901 -0.13235849 -1.2446948 0.5530863 -0.71919316 0.71317244 -0.81972873 0.10007143 0.7234463 -0.68506056 0.4477323
70 -0.12542868 0.07847898 0.7471291 0.26919246 -0.69087726 -0.075099215 -0.11747845 0.30197278 0.5159196 -0.3195513 -0.029110475 -0.3795038 0.59996504 -0.48756325 -0.47868195 0.03653703 0.054039538 0.7895377 0.75869036 1.4948629 -0.4663059 0.35634744 -0.3393821 -1.7368085 -0.5925425 0.11342521 0.20258088 -0.45485854 0.75011754 0.11176896 0.23564246 0.94409555 -0.21836244 0.29054508 0.69878036 0.6967941 -0.570875 0.925398 -0.6684168 0.29124948 -0.48802966 0.17396027 0.2398908 0.9294108 1.0266505 -0.9083586 0.13142067 0.0759655 -0.28413752 0.60333353 -0.11575508 -0.055197276 0.40270174 -0.25770712 -0.1453945 -0.35461667 -0.23718031 1.2229432 -0.11002332 -1.7499446 -0.4893795 0.4428209 0.58663446 0.09752607
172 -0.06786503 0.063149035 0.75396085 0.24142756 -0.7806935 -0.030414443 -0.20132035 0.25168782 0.54302347 -0.35668096 -0.096271105 -0.42156503 0.560353 -0.5039907 -0.40359515 -0.031622965 0.0018846341 0.7663112 0.8334834 1.4136981 -0.45110318 0.28207287 -0.28715113 -1.7619842 -0.55538595 0.09720994 0.24874881 -0.48296577 0.65853584 0.12154817 0.3102932 0.9927983 -0.19831192 0.28972858 0.8188019 0.6875172 -0.53072274 0.8979103 -0.6852925 0.31099826 -0.49783376 0.1939221 0.282296 0.9805268 1.036073 -0.94978917 0.14164421 0.13596801 -0.30782026 0.6476962 -0.105539106 0.07590824 0.44033912 -0.19079627 -0.11416417 -0.47101384 -0.20858036 1.1993566 -0.09586115 -1.7270229 -0.6058288 0.5118825 0.6679754 0.0646552
308 -0.6844656 -0.8082834 0.9492639 -0.2333141 -0.41234815 -1.4964281 0.0066156955 -0.045314427 -0.71564627 0.83194155 0.76365745 0.15946245 -1.227904 0.06691463 -0.50725967 0.5256189 0.5943798 0.94604415 -0.29248717 3.744948 0.8150581 0.33270323 -0.738607 -0.6319672 -0.98969424 -0.8372902 -1.8542316 -0.42272425 -0.028426481 -1.1158468 -0.22043616 0.5737884 -0.20630886 0.93179816 0.35727635 2.1326911 0.20167612 0.79861945 0.86867595 1.1443816 0.48852232 1.2745727 0.5602452 -0.81598556 0.1274249 0.09707456 0.58419216 -0.03269521 0.07104478 -0.03671783 1.244155 1.4074315 1.7466044 -0.627634 1.375929 -0.09520398 1.6516144 -0.40142128 0.44211793 -0.85849357 -0.29764298 -0.21135095 -0.46041685 0.8842778
131 0.071130596 -0.97233015 1.3107435 1.3249205 -1.0230243 0.02542148 -0.08275234 -0.35219753 -1.4888716 0.3043343 -0.4416538 -1.2061654 -0.9913143 -0.8810752 -0.89491695 1.2561767 0.4021067 -0.03521328 -0.37917578 2.8615162 0.24350639 0.36337942 0.0645508 -0.21808308 -1.1155981 -0.29399875 0.4421756 -0.19048083 -1.0450807 -0.22006623 1.2414641 0.30067542 -0.33920255 0.5046122 -0.55667424 -0.5698764 0.28645775 -0.3899603 0.41490337 0.5160056 -0.41901553 0.024854599 1.2637814 1.399496 0.39283413 -1.7615722 1.13931 1.0761571 -0.2141643 -0.2303693 0.6853611 -0.07329654 0.5133661 0.3338761 0.10731 -0.1649025 -0.133921 0.7066072 -0.4733926 0.22731021 -0.83541936 0.83697635 1.0393534 0.31755912
255 0.027374616 -0.2863349 1.322477 0.7266684 0.26206788 -1.0377555 -0.3514791 -0.76927406 0.20154035 0.2607458 0.44651774 -0.42276812 0.9196893 -0.83352405 -0.52994645 -0.097404934 0.07215974 0.32966024 0.78759825 1.5765594 0.05523576 1.166475 -0.4129694 -0.3986371 -0.79057825 -0.022177424 -0.4666958 0.30440703 -0.6151868 0.6936234 0.16885687 -0.1251362 -1.1702282 0.11497414 1.7129824 -0.050010808 -0.57486284 0.027045555 0.82745796 0.69854254 -0.33291462 0.17190973 0.12173419 0.106324516 -0.0011698167 -0.4786904 -0.028784772 -0.24596083 -0.1816218 0.25249574 1.5398111 0.24275057 -0.46882772 0.38380823 0.06788472 -0.9319398 -0.4854926 -0.01854145 -0.4210973 -0.07623511 -0.70630115 -0.91356117 0.6973146 -0.33530012
47 0.078415826 -0.18315294 1.3044066 0.6552099 0.25278154 -0.91363966 -0.35042357 -0.77524513 0.15083118 0.14025706 0.465707 -0.33261508 0.85251534 -0.8269434 -0.599943 -0.15480831 0.026799751 0.33033174 0.85841125 1.6149383 0.041811883 1.1357749 -0.47421607 -0.42935252 -0.7767758 -0.023452498 -0.42448378 0.30780616 -0.6025475 0.71737397 0.15145515 -0.27714816 -1.061732 0.096087284 1.5720065 -0.10432664 -0.57836324 0.14964528 0.7523633 0.57401246 -0.30300453 0.27453429 0.014844836 0.047723275 0.13717031 -0.4790303 -0.06430627 -0.21815434 -0.13737312 0.22009374 1.5079147 0.20983611 -0.51674473 0.38362515 0.06104376 -0.9058756 -0.55126154 0.020166079 -0.42448425 -0.035742827 -0.70881766 -0.974638 0.67460835 -0.3736902
153 -0.32831156 -0.84299606 0.6976325 -0.06230762 -0.23139063 0.27021524 -0.34167877 -1.1750369 -0.49812084 -0.3730281 0.2497245 -0.18445754 -0.6791905 0.23554918 -0.67756575 0.016332623 -0.25500378 0.18741 0.28244728 1.620325 0.34100917 -0.15583014 0.060574446 -0.8189237 -0.8437807 -0.12832321 -0.6780541 -0.29534313 -0.17167951 -0.104502365 0.36455718 0.30564782 -0.16860738 0.15759239 1.1826519 -0.22957695 -0.16469148 0.3968061 0.22348315 0.08697912 0.89516085 0.7685348 -0.4474855 0.06415257 0.6530212 -0.6368389 0.7095351 -0.26652858 -0.37762046 0.36870387 0.76875085 0.17778121 0.30031323 0.008969871 0.49211958 0.10497888 0.012842996 -0.061992276 -0.18797567 0.1380459 -0.12927502 -0.31187922 0.7686868 0.22417592
319 -0.25205112 -0.8686512 0.7141343 0.03221949 -0.17800854 0.30879733 -0.33072868 -1.1116253 -0.530745 -0.3619357 0.22539677 -0.18617526 -0.8147068 0.22983538 -0.6906256 0.059841417 -0.24950041 0.016123757 0.22212604 1.4189824 0.3689709 -0.21628392 0.14359266 -0.8528349 -0.8170592 0.025862107 -0.83587563 -0.429441 -0.096409954 -0.25145343 0.33849698 0.37207422 -0.16141564 0.21750037 1.2682482 -0.1771544 -0.29214787 0.26557645 0.30312783 0.1454502 0.7101401 0.8787225 -0.3518285 0.083279885 0.6584022 -0.5415038 0.7555726 -0.13570715 -0.3614807 0.35924286 0.87571734 0.26641318 0.26380563 -0.029834213 0.52039903 0.0071808957 0.003447036 0.011771983 -0.15313937 0.08851255 -0.16006652 -0.3593062 0.8078667 0.101180434
154 -0.20845842 -0.75335264 0.6981834 -0.022100922 -0.14323626 0.34775195 -0.3584556 -0.9873036 -0.38986346 -0.3217244 0.22802508 -0.21038073 -0.6340867 0.1592133 -0.7882389 0.06716446 -0.26205927 0.0771402 0.24064204 1.5163021 0.37940446 -0.060161464 0.074624866 -0.8390264 -0.8240559 -0.022158394 -0.7177589 -0.33940637 -0.09145408 -0.13045895 0.3422848 0.35766512 -0.14956951 0.16814998 1.098889 -0.17307186 -0.14218673 0.28679034 0.26185003 0.07956517 0.72487265 0.75915915 -0.2953017 0.038595952 0.6957388 -0.523924 0.7306963 -0.1776568 -0.41414896 0.38075402 0.8582072 0.24178538 0.29528457 -0.012319981 0.583429 0.23182629 0.02964705 -0.05256856 -0.2630806 0.18220435 -0.04088871 -0.35349056 0.8555331 0.31448475
248 -0.6446833 -0.6747019 1.5307492 0.34516606 -0.20755571 -2.1768491 -1.0390458 -1.3197663 -1.0899414 -0.06032143 0.5731822 -0.08894683 -0.87571436 -0.33555835 -0.69800204 -0.77973634 0.09948135 1.331376 0.47857416 2.5093653 -0.20617491 1.6311535 -1.6699145 -0.8869454 -1.839092 -0.12417773 -1.8805416 0.64724064 -0.12454718 0.03524794 -0.13649753 0.5779022 -0.7975623 1.6397955 -0.24978757 0.3017539 0.061070245 -0.48696885 0.4246076 1.655689 -0.6674902 -0.4119099 0.75066245 -0.08507109 0.87188405 -1.0137582 -0.023114042 -0.4484608 0.7772041 0.05890646 -0.16468373 0.68780935 0.47429678 0.17207742 0.17746876 0.077001885 0.17247602 0.24281582 -0.6183918 1.3689455 -0.9833984 0.35570148 -0.21261935 0.3686466
260 -0.18862218 0.61538595 0.85676575 -0.037048176 0.22498791 -0.45308447 -0.70935583 -0.9286619 0.5641651 -0.008798998 0.21830179 -0.06987973 -0.6951978 -0.85582566 -0.61977875 -0.36459273 -0.2206818 -0.27183592 0.07072428 1.0495223 0.45604485 -0.75164384 -0.023787295 -0.037649233 -0.667832 -0.4458147 -0.19587655 -0.10631646 -0.3882593 0.03621356 -0.20224404 0.20811051 -0.6255508 0.69155884 0.41990638 0.42341635 -0.022293929 0.6184908 0.2338992 -0.00263232 -0.2681112 0.4480982 -0.23672864 -0.65469676 0.22397393 -0.21856718 0.086163074 0.36697406 -0.122182816 -0.42108792 -0.26890433 0.03650227 0.26482832 0.3882802 0.043605022 -0.13538533 0.26105067 0.22748923 -0.047563788 -0.4694989 -0.80090815 -0.020520782 0.98117226 0.009938408
264 -0.16978362 0.5506769 0.8839891 -0.03115038 0.1903259 -0.41419795 -0.63840795 -0.9065918 0.5295055 0.02446909 0.18852204 -0.10534969 -0.64888215 -0.9193527 -0.6729848 -0.3404886 -0.24958023 -0.2181626 0.09352462 1.0880222 0.38780004 -0.72141284 -0.045123417 -0.052859593 -0.6310104 -0.46198952 -0.1090044 -0.14113173 -0.42463347 0.016407318 -0.06566636 0.12212291 -0.58287805 0.7392842 0.33235493 0.35994202 -0.07430919 0.66781276 0.13913366 -0.075993285 -0.250471 0.47465086 -0.22491862 -0.8253689 0.09740503 -0.2794728 0.047175463 0.49746484 -0.15481803 -0.43116 -0.25191492 -0.07677958 0.28805527 0.26342288 -0.025792928 -0.09603116 0.17299148 0.24220552 -0.07764239 -0.46247977 -0.79344684 0.046717312 0.863395 0.047597848
259 -0.15403986 0.6795748 0.7921565 -0.17422241 0.24775314 -0.31726938 -0.73284084 -0.7919378 0.5079375 -0.07333654 0.04207079 -0.0014434461 -0.7047528 -0.9601721 -0.58352447 -0.39134035 -0.19367811 -0.17890625 0.05189264 1.1670592 0.37011603 -0.593952 -0.07605119 -0.07296008 -0.6328503 -0.3979758 -0.11975162 -0.0683775 -0.41056255 0.06390934 -0.14688016 0.18814544 -0.56781113 0.68746334 0.42301103 0.3316072 -0.026879363 0.82299083 0.18043718 -0.036886793 -0.14495695 0.43436143 -0.20192727 -0.71090657 0.11429367 -0.19416048 0.112760626 0.5467316 -0.06487914 -0.38537556 -0.17588107 0.10571752 0.23906936 0.30526617 0.06649502 0.015433427 0.23514679 0.3629804 -0.0071832733 -0.49982914 -0.7750099 -0.011175353 0.9361293 -0.026419597
258 -0.1759973 0.542743 0.8662913 -0.092721865 0.16828026 -0.3897072 -0.62476164 -0.83530086 0.45707318 -0.047933992 0.1311466 -0.038961418 -0.6056287 -0.8784244 -0.59382993 -0.38234195 -0.2550218 -0.28902 0.029690728 1.0105693 0.4229048 -0.7290034 -0.022571126 0.06733893 -0.62521076 -0.45270714 -0.21545285 -0.12807916 -0.48016462 0.03850016 -0.22850354 0.18619238 -0.6121373 0.75665826 0.47346762 0.32598516 -0.13114464 0.7750668 0.25878546 -0.046245042 -0.232482 0.49553162 -0.24739662 -0.74297774 0.20698437 -0.27590683 0.12527482 0.48283345 -0.11900012 -0.42562655 -0.1811134 0.11282942 0.33949202 0.32361588 0.083405145 -0.071740985 0.24800725 0.27912956 -0.070216864 -0.5165407 -0.88752025 0.019630663 0.94991577 0.0053504957
268 -0.22487967 0.6978612 0.88212967 -0.07545898 0.20613553 -0.35772756 -0.67856306 -0.8808537 0.57632196 -0.06341839 0.15640411 -0.015694484 -0.63144726 -0.8949321 -0.55747145 -0.4843462 -0.23566882 -0.19359072 0.060761843 1.0462799 0.41164345 -0.72572035 -0.03526195 -0.025568312 -0.6488027 -0.4459797 -0.16566166 -0.120936126 -0.44749203 0.07321744 -0.22209485 0.20102763 -0.59197146 0.7192382 0.44007853 0.39673698 -0.10284167 0.7787605 0.2587272 0.017826356 -0.26884553 0.40055105 -0.20581692 -0.6250373 0.111224666 -0.23998787 0.12443221 0.4906936 -0.14929192 -0.37338942 -0.15979922 0.15710339 0.2605615 0.31562528 0.10701248 -0.030334754 0.20799468 0.28837705 -0.0704134 -0.5238103 -0.81624585 0.057417583 0.84149987 -0.00905369
58 0.16881073 -0.1271743 0.06807284 0.18826988 -0.1295644 0.038660724 -0.024692321 0.21237928 0.07267788 -0.18313247 -0.09709707 -0.08945966 0.20825163 -0.41055492 -0.08135121 -0.14962012 -0.10501482 0.56698287 0.45012075 0.80013096 -0.31107834 0.41454688 -0.13516963 -0.82581115 -0.4432137 0.024041006 0.23861097 -0.28431988 0.43815628 0.1594095 0.081076495 0.6353759 -0.3510313 0.40883383 0.34339318 0.46948034 -0.5707506 0.64677835 -0.1883319 0.24725917 -0.32944533 0.13623588 -0.0709942 0.6302525 0.997484 -0.6269216 0.16659367 0.11310433 0.0009825112 0.33876154 -0.16951394 0.16380535 0.31619942 -0.028470863 -0.10548516 -0.20049281 0.17506696 0.74291456 0.088160045 -1.2480469 -0.21387854 0.24467641 0.26103768 0.10992326
287 0.5770265 0.34606317 0.39027193 0.28616017 -0.069565095 -0.41587338 -1.0377245 -0.61743474 -0.16785955 0.085392915 0.3416251 -0.523853 -0.5072377 0.1706382 -0.20722884 1.007859 -0.92118007 1.0387332 0.40429813 3.268889 0.48731735 1.3492835 -0.24121624 -0.432889 -1.7141414 0.7568029 -1.0453334 0.002242117 -0.59976643 0.92877066 0.19759269 0.0953214 0.24192664 0.6649558 -0.59650576 0.03108805 0.41411388 0.3801365 0.3720009 0.52867097 -1.1452538 0.27852008 0.7255993 -0.48345184 -0.07727457 -0.73275477 -0.23049347 -0.15042435 -0.63437045 -0.28469938 0.5975845 0.21918942 0.4337593 0.8320377 -0.48215112 0.5437475 0.87739193 0.32813823 -0.46244842 -1.1800672 -1.6180725 0.2912596 -0.614331 -0.23029028
170 0.049336746 -0.48050255 0.40340275 0.24251312 -0.18232812 0.34467804 0.054678686 0.089974575 -0.492545 0.2231577 -0.41595256 -0.1882094 -0.1365933 -0.20574704 -0.536145 0.51673025 -0.04039773 0.2367641 0.09074669 1.197688 -0.023956945 -0.042427815 0.42475364 -0.33737785 -0.46273708 0.12177004 0.030484231 -0.27188706 -0.55452234 -0.16564848 0.9208051 0.40927184 -0.42401943 0.44434473 0.22579934 -0.045898337 -0.1643843 0.3121424 0.3308432 -0.09835893 0.08397541 0.37854952 0.14112924 0.5883686 0.22037329 -0.4508796 0.6019123 0.17774345 -0.13980468 0.1475259 0.52128285 -0.17412491 0.07510504 0.17315929 0.007849091 0.40953785 0.30919513 0.036148332 -0.157722 -0.5954904 -0.10202556 0.12299824 0.38336912 0.28650633
149 0.26778165 -0.18841639 0.14310706 0.2564075 -0.3479669 0.25167158 -0.268036 0.21409033 0.14046189 -0.0472289 -0.13287032 0.072622396 0.14846934 -0.40932795 -0.10538511 -0.037629828 -0.09302329 0.47611982 0.27452034 0.6941079 -0.26594594 0.33706406 -0.036689114 -0.64913154 -0.55784976 -0.018651346 0.17078967 -0.30704606 0.31852892 0.10136843 0.32053366 0.42690074 -0.2777872 0.41494253 0.48577762 0.55127794 -0.59195316 0.5176993 -0.0685587 0.37262666 -0.12616758 0.18363938 -0.0677103 0.5456857 0.8430851 -0.49485484 0.16321188 -0.021553168 -0.067185104 0.51374465 -0.37592462 0.13023525 0.37247342 -0.32079935 -0.19126858 -0.35059807 0.1551698 0.7425711 0.25149027 -1.1959684 -0.2576489 0.49907073 0.21367364 0.17325482
171 -0.042749997 -0.49901724 0.25761086 0.17978084 -0.10758906 0.18112665 0.020271681 0.05311626 -0.48341042 0.35341257 -0.31846592 -0.08427851 -0.02381204 -0.20335822 -0.66052276 0.5884836 0.07708438 0.21152405 0.1555992 1.2010567 0.09176845 0.0023972476 0.39371032 -0.28756902 -0.33935207 0.12411235 0.022573937 -0.19881023 -0.51055175 -0.114614174 0.8511011 0.38160238 -0.34938505 0.43982026 0.3214783 -0.052348923 -0.16297248 0.36464864 0.27513707 -0.1112042 0.06510276 0.37083784 0.2583027 0.6621426 0.19878279 -0.5327768 0.57853997 0.28013253 -0.19659765 0.17469805 0.4463455 -0.21970974 0.16904911 0.12607215 -0.07882439 0.3731301 0.24095854 0.29971832 -0.18067014 -0.49123007 -0.051410794 0.17564884 0.3274966 0.21940093
99 0.21375078 -0.29263136 0.21707354 0.25831538 -0.28431648 0.11577907 -0.31677803 0.19242094 0.13201198 -0.07606436 -0.062349387 0.057979893 0.09795915 -0.37917846 -0.19137327 -0.031708002 -0.05207672 0.4636377 0.25688738 0.64123744 -0.316919 0.29943627 -0.11054665 -0.59664315 -0.54607356 0.06283677 0.23783451 -0.3322557 0.40508574 0.07865829 0.36569402 0.5574404 -0.31758115 0.4262715 0.42438805 0.5704878 -0.6462824 0.5820328 -0.043947835 0.28398395 -0.10862844 0.14615323 -0.13335213 0.5472281 0.9048997 -0.518274 0.10156561 -0.016436469 -0.12598869 0.54494363 -0.33194515 0.20899019 0.3326782 -0.36826438 -0.19093944 -0.34112152 0.22832742 0.7651972 0.24683578 -1.2816055 -0.2663416 0.4288613 0.21039453 0.1293605
282 -0.11225876 -0.42924663 1.1287768 0.23115867 -0.09613695 -0.98331773 -0.48241633 -0.3217764 -0.33206245 0.14896326 0.439875 -0.63707465 0.14457588 -0.38719144 -0.82006305 0.43477818 -0.15296763 0.6117779 0.5861681 2.3969896 0.41997185 1.0123934 -0.31444415 -1.2837545 -1.0253006 0.07666385 -0.8771532 0.3869058 -0.24670847 0.16071784 0.22729817 0.4586058 -0.5257904 0.48544747 0.5193131 0.5736564 -0.5775011 0.44004437 0.2706159 0.4314475 -0.43470314 0.55985725 -0.13401152 0.03190572 0.53024423 -0.16761573 0.3530357 -0.18850148 -0.20451893 0.55546105 0.46058205 0.6980575 0.36720437 0.077254266 0.3385846 -0.44837978 0.19231133 -0.0030741405 -0.31837544 -0.46977738 -0.60382265 0.15067965 0.27659535 0.16159822
1 0.60027426 -0.975745 0.16271098 0.74440074 1.435431 -1.229745 -1.3178953 -0.4902322 0.2292513 0.6904865 0.02961303 -1.2710062 0.31421685 -1.3772018 -0.77950215 0.09948098 -0.47212747 0.7023484 0.28546005 2.482072 1.0152426 0.544369 0.043393645 -0.5327527 -1.3285953 -0.53962016 -1.0685604 0.18401614 0.644459 0.038372755 -0.36054957 1.2171967 -0.26810068 1.1017367 -0.11193349 0.43545252 0.13835709 0.060879167 0.9354613 1.1349387 0.23942624 -0.022328936 0.1618822 -0.78429717 -0.1651537 -0.1838939 0.12268578 -0.28372687 -0.6936339 0.49663317 0.58221257 -0.40518278 0.78207463 0.7813024 0.1381964 -0.057265732 -0.53344125 -0.17612766 -1.0223053 -0.8023655 -0.8008195 0.418114 1.2300822 0.5767905
39 -0.29062536 -1.6396372 1.714596 0.2207645 0.19274944 -0.8493654 -1.2617604 -0.5179854 0.3789751 1.27727 0.055387698 -0.3661519 -0.72022015 0.4685376 -1.5294663 1.7819669 -0.6914606 1.3699398 -0.02190676 2.2670777 1.5031842 1.0429927 -0.5182267 -0.6526539 -0.79476273 -0.055737704 -0.76895833 -0.91843987 0.007205938 -0.4026705 -0.22963202 -0.102073014 -0.14106299 0.65781546 1.2707354 0.58283424 0.31873626 -0.15471858 0.24509345 -0.087727934 -0.070395954 0.2921811 0.47750285 -0.19232011 1.3081908 0.11600198 -0.6599609 -0.6511804 0.46637914 0.098584525 0.85744274 -0.031275567 0.67392737 -0.34262985 0.50587624 -0.15251727 -0.99564636 0.70170254 -0.57389134 -0.41292784 -0.9106793 -0.22179544 1.0340314 0.28899127
0 -0.16912596 -0.16105841 0.93798023 0.6452925 0.12195287 -0.75256664 -0.3901976 -0.2713296 0.15746483 -0.0586834 0.4264867 -0.8139663 0.76537603 -0.92522377 -0.8035111 0.11880799 -0.381904 0.2848729 0.30473182 2.517505 -0.007850763 0.8684157 -0.5486541 -1.6758529 -1.52315 -0.2222403 -0.41298634 0.37834027 0.200923 0.45496133 0.17888318 0.66599876 -1.1289064 0.5641779 0.7270392 0.7438657 -0.8015415 0.83200693 0.52736545 0.43021867 -0.09768185 0.37345243 0.11068676 0.36327115 0.7125367 -0.481944 0.34518296 -0.5809289 -0.064306125 0.3736396 1.036559 0.40484884 0.51134557 0.2596076 0.65721345 -1.0852497 0.40335733 -0.046767738 -0.6772409 -0.8796432 -1.0697056 -0.18801732 0.5098836 -0.24165465
77 -0.16834971 -0.48323232 0.92736936 0.46117905 -0.5209091 -1.213958 -0.64390415 -0.56088734 -0.5148792 0.13653931 0.47696257 -0.99425524 0.65375775 -1.6039717 -0.45672643 0.105295174 -0.5740214 -0.52907073 0.22978675 1.5278144 0.22594795 0.27672112 0.043198388 -0.55101305 -0.9168166 -0.4220226 0.20161211 0.47544366 0.5389743 -0.05356942 -0.022658179 0.91231954 -1.2608545 0.38088074 0.09451168 1.0687107 0.28130725 0.5898693 0.32643744 0.8354784 1.1889032 -0.07246825 -0.13318367 -0.7398709 1.3121881 0.3018352 1.1499296 0.18418773 0.62283754 0.17024225 1.0832287 1.2950457 -0.3930114 0.79523647 0.9752659 -0.6458069 1.0263149 1.0209663 -0.098210335 -0.972195 -0.39854887 0.16271317 1.7181454 0.76526845
92 -0.16901675 -0.35233188 1.166634 0.55894446 -0.22302413 -0.8720743 -0.3546 -0.5920447 -0.1689187 -0.046283152 0.37578773 -0.38601214 -0.15883908 -0.5406206 -0.8609741 0.35315758 -0.13699746 0.4472357 0.32759008 2.3703918 0.3817268 0.8031162 -0.28222582 -0.98994267 -0.9371738 -0.20688625 -0.4821408 0.22758171 -0.12417815 -0.007985647 0.2135876 0.19675846 -0.36712986 0.5887246 0.56876284 0.6600598 -0.5229 0.25980607 0.5645768 0.70279557 -0.4530562 0.4401681 0.10892767 0.070433535 0.53365123 -0.32716143 0.5021754 -0.117662884 -0.20667514 0.37511066 0.70660347 0.7814051 0.60737205 0.16093174 0.2667584 -0.56226844 0.2741265 0.10922847 -0.13860472 -0.41795284 -0.6662725 -0.078041516 0.5710715 0.13854727
7 0.02664197 -0.121111654 0.86977357 0.14732431 0.07431694 -0.4361936 -0.17638695 -0.24851282 0.4841761 0.6183264 0.045813113 -0.4186292 0.2997366 -0.079940125 -0.28263333 0.14982185 0.3160865 -0.14298123 0.5535971 0.91708624 0.4808759 0.93995196 -0.5852229 -0.05944484 -0.567016 -0.05119093 -0.31625718 0.52165145 -0.33583844 0.28408098 -0.13572676 -0.6990508 -0.5080212 0.2603966 0.9885739 0.15162717 -0.29842842 0.16895178 0.08686388 0.61584634 -0.6839843 0.24861152 0.14639986 -0.38551554 0.1683474 0.14360024 -0.1451669 0.23638602 0.02825893 -0.23363198 1.056537 0.42514744 0.0075199655 0.26977232 -0.0968061 -0.2183168 -0.0444206 0.62072307 -0.41693375 -0.42553538 -0.39664838 -0.86231834 0.45021036 -0.064217135
129 0.007509098 -0.18871233 0.8614771 -0.11130798 0.10475004 -0.9059228 -0.29957038 -0.15646698 -0.16154861 -0.17719722 0.05079931 -0.8521083 0.26376998 0.04339626 -0.6656572 0.45782664 -0.8165342 0.06306031 0.17737825 1.2132977 0.67129296 0.36248788 -0.15731338 -0.48887166 -0.56794286 -0.17002316 0.087289825 0.49824473 -0.28645152 0.16262276 -0.16369568 -0.71655726 0.08176399 0.260493 0.15281989 0.21052203 -0.6264255 0.2415968 0.29363355 0.20990168 -0.76049143 0.08311894 -0.2913955 -0.12670968 0.37906376 0.86854804 0.4189241 -0.3225055 0.41495296 -0.3483812 -0.22168487 0.5102948 0.37214065 0.50039726 0.21118568 -0.17195962 0.051320888 0.35775298 -0.31491503 -0.58468556 0.035628557 -0.028368028 0.25968578 0.09066067
83 0.16477723 -0.062876716 0.59449697 0.08775931 0.08429989 -0.49007878 -0.3336853 -0.46977404 0.3003659 0.5576593 -0.06559736 -0.4604121 0.5975865 -0.2604128 -0.62808114 0.18753208 -0.07843538 0.073543824 0.44309855 0.96418715 0.26480788 0.78776443 -0.45313418 -0.06129106 -0.5905565 -0.20377807 -0.13330968 0.34114283 -0.50984275 0.46391892 0.090458065 -0.567938 -0.5291831 0.21722972 0.9710855 -0.011720459 -0.5539896 0.050755955 0.348425 0.7141431 -0.65075165 0.15165882 0.06773994 -0.18098329 -0.020571142 0.015655166 0.057372216 0.028630413 0.13442913 -0.10877633 0.9708931 0.3134553 -0.38370028 0.2681203 -0.03941694 -0.26656482 -0.24497317 0.2372742 -0.32514408 -0.2575085 -0.38495627 -0.7096243 0.37518993 -0.27861512
143 -0.031122245 -0.19548094 0.85310924 -0.10877548 0.014939452 -0.89351135 -0.26644745 -0.037630334 -0.080526695 -0.20103964 0.04462507 -0.8476812 0.15797022 0.06789363 -0.80670273 0.41688934 -0.83593106 0.11631097 0.11306226 1.1690145 0.7568515 0.35417512 -0.0702003 -0.53791034 -0.57718116 -0.11259898 0.09713325 0.5379605 -0.2796007 0.06460603 -0.091132775 -0.5831653 0.0972378 0.24531022 0.07085744 0.25592074 -0.68989366 0.24794649 0.2552028 0.16301823 -0.63520426 0.096565686 -0.32962927 -0.17987946 0.36158085 0.9449487 0.41345644 -0.33750957 0.40221855 -0.31061143 -0.14006184 0.46409717 0.39570126 0.48273504 0.2871708 -0.11940827 0.05074735 0.32566422 -0.19212316 -0.5177872 -0.011168155 -0.0043385946 0.28295586 0.16002154
74 0.23611128 -0.06276521 0.6888224 0.07961255 0.18795536 -0.63354564 -0.2799066 -0.44295847 0.28512383 0.47891295 -0.032065455 -0.5009067 0.6543581 -0.26950416 -0.5343252 0.09955049 -0.089483015 0.079218805 0.5191956 0.99478436 0.35952267 0.7799261 -0.4215264 -0.004360973 -0.5384918 -0.18343256 -0.084923096 0.35521778 -0.58754325 0.41199028 0.08362508 -0.6270023 -0.5024443 0.19335423 0.8877661 -0.05952537 -0.45708576 0.051932096 0.2833818 0.6239613 -0.63272244 0.21854857 0.014300396 -0.09917311 -0.031310968 0.061409406 0.084383145 0.11756402 0.15350881 -0.15689328 0.87386143 0.43187726 -0.27646136 0.29233238 0.05115229 -0.34092128 -0.3350373 0.31744358 -0.37985796 -0.28921598 -0.37252778 -0.7052489 0.49471354 -0.2077351
213 -0.26750922 0.21148951 0.41216895 0.42344487 0.37058842 -0.40151712 0.4578218 -0.65614766 -0.74241453 0.030984998 0.6131761 0.14419547 -0.72727674 -0.21619184 -0.03591832 -0.24886009 0.18101378 0.12926875 0.0147111565 1.4550123 0.40875292 0.40549308 -0.24394178 -0.65475947 -0.18220693 -0.752074 -0.41389632 0.26791394 -0.18003885 0.3754723 0.021501504 0.23216662 -0.07177502 0.6301056 0.26187858 0.03674942 -0.67036945 0.0415439 0.46641493 0.35862684 -0.82361937 0.1601192 0.34422022 -0.25465494 -0.26832786 -0.11685332 0.38990018 0.2602696 -0.3542601 0.79149765 0.016758295 0.15459514 0.8548053 0.22737789 0.056395255 -0.16022612 -0.41181964 0.31147507 0.6174619 -0.055411268 -0.42646518 -0.13758223 0.51743644 -0.50390315
50 -0.28154862 -0.086022355 0.06649295 -0.17538798 0.077538915 -0.14881559 -0.035309166 0.5717394 0.5478216 0.492282 0.018820155 0.33787602 0.23282251 -0.099218145 -0.6609901 0.95026493 0.674194 0.0027409445 0.39457318 0.98425144 -0.06252202 0.43072683 0.63274044 -0.5466775 -0.21626468 0.691485 -0.4658497 0.029808156 -0.06560657 -0.015083806 1.091918 0.35374978 -0.67268145 0.42301965 0.17570567 0.43922982 -0.47212973 -0.03152154 0.53577685 0.0017288536 0.0994463 0.3907374 -0.3816561 -0.05284948 0.13452908 0.085099414 -0.088253066 -0.031141799 -0.8155634 0.3635239 0.14698735 0.7251697 0.5301728 0.5232283 0.029336266 -0.5681345 0.40238547 -0.004774695 0.1937725 -0.0903207 -0.5982205 0.13424252 -0.105392076 0.026381858
111 -0.32477725 0.18272898 0.39174297 0.38790643 0.3908149 -0.40320483 0.3649171 -0.69261897 -0.7226162 0.17992042 0.6432753 0.16113895 -0.68971777 -0.28831917 -0.17780511 -0.16332063 0.34532 0.1517917 -0.1057828 1.3451445 0.4186047 0.46816948 -0.31052226 -0.5779045 -0.09647175 -0.79308283 -0.35980818 0.263932 -0.14509292 0.32076913 0.03184947 0.2049223 -0.13193363 0.6720255 0.20416409 0.097249165 -0.72965 0.023465483 0.5194967 0.40702268 -0.78398746 0.13558199 0.43601698 -0.24401383 -0.28099626 -0.12671243 0.41830286 0.32467115 -0.31000337 0.7556008 -0.05951835 0.1729417 0.8785711 0.21714605 0.097993016 -0.081866436 -0.39147225 0.2700034 0.52079165 -0.0003147916 -0.42502773 -0.013029803 0.5374343 -0.44261286
177 -0.294047 0.1725118 0.38739905 0.3703165 0.45503995 -0.379632 0.42216796 -0.7653222 -0.64775515 -0.016132597 0.62623334 0.12948366 -0.7185026 -0.28937513 -0.10248835 -0.27465037 0.2363777 0.1049099 -0.14516556 1.3963819 0.47235852 0.42953423 -0.28235742 -0.6277525 -0.15971541 -0.8521166 -0.4022716 0.33571136 -0.119135335 0.3701574 0.008445656 0.25251138 -0.11927261 0.6290584 0.16243981 0.11398365 -0.65049237 0.012932458 0.55074996 0.41776627 -0.7693987 0.14312585 0.43593243 -0.26972497 -0.27215147 -0.16324179 0.48689392 0.26672065 -0.31648192 0.83989936 -0.012450073 0.23053159 0.828377 0.21529785 0.097438626 -0.10383408 -0.32976192 0.13554345 0.5993993 -0.047317877 -0.35768303 -0.098402604 0.48567265 -0.4071241
71 -0.06251031 -0.22247961 0.8783233 -0.013694604 0.12181259 -0.9016449 -0.37565577 -0.15819001 -0.10536986 -0.16186866 0.15863492 -0.86397743 0.1968 -0.020384246 -0.8117827 0.40449408 -0.77135617 0.15637775 0.15993983 1.1109148 0.73564905 0.38075954 -0.054869752 -0.48815152 -0.5034819 -0.024604555 0.02614313 0.49425435 -0.20193225 0.11430509 -0.14918374 -0.55387455 0.20028 0.25733256 0.06956653 0.15512586 -0.6110902 0.31119037 0.16777995 0.073260516 -0.6798173 0.17490764 -0.4009856 -0.10072986 0.38032869 0.9944407 0.3514559 -0.30174538 0.3355018 -0.25015858 -0.1493902 0.49685723 0.47470433 0.37980518 0.24010429 -0.14673637 0.01573457 0.29745993 -0.24116805 -0.5947287 0.0410226 0.04890048 0.30423898 0.1181352
57 -0.2591878 0.15233491 0.41249356 0.36896908 0.39735597 -0.39134714 0.4092063 -0.6924062 -0.73778117 0.11896777 0.574627 0.10259789 -0.78036743 -0.30257177 -0.078673065 -0.17625654 0.28574312 0.093805656 -0.068502285 1.4612387 0.40901992 0.46758416 -0.31549862 -0.60743785 -0.13741857 -0.74010336 -0.31185877 0.24410003 -0.11730102 0.33966088 0.04495724 0.2190026 -0.17040242 0.5833061 0.18441613 0.10549858 -0.7176324 0.009311655 0.48637605 0.37345588 -0.7795751 0.11660842 0.36194664 -0.29008847 -0.3125919 -0.15244885 0.43318036 0.34823015 -0.2690476 0.7462737 -0.082233146 0.14744565 0.83776516 0.25469446 0.13314731 -0.1583746 -0.40300372 0.17115664 0.51659447 0.12760867 -0.42557606 -0.018824358 0.60377485 -0.45712325
291 0.09130073 0.12477627 0.9019253 0.20115261 -0.5695937 -0.6188126 -0.16790837 0.2156988 0.10682567 -0.06839725 0.2319331 -0.91247493 -0.20128882 -0.26380214 -1.1813359 0.50897896 -0.49191603 0.58510524 -0.40234727 1.0105946 1.323242 0.110228166 0.74767894 -0.8020699 -0.49819458 -0.19896528 -0.30138597 0.58894086 -0.42806637 -0.16680524 -0.84862065 0.22359848 -0.017339865 -0.24202861 0.5045459 0.17420541 -0.037098963 0.8194419 -0.06608581 -0.66405857 -0.056928437 0.6634402 -0.64402825 -0.18629742 0.4067488 0.5523892 0.07729469 -0.11479673 -0.05151276 0.59974706 0.24875972 0.5855708 0.20867132 -0.00472142 0.66660225 -0.61978704 0.6355822 -0.39343354 -0.28618324 -0.89668113 -0.3327162 -0.05543753 0.09582687 -0.20034537
174 -0.36462802 0.09644542 0.45190945 0.41277778 0.44531232 -0.41897032 0.35098314 -0.75283855 -0.77992857 0.16232812 0.6542432 0.13147624 -0.84703565 -0.23652512 -0.13239782 -0.24352366 0.25157195 0.124316655 0.014851637 1.3877723 0.4349311 0.4453928 -0.37601778 -0.61350596 -0.10266557 -0.7543459 -0.3552063 0.25196236 -0.12993224 0.36866394 0.059335727 0.18438676 -0.033707134 0.6339443 0.15921143 0.056336712 -0.637128 -0.016366871 0.45205972 0.40488005 -0.88741237 0.09541798 0.32144362 -0.2574768 -0.28437245 -0.20012763 0.4157652 0.3555657 -0.3576396 0.7516816 0.023518307 0.07066675 0.81531596 0.3337441 0.061854314 -0.13044651 -0.41289502 0.17999932 0.47189286 -0.09149101 -0.3717452 -0.064487755 0.56203306 -0.34712383
211 -0.25480074 0.20459129 0.32870573 0.39383096 0.35419855 -0.33381116 0.34599742 -0.7193439 -0.6467414 0.18360491 0.62664527 0.16524346 -0.6340197 -0.26653188 -0.09523184 -0.22654836 0.3872943 0.21663325 -0.03311559 1.5114706 0.49435842 0.43037695 -0.21692975 -0.6738384 -0.19149397 -0.8140727 -0.49451828 0.22850522 -0.23375484 0.35492542 0.0013755999 0.21462397 -0.06235416 0.5547027 0.24403146 -0.026864288 -0.6398886 -0.06493026 0.43745923 0.25605974 -0.73576355 0.10254735 0.42351142 -0.3259681 -0.30262187 -0.082863905 0.34590617 0.285651 -0.3891892 0.73673123 0.033187613 0.21589011 0.93203765 0.19711271 0.065562226 -0.17168787 -0.4163915 0.4625824 0.6103101 -0.00022524546 -0.43863416 -0.09887073 0.4758443 -0.4969968
29 -0.0041129435 -0.26224703 0.8497102 0.01193399 0.07572025 -0.8878695 -0.29197735 -0.048680335 -0.056720685 -0.18278933 0.08176261 -0.9717619 0.20405383 0.028538914 -0.75060457 0.44600454 -0.7972831 0.05856458 0.11543969 1.1527255 0.81165177 0.33561754 -0.027352396 -0.5270925 -0.5107066 -0.012909961 0.036240637 0.455037 -0.17599279 0.08083748 -0.2268892 -0.56336814 0.18880233 0.18988128 0.10386277 0.24916022 -0.56004035 0.25951496 0.20617935 0.10420862 -0.62864065 0.16643026 -0.31897962 -0.1574584 0.36397275 0.9605801 0.29119113 -0.2718645 0.32397553 -0.19559471 -0.13359028 0.52621865 0.426232 0.37196115 0.3512143 -0.16664033 0.17845231 0.24426979 -0.25920355 -0.56658804 0.013074584 0.08101033 0.3346582 0.115836814
137 -0.2792635 0.18806067 0.29724002 0.29079926 0.4055127 -0.37149477 0.3653952 -0.67802304 -0.7299334 -0.050492644 0.58253205 0.15952863 -0.74362254 -0.09449809 -0.061764404 -0.25284475 0.21414949 0.19043173 0.036786616 1.3552446 0.3710239 0.41081813 -0.43660912 -0.5856554 -0.30469564 -0.6957983 -0.34667704 0.37152553 -0.19407661 0.31567353 0.04352192 0.21568917 -0.071855515 0.7463969 0.13882457 0.101317294 -0.77103454 -0.0033106133 0.5148694 0.5711502 -0.77124673 0.091483794 0.410816 -0.17784815 -0.2769708 -0.23491043 0.4972762 0.32701626 -0.28853148 0.7591735 -0.13001688 0.20219861 0.8430307 0.2605091 0.1761754 -0.22109608 -0.27746955 0.16208628 0.39041695 0.11698815 -0.42920744 0.012945781 0.6499036 -0.43684933
224 -0.20247991 0.18156809 0.85996735 0.8134785 -0.65556496 -0.7527734 -0.28387713 0.15819792 -0.6429338 -0.06124994 0.43591118 -0.44468525 -1.0504432 -0.41477293 -0.7166364 -0.24877086 0.30982932 0.10894345 0.13966796 0.6588205 0.25825888 0.41398013 -0.007362049 -0.35950762 -0.19892766 0.026412562 0.06996162 0.6942636 -0.3903562 -0.20458114 -0.8250672 0.44711518 -0.52024186 0.5677223 0.48466215 0.41443375 0.05844803 -0.046534352 -0.078024365 0.57493573 -0.29554215 0.13707109 -0.24779984 0.2072212 0.11363647 -1.051862 -0.07319448 0.35556635 -0.24510321 0.88037735 0.09536109 0.46545538 0.25796366 0.008009996 0.583732 -0.95738083 0.48986778 -0.6527266 -0.008571664 0.3073386 -0.6936323 0.21927221 0.49637643 -0.20776372
127 -0.005054491 -0.17718434 0.3905912 0.27636832 0.14754683 -0.5145064 -0.17787783 -0.3068334 0.51263916 0.26541466 -0.005467222 -0.48987088 0.38134092 -0.2027568 -0.2132126 -0.011059111 0.2997292 -0.4897999 0.20510854 1.4351841 0.14995968 0.6831471 -0.6151756 0.06477395 -0.53794163 -0.009397311 -0.25912014 0.43810347 -0.31863308 0.06981053 -0.38190764 -0.60384136 -0.29333073 0.5355724 1.091844 0.32744062 -0.46933872 -0.1359627 -0.18333648 0.6394965 -0.42677802 0.34256312 0.22073904 -0.18373343 0.036728878 0.009987163 -0.29081863 0.10487389 0.10260146 -0.27268687 1.2216882 0.5426436 0.29103726 -0.12160142 -0.025881175 -0.26390603 -0.01840306 0.3694036 -0.22157297 -0.40138412 -0.5578629 -0.8464436 0.7549394 0.10536395
121 -0.12893908 0.12983465 0.30746818 0.5447161 -0.702836 -0.18579267 -0.3955862 -0.16684483 -0.21219921 0.13185425 0.33167583 0.31683213 -0.25481793 -0.10437007 -0.21261816 0.14057167 0.38307118 0.7163472 0.10408956 1.1734606 -0.037482668 0.052572053 0.09712788 -0.30120674 -0.011504853 -0.41493052 -0.73085004 -0.45772377 -0.02964962 0.06875878 0.7262772 0.23329124 -0.29931396 0.26126924 -0.07707131 -0.17924559 -0.83459026 -0.2362276 0.80335754 0.3832646 -0.010333929 0.08906519 0.60972846 0.2879414 0.49533722 -0.56492823 0.26649764 0.37262237 -0.18418065 0.17176923 -0.17924593 0.35174426 0.8876671 -0.29676208 0.12267885 -0.015676746 -0.02859933 0.67439026 0.17886011 0.49164104 -0.16353528 -0.28175429 0.15320976 -0.26798004
31 -0.08966615 0.21529716 0.3335486 0.55889446 -0.84035146 -0.20678145 -0.25688037 -0.19631279 -0.23497716 0.24034733 0.21692938 0.36129916 -0.31026536 -0.17314246 -0.20459948 0.12204007 0.37526226 0.8314236 -0.04748295 1.2595404 -0.19704977 -0.024648508 0.09965224 -0.4171942 0.0457777 -0.56547284 -0.5507894 -0.532497 0.060672354 0.079929054 0.772472 0.23266612 -0.28406155 0.29594427 -0.092084356 -0.20861912 -0.8428442 -0.3133143 0.7587885 0.41876 -0.23508665 0.034606837 0.6664982 0.3015323 0.5670293 -0.45973313 0.25365373 0.29685256 -0.03262893 0.24942298 -0.107929975 0.31333804 0.749466 -0.2718634 0.23374496 -0.016187463 -0.11024389 0.6129838 0.1478213 0.4484384 -0.11563875 -0.2857727 0.09740549 -0.26464134
146 -0.049956575 -0.29034916 0.85781854 -0.108195186 -0.15262781 -1.2974921 -0.1366226 -0.035484407 -0.26580492 0.2297819 0.2519017 0.042739067 -0.38758454 -0.55256855 0.14362857 0.049016997 0.3774574 0.11286144 -0.18378724 1.1830204 -0.3593898 0.31199923 -0.67908823 0.27510944 -0.32759497 -0.37338582 -0.7107282 0.024896683 0.39474842 -0.52395713 -0.012380888 0.12204261 -0.29839507 0.6349079 0.47018555 0.82078874 -0.13206688 0.3264156 0.48718008 0.85575515 -0.3444649 0.4475533 0.38595203 -0.20479004 0.17065556 -0.057105348 0.27039245 -0.2653497 0.084401034 -0.3833693 0.34952995 0.31143293 0.9746068 -0.06385474 0.4398725 -0.12303157 0.42461112 -0.52378714 -0.42811304 0.007583006 -0.7547672 -0.21186267 -0.27036646 0.4366934
85 -0.07210407 -0.44319218 0.39273074 -0.25435933 0.12674291 -0.91040146 -0.2757972 -0.011332645 0.34915015 -0.15827028 0.15998107 -0.07178309 -0.27292612 -0.45803475 0.0021165563 0.53562266 0.27045682 -0.60086644 0.10514698 1.4453487 -0.09667705 0.2860817 -0.48542568 -0.39989397 -0.48983595 -0.28347653 -0.2800998 0.3311871 0.0064397356 -0.20291847 0.017201202 -0.6358595 -0.1544948 0.15459506 0.57253236 0.7473562 -0.7839157 -0.13445705 0.051368278 0.39496276 -0.18214792 0.19417131 0.18910763 -0.38686007 -0.041001596 0.21952638 0.24582155 -0.41689506 -0.11223863 -0.6799499 0.9987779 0.28594318 0.5442791 -0.2885729 -0.10475041 -0.60131425 0.3240904 0.07385402 -0.21935724 -0.62092084 -0.6979228 -0.7862562 0.11644008 0.38730592
108 0.015675537 -0.22055115 0.33586168 0.16116916 0.18953234 -0.50970864 -0.13551424 -0.2837163 0.515617 0.22312011 -0.013623973 -0.47794726 0.3688768 -0.20734186 -0.1826068 0.035356857 0.25998157 -0.5732365 0.23532893 1.4778568 0.14347692 0.6786995 -0.59653956 -0.028871052 -0.6145433 -0.097738974 -0.2969423 0.43635127 -0.3315206 0.10476437 -0.40161693 -0.5560337 -0.25262636 0.5635098 1.0484946 0.33013976 -0.5241023 -0.20044027 -0.13941562 0.68660855 -0.399444 0.2673074 0.20888273 -0.18306205 -0.06372568 -0.0028051198 -0.14449921 0.05330517 0.08071777 -0.2713409 1.2563741 0.47293606 0.2943566 -0.18192554 0.03334774 -0.16613741 0.11096704 0.42104548 -0.18467608 -0.52175665 -0.53259784 -0.95982873 0.80417156 0.084191725
157 -0.2518214 0.28006747 0.90956056 0.7645466 -0.71781164 -0.6983774 -0.30050498 0.19489823 -0.6455091 -0.08888605 0.36626178 -0.43189448 -1.0745833 -0.5343544 -0.77871054 -0.41174442 0.29208267 0.116576694 0.22059707 0.7064132 0.2180431 0.3916032 -0.002421016 -0.34581956 -0.21458675 0.074045524 0.12589851 0.653218 -0.46968645 -0.19938233 -0.82635874 0.4323674 -0.6515443 0.53216374 0.5836412 0.43182054 0.08290668 -0.07049136 -0.17909563 0.51654786 -0.12642208 0.12670863 -0.17042743 0.26809743 0.054626726 -1.2017788 -0.0888034 0.32738337 -0.2887619 0.9722581 0.114634566 0.5341815 0.2226869 0.004449753 0.6075002 -1.012439 0.60537034 -0.65135187 0.027983405 0.36021104 -0.756447 0.28713587 0.6063115 -0.29040328
32 -0.0821626 -0.45968604 0.33729294 -0.18652447 0.06596981 -0.9701465 -0.2612743 -0.05097114 0.25898644 -0.15603249 0.22309515 -0.11501721 -0.39099187 -0.4569231 -0.03412177 0.5290801 0.27419403 -0.6531032 0.021202305 1.4202925 -0.091393515 0.31681305 -0.53607523 -0.40246996 -0.53528327 -0.30899015 -0.24508405 0.34435216 -0.01935674 -0.25314984 -0.08188094 -0.63995403 -0.16672358 0.19314319 0.39479524 0.9335319 -0.68843377 -0.102234125 0.0062413085 0.42357203 -0.14427033 0.20776904 0.19336872 -0.35445198 0.011648925 0.09744789 0.2679369 -0.38053456 0.0345716 -0.67334384 0.9704773 0.34820732 0.5162712 -0.3678951 -0.074237645 -0.5938748 0.4912777 0.0009145985 -0.19774793 -0.5977103 -0.66066253 -0.7397568 0.06548618 0.34565523
90 -0.30521 0.13943021 0.3417505 0.2759809 0.34348604 -0.44325936 0.3070551 -0.6893395 -0.7605259 0.06847928 0.5310011 0.13377905 -0.79063904 -0.08825517 -0.043246124 -0.20495279 0.28650784 0.18480332 0.085722394 1.496438 0.36297682 0.46991748 -0.52680427 -0.56955683 -0.26341936 -0.6764446 -0.34981942 0.3831758 -0.21070716 0.30992275 0.04332489 0.23970892 -0.05497961 0.66149265 0.072502576 0.08356629 -0.5815396 -0.004801264 0.31361276 0.5003045 -0.8540505 0.0622077 0.3719171 -0.17614369 -0.2747669 -0.25500202 0.4207894 0.3753181 -0.25000656 0.6536069 -0.10947924 0.1463621 0.8194974 0.24517347 0.07700866 -0.18168 -0.3242957 0.2027194 0.3752139 0.23688349 -0.49691114 0.08210835 0.5766193 -0.39042342
80 -0.11164496 -0.33139417 0.9161016 -0.14984977 -0.15885381 -1.4017228 -0.11069997 -0.03347526 -0.33882347 0.19629872 0.20324643 0.02843929 -0.378428 -0.58985853 0.1415464 -0.030071607 0.36777782 0.07504767 -0.1868851 1.2182094 -0.43354824 0.2666534 -0.61845034 0.2533541 -0.33458182 -0.30610853 -0.7075993 -0.02193873 0.3357349 -0.48141655 0.0756395 0.20591024 -0.35997492 0.6559744 0.526465 0.9104251 -0.16625552 0.31606984 0.40717262 0.8150926 -0.36193797 0.5318569 0.40922973 -0.21627599 0.16384241 -0.032176208 0.32012835 -0.31415728 0.15106839 -0.35514137 0.27215737 0.29444888 0.99119735 -0.044666264 0.35529143 -0.070328005 0.4438837 -0.47783318 -0.43609855 0.16136424 -0.7568076 -0.2398417 -0.30559808 0.47359908
96 -0.004745435 -0.24307223 0.3553746 0.2733353 0.26842862 -0.46077582 -0.11010524 -0.33881792 0.5016741 0.24590088 0.012434666 -0.41561222 0.46427843 -0.22765909 -0.11904412 -0.017195495 0.28209552 -0.45035827 0.19938762 1.4401065 0.18133648 0.72360235 -0.5504411 0.025187448 -0.5548637 -0.04383616 -0.3223914 0.41999513 -0.37911066 0.11529215 -0.32949358 -0.5576906 -0.33372477 0.5361439 0.9810526 0.32652274 -0.41219744 -0.102178894 -0.1761261 0.55510217 -0.43840882 0.35290223 0.2335701 -0.2096988 -0.00481376 -0.022168731 -0.20769513 0.12285433 0.11139115 -0.3256474 1.1974137 0.4807237 0.28339875 -0.07254095 -0.078365885 -0.17372638 0.023018587 0.40455547 -0.23468359 -0.46539173 -0.49032798 -0.8802705 0.6922057 0.12077514
183 -0.23279528 0.26616484 0.9351091 0.82044214 -0.7133058 -0.7198025 -0.29623663 0.14418167 -0.62254286 -0.07016116 0.4039742 -0.45009547 -1.0526234 -0.5196897 -0.73585504 -0.37673226 0.3431294 0.0900322 0.16307801 0.7147874 0.24349588 0.41682544 0.036188845 -0.38127315 -0.23775795 0.09717657 0.09620042 0.67504215 -0.42079115 -0.20377934 -0.8133237 0.481715 -0.6240331 0.48925442 0.5568485 0.38288012 0.102331504 -0.03608811 -0.15247627 0.48502734 -0.23941684 0.19069485 -0.28900665 0.23787595 0.18173233 -1.192891 -0.087096505 0.36598542 -0.28203905 0.95190185 0.092341356 0.50745934 0.2300795 0.05618599 0.5965494 -0.98076516 0.5585642 -0.6554007 0.00044484768 0.3388987 -0.7489191 0.2932398 0.5616075 -0.26586094
194 -0.013460088 -0.034621455 0.5768332 0.2745667 -0.14699166 -0.6263687 -0.35994947 0.05470673 -0.030908078 -0.09913843 0.47500163 -0.82158595 0.07775055 -0.07500302 -0.8438699 0.6269065 -0.49314436 0.5638782 -0.40494365 1.1025766 1.1801474 0.118428364 0.3552565 -0.613899 -0.6423535 -0.42273566 -0.39958125 0.6220135 -0.27998272 -0.10564619 -0.57003874 0.07617523 0.36476576 0.081237406 0.06963831 0.14500503 -0.187685 0.6540389 -0.085523285 -0.2592893 -0.34887937 0.4629331 -0.23577823 -0.12546141 0.39177155 0.6984654 0.22284962 -0.24458234 0.15035592 0.13042794 0.117119625 0.40460154 0.36256978 -0.00050642714 0.14085393 -0.25989863 0.23479499 -0.030027485 -0.3146014 -0.6781982 -0.038691916 0.1671711 0.10572544 -0.014342588
293 -0.022651484 -0.03037124 0.5835775 0.19380991 -0.1429117 -0.6097512 -0.3892816 0.07749977 0.0070723398 -0.07018567 0.3828632 -0.8331408 0.097732954 -0.005034323 -0.80326986 0.611432 -0.45814753 0.52985555 -0.34411392 1.0973834 1.2135447 0.16872522 0.3547526 -0.60911936 -0.6713569 -0.35347772 -0.3588548 0.6700454 -0.33286032 -0.13864519 -0.625504 0.06646569 0.3224557 0.10004812 0.093405865 0.12351444 -0.13638192 0.59836894 -0.1211554 -0.24484621 -0.329127 0.48967734 -0.25117376 -0.11477452 0.47108692 0.58258486 0.24012542 -0.22574806 0.18587053 0.19910847 0.103315264 0.4192617 0.39046738 0.059614126 0.30706942 -0.23297395 0.29661506 -0.029506853 -0.320012 -0.5954383 -0.08377382 0.27241835 0.19237407 -0.077016674
294 -0.019157419 -0.1068208 0.6376753 0.18213883 -0.17397898 -0.62215495 -0.39110222 -0.0350921 -0.016523575 -0.057808273 0.3544854 -0.80143166 0.14197585 -0.090420745 -0.841237 0.6007953 -0.5065575 0.57846254 -0.3815291 1.0636485 1.1447296 0.19970939 0.32269937 -0.59725934 -0.61548847 -0.3767271 -0.3443629 0.6270706 -0.31301525 -0.15384488 -0.6067388 0.099885896 0.38342425 0.090046294 -0.03388332 0.15074313 -0.1305221 0.59434247 -0.06852699 -0.1804583 -0.4008395 0.3791974 -0.2142093 -0.12724634 0.43519723 0.7088845 0.28205457 -0.21729796 0.22002214 0.14799356 0.057566993 0.45534542 0.36292526 0.049963366 0.23845547 -0.26295608 0.26313886 -0.011415833 -0.34330386 -0.62794584 -0.07373444 0.22270213 0.158822 -0.033319164
288 0.034535255 0.010278879 0.8151593 0.195624 -0.3569995 -0.64875114 -0.23940669 0.090529256 -0.01840856 -0.06429375 0.30510375 -0.9036362 -0.116697304 -0.20329201 -1.0701966 0.57869184 -0.54489076 0.5371304 -0.34646514 0.9546919 1.168057 0.13906193 0.54034394 -0.6826878 -0.4473305 -0.28039113 -0.25038818 0.5958882 -0.3511654 -0.120805494 -0.7392042 0.09848197 0.11420201 -0.10250655 0.33513176 0.15579991 -0.13033117 0.70139015 -0.05876632 -0.44170904 -0.19072498 0.52731425 -0.4517876 -0.07361714 0.358432 0.580045 0.166303 -0.13342744 0.06853995 0.5210472 0.14811915 0.560731 0.2850097 -0.03052309 0.5403537 -0.53219974 0.5164058 -0.27773485 -0.27906016 -0.77744514 -0.2374237 0.0707423 0.12528645 -0.16777688
114 -0.099809095 -0.42804137 0.35046706 -0.22322711 0.089033455 -0.8910627 -0.27055797 -0.01814265 0.28180918 -0.15346651 0.17050016 -0.13207702 -0.28960893 -0.3575844 0.069403864 0.5656257 0.26931968 -0.61251867 0.097497016 1.4433151 -0.05072293 0.3248937 -0.52219105 -0.3600372 -0.458154 -0.24932064 -0.24362935 0.39240786 -0.041223995 -0.19105737 0.04027656 -0.74117744 -0.16864116 0.1663369 0.4626861 0.7854352 -0.7982053 0.0047383234 0.06588994 0.44187614 -0.19351211 0.22421724 0.22410098 -0.35904855 -0.01851917 0.18392827 0.28568843 -0.33625838 -0.17412297 -0.67772233 1.0180681 0.36323783 0.5793017 -0.23622076 -0.1483788 -0.6182864 0.2971405 0.09521238 -0.22518949 -0.64831996 -0.64038414 -0.72012067 0.17164457 0.42147148
164 -0.20893838 0.39818397 0.13447389 0.027412275 -0.29271594 0.20661652 -0.085775845 0.19539717 0.31267875 0.5882975 -0.106599174 -0.089928545 0.27595466 -0.026512476 -0.9426159 0.531813 0.7128404 0.49724126 0.32834098 1.0497488 0.2725142 -0.5886715 0.6202706 -0.58275557 -0.19889973 0.31470564 -0.21786292 -0.362578 -0.2718697 -0.43958077 0.7829258 0.01230498 -0.28644878 0.29939032 0.3975409 0.28028762 -0.5173795 0.39986002 0.38215634 0.3657896 -0.045607656 0.48057717 -0.017855076 0.043197524 0.060778957 -0.3535792 0.27320722 0.47610527 -0.911997 -0.25438097 -0.2686399 0.17791986 0.33517048 0.39495808 -0.29198387 -0.48703474 -0.42295834 0.032928783 0.13167423 -0.0004039617 -0.1278128 0.13732022 -0.17071399 0.19409676
106 -0.015956007 -0.25006184 0.44123736 0.30784824 0.23892419 -0.50006264 -0.16716962 -0.40873483 0.52402574 0.2070876 0.04519881 -0.4635207 0.46578777 -0.24974932 -0.22901633 -0.0007704251 0.28636894 -0.44856876 0.2839867 1.3311892 0.19865957 0.7105778 -0.5666861 -0.07212389 -0.5640047 -0.039579198 -0.2930001 0.4463818 -0.36723235 0.12013251 -0.28441858 -0.594106 -0.32694134 0.5029088 1.0124903 0.25871927 -0.47847813 -0.1504057 -0.19593507 0.62893367 -0.4360624 0.27843913 0.1972477 -0.23969619 -0.045618977 -0.046127774 -0.21808727 0.16060649 0.01891398 -0.21671294 1.2443793 0.4767993 0.26468328 -0.06164178 -0.06515483 -0.2608266 0.038046643 0.42632052 -0.22357595 -0.52742505 -0.5324696 -0.8693614 0.74908525 0.107210614
82 -0.19469085 0.13654009 0.2493324 0.29391953 -0.62287766 -0.15708189 -0.26226634 -0.16947344 -0.2368389 0.16507782 0.25399533 0.28679776 -0.30318427 -0.015284451 -0.29774904 0.13878322 0.48580533 0.7949065 0.12864839 1.1570404 -0.06723035 0.12357828 0.13811263 -0.47465637 0.16107945 -0.3705186 -0.59020627 -0.39469725 -0.13720874 0.11139438 0.866201 0.1720321 -0.3193014 0.18210737 -0.10694839 -0.15018071 -0.9920526 -0.2070686 0.81727225 0.2829571 -0.10790579 0.14188522 0.5510208 0.2597084 0.4683605 -0.42490438 0.43368807 0.3968322 -0.09343801 0.30997583 -0.16500811 0.31201473 0.76999855 -0.2556845 0.06711082 0.085961945 -0.065823905 0.67964154 0.20793399 0.32782868 0.02333272 -0.29579082 0.1667808 -0.34273067
97 -0.216545 0.17915674 0.025516283 0.006135899 -0.54934275 -0.061342705 -0.029959764 0.14446157 0.23725288 -0.06436312 0.12743239 -0.1390684 -0.23965995 0.11662561 -0.64969945 0.46424478 0.39832142 0.009936293 0.47496843 0.8960738 -0.098090194 -0.34518132 0.29810476 -0.55362445 -0.16145046 0.21836682 0.2562879 -0.34690744 -0.21964407 -0.17934829 1.0766655 0.31816298 -0.02138406 0.24236067 0.37709582 0.7210876 -0.60309637 0.3514344 -0.04998257 0.49187192 -0.2111409 0.10570927 0.18750027 0.49386093 0.4008794 -0.6213464 0.28821766 0.26577377 -0.28214955 0.070601165 0.083544694 0.048872367 0.31506854 -0.15277751 -0.046126395 -0.1396834 -0.21196532 0.5354529 -0.31888968 -0.21436366 0.20579377 0.23632592 0.028506152 0.23101264
254 -0.16620578 -0.25783423 0.10962318 -0.049326073 -0.5504614 0.043674767 0.028666057 -0.12935531 -0.21712604 0.09919081 -0.16618405 -0.0934352 -0.050774034 0.06428952 -0.7474965 0.479258 -0.063119754 0.31406638 0.09320718 0.8134103 0.101039186 -0.2927631 0.13453783 -0.2596986 -0.21726504 0.1901489 0.05395347 -0.3794452 -0.052361626 -0.1830086 0.9632267 0.09741227 -0.29206103 0.3193998 0.32551485 -0.06820265 -0.46298373 0.23582721 0.1480001 0.24827813 0.17386241 0.10693367 0.17646424 0.65249693 0.28162494 -0.6574749 0.6697376 0.06192128 -0.45951968 0.12626553 0.39801654 0.009531263 0.32247198 0.22676171 0.16890754 0.24989077 -0.008578948 0.09389043 -0.23403874 -0.3779358 0.059628434 -0.14942373 0.38344777 0.2999939
10 -0.24189529 0.1320459 0.1516986 0.13346906 0.04443718 -0.33352035 0.059423134 0.54875356 0.30804893 0.528109 0.1429377 0.12747495 0.40022713 -0.19964923 -0.7974291 0.80088 0.57717973 0.36924967 0.3828355 1.0780697 -0.060645647 0.4737818 0.66547346 -0.59353715 -0.078293696 0.6081252 -0.3910397 0.14699954 -0.22485983 0.0517603 1.0550504 0.23699842 -0.8219078 0.36009225 0.22489674 0.83779806 -0.7771251 0.3416669 0.67252386 0.30789363 -0.20950304 0.38236693 -0.3320531 0.1660738 0.2199914 0.077007316 0.14202143 -0.030790985 -0.8383518 0.52350456 0.30436692 1.0571148 0.65458184 0.779953 -0.03747413 -0.61371887 0.53844166 -0.3978699 0.25233755 -0.2035414 -0.107030734 0.116098516 -0.451417 0.2471648
26 -0.14538416 0.18102665 0.25274783 0.26444915 -0.79457194 -0.10781257 -0.29528746 -0.23748645 -0.13537069 0.12963173 0.1528691 0.29296643 -0.3766585 -0.0803265 -0.30938497 0.18188845 0.45992014 0.8541864 0.016208228 1.1649498 -0.13160251 0.02582314 0.04065198 -0.4803839 0.28397 -0.38386855 -0.5278157 -0.42476842 0.0017142387 0.18225361 0.8352785 0.23466516 -0.38171235 0.101042315 -0.0576674 -0.16882369 -0.9781649 -0.16259648 0.73736763 0.19837016 -0.15858603 0.15073468 0.63255364 0.31620932 0.3880439 -0.44581994 0.40915436 0.420871 -0.07393356 0.32110965 -0.05319949 0.36202127 0.75344324 -0.26666647 0.13316855 0.20286739 -0.035092432 0.62876964 0.18687098 0.4572466 -0.011232193 -0.30749118 0.25744236 -0.36097133
214 -0.31468815 0.13786839 0.39606562 0.41808018 0.24838525 -0.34641016 0.34264165 -0.63074607 -0.7862285 0.047702093 0.52891445 0.14458717 -0.84921366 -0.15093958 -0.062402673 -0.18912874 0.3293321 0.09554124 0.033242777 1.4202831 0.35272393 0.50429213 -0.50037766 -0.5310152 -0.11887548 -0.72716224 -0.27509928 0.33276805 -0.17898095 0.2992772 0.09961964 0.19994915 -0.0377243 0.6560632 0.11493102 0.110658765 -0.54124564 -0.0356891 0.3646792 0.58445185 -0.870167 0.10698956 0.35628298 -0.1377105 -0.25779986 -0.33517495 0.38340473 0.45586815 -0.31149077 0.62027365 -0.03784159 0.23142307 0.7680066 0.26486057 0.079783686 -0.1608711 -0.2814595 0.15754375 0.40157524 0.17750166 -0.46517938 0.11886132 0.63404703 -0.35744128
102 -0.19783919 0.34999856 0.1318325 0.010104958 -0.63662237 -0.23002619 0.068160065 0.20837338 0.27476558 -0.09626962 0.08682162 -0.2319501 -0.048966236 -0.06452128 -0.7341006 0.43875307 0.52816236 0.15105025 0.5156702 0.87827516 -0.12693542 -0.3346318 0.29668233 -0.5895426 -0.085453056 0.20959507 0.31594747 -0.38014168 -0.14785123 -0.17326213 0.94235957 0.42188498 -0.0039121695 0.18565173 0.42211807 0.5797559 -0.6001499 0.4105121 0.04811548 0.56798154 -0.24622318 0.28830644 0.14884605 0.5023417 0.22525997 -0.5758812 0.4341949 0.39275518 -0.34205377 -0.038983103 -0.14261375 0.013641575 0.2876775 0.008273177 -0.24007401 -0.25698906 -0.29208753 0.57148534 -0.18595219 -0.35462508 0.21829869 0.22647363 -0.167506 0.15172751
144 -0.08094473 -0.40322256 0.38849965 -0.17161883 0.15293509 -0.9126407 -0.26077276 0.014531218 0.3068701 -0.27383837 0.20322464 -0.21929015 -0.34412318 -0.3984234 -0.0652221 0.5603383 0.27171737 -0.6587608 0.21469061 1.4114331 0.029237552 0.30367756 -0.4559468 -0.41541514 -0.46249261 -0.20682321 -0.19556098 0.39772993 -0.066558994 -0.22346401 0.0033169603 -0.80638796 -0.06587449 0.13771088 0.5487201 0.78701496 -0.7814033 -0.042004146 0.028756147 0.48519823 -0.16341117 0.1788914 0.18576437 -0.38069677 -0.120171145 0.17938438 0.24740389 -0.35946897 -0.24478866 -0.62717533 0.9578819 0.21151298 0.51168406 -0.17436199 -0.2583497 -0.6454349 0.17286421 0.036169343 -0.2871568 -0.6627799 -0.55202216 -0.73236704 0.15136953 0.48015708
2 -0.28589845 0.057538718 0.24742033 -0.020298043 -0.6218426 0.027291432 -0.19152802 0.006188706 0.09690095 0.028749013 -0.05235961 -0.16978501 0.058054358 0.0076318355 -0.8115485 0.39908993 0.2087224 0.4036838 0.13335867 0.8489324 -0.043268353 -0.35005873 0.12857527 -0.33624488 -0.20516425 -0.06777331 -0.016962208 -0.44317505 0.010923951 -0.2575493 1.0545683 0.2558189 -0.1949893 0.30843896 0.0448139 0.035223894 -0.5058444 0.073846675 0.07261157 0.48513559 -0.02392224 -0.06689953 0.3475888 0.69224876 0.24997512 -0.7575977 0.6411803 0.22604434 -0.55983025 0.111733794 0.0004934019 0.018395236 0.38668165 -0.048318606 0.22726896 -0.029961767 -0.2285738 0.1968356 -0.22007567 -0.20887402 0.074027374 -0.1407148 0.123020805 0.2501959
176 -0.42002237 0.37142187 0.36479372 0.39069432 0.19869041 -0.2688828 0.33861715 -0.6362053 -0.4073444 -0.057917826 0.75177306 -0.012531434 -0.4675244 -0.5392998 -0.31941313 -0.3639601 0.20157884 0.36298016 -0.040768787 1.5802275 0.50366056 0.42748025 -0.15577352 -0.56991696 -0.19119656 -0.8937135 -0.5850821 -0.05091794 -0.26885283 0.433636 0.33967188 0.013364502 -0.11128524 0.19629821 0.16938269 0.024775414 -0.74404174 -0.2110473 0.5400633 0.14766921 -0.3930582 0.15814216 0.6578256 -0.2013766 -0.14483182 -0.008431916 0.32343194 0.21528064 -0.1198481 0.6803088 0.0321465 0.80992854 0.93400186 -0.15820011 0.1780877 -0.055169497 -0.2516046 0.75279415 0.98777956 0.1829444 -0.28272858 -0.14037961 0.3981045 -0.83455
292 -0.006935243 0.023126628 0.6014553 0.2898866 -0.16040514 -0.56492203 -0.38262933 0.025466967 -0.021478424 0.018218653 0.42531145 -0.7906372 0.059996735 -0.033809964 -0.8699683 0.6333672 -0.42802474 0.61045265 -0.39469686 1.0952737 1.2512835 0.16925743 0.37185448 -0.585682 -0.6729041 -0.4640288 -0.39472845 0.73826265 -0.39667726 -0.14024818 -0.6887746 0.14056322 0.33664495 0.06311533 0.11749584 0.076048024 -0.057004012 0.6454803 -0.18861428 -0.2340786 -0.28242132 0.45377466 -0.24194263 -0.10348945 0.3847546 0.5709567 0.16084471 -0.15546758 0.12684436 0.26595426 0.18786168 0.41585234 0.3708762 -0.033356406 0.22990079 -0.28451312 0.22441277 -0.038232464 -0.33179522 -0.7007424 -0.040880654 0.18878266 0.17524351 -0.053107657
289 0.0038016692 -0.013150657 0.5794135 0.2691815 -0.13933258 -0.5547413 -0.35761616 0.06297681 0.021628125 -0.04174552 0.45989287 -0.7950381 0.029702289 -0.10574071 -0.9036471 0.6483665 -0.46221805 0.5309134 -0.40568617 1.1188459 1.2071103 0.111708626 0.41435775 -0.64793724 -0.6533613 -0.4227808 -0.3708536 0.67748815 -0.333329 -0.11201324 -0.6784092 0.12426544 0.33772698 0.036504608 0.1300006 0.11758789 -0.1505392 0.6858702 -0.15192516 -0.31261393 -0.2632575 0.46873105 -0.27088404 -0.10329068 0.39394706 0.65954137 0.18904923 -0.23246863 0.08041863 0.32682285 0.17828694 0.4075282 0.37418407 -0.04379979 0.23556487 -0.31282425 0.31449103 -0.11812493 -0.2739886 -0.679794 -0.06487119 0.17321809 0.13492094 -0.08628145
313 -0.15910208 0.4561978 0.13291255 0.12849943 -0.6664898 -0.16099323 0.03684694 0.2716979 0.33279884 -0.1257146 0.17081057 -0.26590627 -0.026465954 0.01384507 -0.61820346 0.28641072 0.5240054 0.30409282 0.5915116 0.86806774 0.030473849 -0.2862333 0.41539136 -0.627873 -0.0974118 0.24636589 0.16756962 -0.38864803 -0.18855104 -0.19690719 0.8648751 0.39180243 0.029297113 0.15601811 0.40235388 0.66279924 -0.5454645 0.4670958 0.10817259 0.6069411 -0.29000813 0.32852837 0.17482227 0.4458228 0.36139286 -0.7242548 0.38817367 0.55104 -0.33091056 -0.11425097 -0.14164217 -0.053638484 0.25615865 0.03308413 -0.1799754 -0.17894594 -0.2862722 0.526634 -0.2939779 -0.3731188 0.26055425 0.16445573 -0.05949703 0.20370644
46 -0.26286364 0.11243183 0.055040922 0.102676556 0.105752744 -0.2016757 0.11708239 0.63818 0.31118283 0.48506388 0.13531247 0.22015621 0.3296636 -0.20803817 -0.74028337 0.7367397 0.63392216 0.32666653 0.3869523 1.1790388 -0.03447037 0.39345944 0.7104513 -0.66394323 -0.18371789 0.63443464 -0.4571441 0.07931097 -0.15741001 -0.05231513 1.0853297 0.30657804 -0.7848714 0.41023204 0.19476402 0.67893213 -0.596256 0.23603441 0.6887259 0.17159759 -0.069380745 0.4327724 -0.29884237 -0.015519137 0.18644543 0.0911518 0.030772509 -0.0097886855 -0.8563289 0.43946582 0.15782511 0.93944734 0.6381061 0.7170688 -0.008221865 -0.603216 0.45885718 -0.25534415 0.27968138 -0.21085991 -0.33576193 0.18390495 -0.39053434 0.12188415
212 -0.44168726 0.4313143 0.32928687 0.519314 0.18000817 -0.29830846 0.3312301 -0.6616852 -0.43328416 -0.060066693 0.78430176 0.053438496 -0.5142186 -0.4694988 -0.2919515 -0.3514414 0.13589367 0.44246784 0.06389963 1.5579791 0.49097317 0.39404014 -0.17999236 -0.60467374 -0.17655368 -0.82988 -0.60986745 -0.0078730015 -0.33800367 0.4619034 0.35314327 -0.058745813 -0.045309685 0.27527347 0.17708133 -0.026670152 -0.7305574 -0.17350991 0.47702077 0.10258322 -0.4354853 0.16806388 0.7438161 -0.23968388 -0.14476736 0.02807156 0.24573569 0.22742876 -0.1266244 0.60911214 0.05190975 0.75387365 0.9362467 -0.14995617 0.10290015 -0.0959107 -0.23415361 0.80935293 0.9473631 0.12360857 -0.35508367 -0.15720738 0.3476287 -0.82822925
27 0.011458151 0.03771902 0.8491749 0.20087847 -0.42464796 -0.6800754 -0.27505267 0.1550329 0.045353916 -0.09196155 0.27764264 -0.916755 -0.15020092 -0.22716169 -1.1438462 0.518273 -0.5023563 0.50842816 -0.32034102 1.0065181 1.2690644 0.14495972 0.62791806 -0.6802228 -0.48845136 -0.23585853 -0.21402387 0.6758008 -0.47231176 -0.17486009 -0.80322766 0.15445642 0.10426568 -0.124470964 0.3471729 0.22672199 -0.049806364 0.73231137 -0.11413269 -0.47141683 -0.17288229 0.6100034 -0.6035717 -0.12178734 0.37195882 0.53751427 0.14922783 -0.039782044 0.007893555 0.59444803 0.17442203 0.60804194 0.24043067 -0.0038136742 0.5789026 -0.58406603 0.59352094 -0.39006335 -0.2065867 -0.77249956 -0.18885042 0.07467817 0.10773932 -0.1671372
297 0.0008757246 -0.006482489 0.58614165 0.2414698 -0.121233016 -0.57090884 -0.37446162 0.05667967 0.037825536 -0.08968971 0.42282358 -0.8165615 0.054678477 -0.08746679 -0.87062204 0.6460103 -0.37812364 0.50360703 -0.3553277 1.1691623 1.1621597 0.13228734 0.40013948 -0.6263291 -0.65009105 -0.39009824 -0.35180596 0.67961407 -0.3683474 -0.14502509 -0.6824427 0.1018279 0.37281796 0.014503516 0.07698615 0.10951705 -0.14288938 0.6587387 -0.15184835 -0.3419943 -0.18708842 0.40563464 -0.21835954 -0.12904808 0.35317573 0.68605965 0.15555552 -0.2593344 0.11047809 0.30062142 0.14224128 0.42044628 0.4146768 -0.04561892 0.278669 -0.36075768 0.3571882 -0.14653814 -0.2982909 -0.6380889 -0.09188268 0.1922157 0.19289444 -0.09934323
238 0.07102746 -0.30834895 0.8880074 -0.1965264 0.13607953 -0.93902856 -0.34906736 -0.2214674 0.02568148 0.261691 -0.05186354 -0.6463882 0.47856396 -0.07515158 -0.73041373 0.73994833 -0.7685205 0.141588 0.13346843 1.193045 0.6465336 0.4917599 -0.31000608 -0.29797217 -0.48369107 -0.3719805 0.07123614 0.34847897 -0.30600545 0.2506186 0.13792518 -0.821539 -0.016320491 0.22023526 0.12210086 0.22901486 -0.7652766 0.26752496 0.48239526 0.26780197 -0.939182 0.044469725 -0.11286768 -0.24165155 0.2222401 1.0304011 0.46523714 -0.3095664 0.4550897 -0.4313085 0.15154569 0.41627786 0.24293019 0.37525633 0.16101201 -0.19563389 0.09808883 0.35969198 -0.15296637 -0.71318907 -0.074057825 -0.21079698 0.097888246 -0.038115297
220 -0.22049864 0.1546292 0.6182267 0.39118305 -0.46585032 -0.6336512 -0.13534607 0.024412354 -0.5067993 0.0012917898 0.29596207 -0.25695908 -0.6916571 -0.37908408 -0.3476865 -0.3982978 0.6972998 0.17040625 -0.018236827 1.0451983 0.0487851 0.59386164 -0.28793514 -0.36538318 -0.43515843 -0.12953645 -0.31885418 0.352558 -0.18694 -0.15399036 -0.36657584 0.19859974 -0.3418122 0.28921917 0.06257589 0.30910793 0.03585683 -0.39335543 -0.24605581 0.45716542 -0.300145 -0.0076264627 0.023405282 0.08736381 0.31482032 -0.77365774 -0.040091284 0.27569386 0.09050041 0.58662724 -0.26191962 0.598019 0.46166712 -0.05885879 0.30160835 -0.5133618 0.41696724 -0.054689076 0.010577787 0.6823567 -0.48007488 0.20227796 0.13100886 -0.13178506
88 0.07774407 -0.37163076 0.030792424 0.033570565 0.23589376 0.31845498 -0.23934388 -0.25326464 -0.26743156 0.9799629 -0.5500349 0.12463478 0.31301004 -0.44934574 -1.1982586 0.71774775 -0.23448965 0.5382933 -0.18254757 1.4810576 -0.59141195 -0.60687476 0.26279294 -0.52607507 -1.0092015 -0.47930315 0.2703423 -0.14519915 -0.5647793 -0.00096371694 0.63420343 0.19351766 0.30477563 0.5674222 0.2520909 -0.34366024 -0.38047525 -0.35946876 -0.0549532 0.5277368 -0.1339534 -0.1207609 -0.36880708 0.72554 0.08366717 -0.24444252 0.5153445 0.1278806 -0.2658457 0.04648078 0.52651906 0.26536745 -0.28302926 -0.17406224 -0.21610843 -0.567067 0.07978393 0.046156324 0.5897994 -0.27291065 -0.58155644 0.5730118 0.37451515 -0.11280594
101 -0.032991447 -0.16210674 0.39982542 0.2601133 0.20052303 -0.46723053 -0.15255128 -0.35694504 0.51285595 0.16363409 0.07871216 -0.44241685 0.44217706 -0.24100858 -0.34363005 0.009376771 0.1466455 -0.35845873 0.29796636 1.3938646 0.24263187 0.73198056 -0.5267896 -0.10580941 -0.5768175 -0.02641134 -0.27780238 0.46019605 -0.42571238 0.18936998 -0.28573778 -0.5559551 -0.24501553 0.52386296 0.96872735 0.2683928 -0.4645507 -0.12811571 -0.15424708 0.54045635 -0.45807704 0.2606447 0.15853524 -0.15410435 -0.023971897 0.024753435 -0.22329035 0.12657161 0.121213794 -0.296122 1.2251667 0.41890484 0.1118762 -0.037354562 -0.14069872 -0.24101649 -0.085634805 0.4131082 -0.2010075 -0.4554019 -0.40649047 -0.8939048 0.70229584 0.05738582
36 -0.3086831 0.02073888 0.6235838 0.66124994 -0.17248794 -0.38279787 0.004425722 -0.13981147 -0.6601786 0.07368881 0.40578663 -0.13218947 -0.7063603 -0.20558752 -0.25530297 -0.069433235 0.4551049 0.13483892 0.08299902 0.9461367 0.09785571 0.5403426 -0.35250443 -0.41594163 -0.32575318 -0.25652134 -0.33911976 0.38131773 -0.14910258 -0.01948851 -0.036443107 0.044096254 -0.14347982 0.64280516 0.09744656 0.10967105 -0.18334796 -0.15527958 0.09238805 0.5314316 -0.6180059 0.07116517 0.2798313 0.05436894 0.35164183 -0.6624338 0.0045609805 0.3152456 -0.09512842 0.6204124 -0.39192444 0.28365594 0.7642416 0.14590941 0.038177248 -0.21738833 0.076773494 0.10110457 0.25181666 0.78626287 -0.32553047 0.39636055 0.25219604 -0.1926999
193 0.026386999 -0.44354883 -0.0043579834 0.11933653 0.19033024 0.06331352 -0.23686802 -0.034455653 -0.55123776 0.5984155 -0.3298018 -0.21893744 0.15157011 -0.17620687 -0.68993 0.54836863 -0.26778772 0.23180884 0.13722177 1.157421 -0.017044054 -0.41751578 0.36580837 -0.45679522 -0.5972516 0.050960567 0.20875031 -0.078968115 -0.6869965 -0.17700174 0.768339 0.080355115 -0.42355248 0.7624122 0.18008804 -0.18446139 -0.05084775 0.17138657 0.020037226 -0.0031505148 -0.049433608 0.20721176 0.19816153 0.7908535 0.10068384 -0.5651111 0.71067387 0.35184547 -0.109322146 0.04716821 0.5729484 -0.0967947 0.14635465 -0.056607146 -0.08058769 -0.055723574 0.5877472 -0.16368224 -0.28427097 -0.6945586 -0.4981934 0.066654444 0.16390191 0.30992132
81 -0.11423612 -0.26426074 0.31220153 -0.056575093 0.08466219 -0.78252876 -0.19992684 0.032224473 0.45432347 -0.20752984 0.18834177 -0.36832115 0.121439755 -0.30249193 -0.1777807 0.21434738 0.26760188 -0.37719837 0.3894181 1.3394836 0.10619067 0.1410326 -0.35852742 -0.39765212 -0.41458896 -0.017144734 -0.052781396 0.29725534 -0.19562888 -0.30071655 0.027711594 -0.7670059 0.08383032 0.086995184 0.7233255 0.9642637 -0.7685137 -0.017332023 -0.08894423 0.6290217 -0.06429997 0.25263974 0.021585468 -0.368583 -0.17645727 0.34024316 0.07118105 -0.14558645 -0.21283369 -0.6598652 0.95258415 0.41750625 0.1986053 -0.25621617 -0.35613817 -0.81196284 -0.22384852 -0.035752527 -0.15582459 -0.4992525 -0.2199999 -0.7844346 0.20311858 0.48723134
124 -0.3447909 -0.05649221 0.6612456 0.6289163 -0.085173756 -0.4129786 0.012981329 -0.18356287 -0.68838775 0.08859319 0.4278505 -0.1330379 -0.68307364 -0.22096121 -0.1799492 -0.009365077 0.33095 0.1891332 0.19825861 1.1533395 0.09987421 0.52641875 -0.4515282 -0.36999208 -0.32607225 -0.40115535 -0.29863143 0.2870754 -0.090208225 0.033666298 0.0019844356 0.1740715 0.07322991 0.56427574 0.11455013 0.17169192 -0.19914994 -0.1565561 0.08574447 0.5504718 -0.5802733 0.012363872 0.37026724 0.009282202 0.08666211 -0.5472342 0.011228313 0.25491023 -0.18613176 0.58157355 -0.32851538 0.18559743 0.82323784 0.12031429 0.099050894 -0.32939476 -0.15839306 0.12234877 0.28935573 0.82004046 -0.39803308 0.3633371 0.34956792 -0.2736529
16 -0.29504833 0.074052356 0.07684207 0.009517611 -0.07962077 0.021467712 0.06804422 0.4579301 0.36343282 0.8102706 -0.08617213 0.38555506 0.36859807 -0.1609978 -0.84840816 0.7025959 0.6242101 0.5242572 0.20983651 0.936173 0.07479217 0.11511209 0.5756136 -0.48002183 -0.15355578 0.57527655 -0.47804353 -0.14101815 -0.07636078 -0.13411066 0.9234635 0.4538785 -0.61478287 0.5024479 0.14191853 0.5766944 -0.23333848 0.19915032 0.50110406 0.09016318 -0.059397954 0.41457683 -0.36837837 0.007994408 0.298916 -0.021972166 -0.097965784 0.11148309 -0.9607049 0.44485298 -0.009090923 0.76749635 0.40012076 0.7594289 0.11801937 -0.4613198 0.10818186 0.009026584 0.28933796 -0.046566263 -0.4375186 0.43159342 -0.15440142 -0.029045988
222 -0.2574626 0.1484577 0.62589794 0.4752675 -0.5064714 -0.59655917 -0.14982352 -0.059573814 -0.59804136 -0.067028485 0.34859812 -0.35397142 -0.8598252 -0.42736036 -0.43202037 -0.39809996 0.67769915 0.20827004 -0.062017098 1.0018947 0.063791715 0.6183784 -0.27902535 -0.3241189 -0.37033755 -0.14444652 -0.28572565 0.36665148 -0.24601777 -0.10017778 -0.29416516 0.2885692 -0.40845197 0.28982925 -0.039107464 0.2738468 0.07974597 -0.36369306 -0.15357262 0.4479101 -0.2554736 0.013261598 0.036608174 0.18931644 0.27267012 -0.8387997 0.035718165 0.32380208 0.07863072 0.6015881 -0.17358594 0.6118757 0.41225296 -0.112329595 0.27228114 -0.44270712 0.3537474 -0.020421186 0.12382625 0.5546267 -0.4471746 0.2383524 0.13598931 -0.13627416
316 0.052190587 -0.5003735 0.24829113 0.106420286 -0.008318045 -0.04273878 -0.16811147 -0.06269691 -0.50213194 0.52059925 -0.4062476 -0.095977485 -0.03765044 -0.12414537 -0.48814312 0.71498233 -0.19960852 0.3495853 0.14958128 1.2944388 -0.020095713 -0.27916598 0.41868624 -0.42656264 -0.5441388 0.2774493 0.14289749 -0.22365303 -0.6605308 -0.22170772 0.9699876 0.2731907 -0.4184768 0.6022137 0.20756319 -0.27732724 0.010784373 0.19669583 0.1589148 -0.055989362 0.061474904 0.20969766 0.00086425844 0.6522264 0.12853244 -0.5648971 0.6420936 0.20969607 -0.24428864 0.14297645 0.6245331 -0.20237125 0.11197449 0.1867882 -0.058709487 0.017049205 0.46065652 -0.13321206 -0.4056775 -0.60233784 -0.48628783 0.17618269 0.40409938 0.3592263
187 -0.23321736 0.18668452 0.6005925 0.4306246 -0.5216544 -0.6612637 -0.17780356 -0.00071628776 -0.5299809 0.0032842704 0.3361337 -0.31805542 -0.8186717 -0.40663454 -0.38618127 -0.3876663 0.695394 0.25444862 0.0018832615 1.036603 -0.031624343 0.5429961 -0.2201466 -0.37963635 -0.2886395 -0.09441012 -0.27300268 0.22425686 -0.2319855 -0.04761898 -0.25585783 0.18185942 -0.4330538 0.26510376 -0.057810444 0.22042055 0.036344554 -0.46232295 -0.25435814 0.33179134 -0.34243926 -0.045932814 0.00022791306 0.13037296 0.35560077 -0.7839361 -0.06986198 0.28681096 0.1732592 0.63656485 -0.19592491 0.7169972 0.5575343 -0.17098738 0.26316163 -0.49705473 0.47822225 0.110057674 0.13116638 0.65676624 -0.5204407 0.10969207 0.12187035 -0.18268216
202 -0.16034806 -0.41126168 0.41182673 0.2549034 -0.25081256 0.67185676 -0.23604833 -0.51645267 -0.2953103 -0.089241564 0.2798094 -0.2040039 -0.32002786 0.05491248 -0.7684259 0.14788158 0.09024662 -0.12128674 -0.014628385 1.023731 0.100261696 -0.3506165 0.037106853 -0.8131848 -0.8350552 -0.08699813 -0.32307896 -0.41515967 0.02942903 -0.24048725 0.6369605 0.1942296 -0.2524471 0.23902763 1.0895755 0.042776406 -0.3159436 -0.050807945 0.21482709 0.2090383 0.6017497 0.8289364 0.052356556 0.35719046 0.6369902 -0.62008756 0.71012914 -0.028970754 -0.45471638 0.13511671 0.6832162 0.18517627 0.24047405 -0.23825699 0.41285494 0.034917433 -0.08158912 -0.11355934 -0.05728374 0.36218902 0.010560606 -0.2242168 0.26957923 0.14418393
37 0.09136621 -0.3301036 0.0914802 0.052142646 0.032209005 -0.096403226 -0.10362149 -0.072104424 -0.5314902 0.5316475 -0.35453433 -0.19659358 0.22681895 -0.25957066 -0.7410198 0.6492925 -0.17266567 0.1832354 -0.09052384 1.0557339 -0.0947311 -0.41572204 0.15358903 -0.18622257 -0.64839906 -0.11690035 0.15408391 -0.16308111 -0.6571266 -0.14497524 0.71316606 0.3318113 -0.2694049 0.79487467 0.3076367 -0.3453164 -0.18463181 -0.007582017 -0.015246977 0.22761962 -0.19666669 0.35434797 0.26918972 0.946827 0.014822111 -0.6365319 0.7856628 0.3432525 -0.1806236 0.29766294 0.6835146 0.0026115733 0.26139283 0.058600992 0.0006016484 0.036272444 0.6698162 -0.049663402 -0.17727962 -0.68888134 -0.5861804 0.04634887 0.30708015 0.19441278
318 0.05643155 -0.48531395 0.22706082 0.08454178 0.06081089 -0.103409134 -0.20741265 -0.0013860046 -0.42397654 0.4960122 -0.41404057 -0.11180714 0.013157622 -0.10335657 -0.43477002 0.71852255 -0.19841278 0.35147643 0.16422914 1.1541765 -0.05636228 -0.32267126 0.3556275 -0.30975232 -0.4610922 0.23782924 0.11189917 -0.20892526 -0.640384 -0.22296984 0.86996347 0.20143472 -0.44005927 0.4864935 0.20949537 -0.21083279 -0.105173506 0.2796355 0.12963928 -0.00657719 0.018072197 0.2156013 0.10060598 0.7994002 0.2206192 -0.6182174 0.71033585 0.24171993 -0.29182374 0.15623206 0.6878829 -0.15620068 0.1515839 0.18956627 -0.03970167 0.045901626 0.46262142 -0.13661739 -0.40776289 -0.62151515 -0.39047465 0.10754863 0.4610534 0.4591423
78 0.07333014 -0.3533321 0.06460933 0.05748548 0.01603116 -0.17050545 -0.16282837 -0.10009323 -0.5294591 0.58785266 -0.38169488 -0.10647604 0.18273546 -0.24313773 -0.68756455 0.68443215 -0.16711424 0.25241327 -0.045319896 1.119724 -0.1414657 -0.45405477 0.21822259 -0.15854505 -0.6310626 -0.07496848 0.18099856 -0.16369633 -0.7460853 -0.13097414 0.84931946 0.31463832 -0.26625186 0.8180082 0.22806618 -0.3287643 -0.12763046 -0.014089357 0.01129468 0.14750142 -0.23490964 0.23315829 0.22409807 0.89469314 0.004723004 -0.58904684 0.68668664 0.32774487 -0.12647352 0.2984451 0.61260164 -0.011887784 0.26177555 0.032088563 -0.0027383564 -0.08412748 0.68218464 -0.09369057 -0.18905623 -0.67278993 -0.56787974 0.03530824 0.316964 0.1859862
324 -0.25248805 0.15432894 0.1623127 0.04871283 -0.027416198 -0.13570425 -0.29778808 0.1810114 0.40170112 0.019196799 0.23381 0.026539842 -0.11477167 -0.121535614 -0.06128844 0.052863806 -0.30805784 0.61697966 0.50962126 0.8599852 0.057325773 0.2933173 -0.07103621 -0.96253747 0.027711598 -0.0600569 0.12213975 0.010441126 0.40705922 0.21643046 0.27352166 0.5063163 -0.38455924 -0.021104058 0.06638887 1.2162966 -0.45739034 0.64458644 0.32085425 0.46160558 -0.17747787 -0.014829773 0.44076282 0.13048144 -0.19698305 -0.15527967 -0.061804965 0.073563956 -0.60950667 0.17277902 0.3899913 0.32853815 -0.15359147 0.24670807 0.12033192 -0.7183865 -0.31757474 0.10025185 0.048465963 -1.4756675 -0.41965395 0.6054212 0.2870773 0.013351204
269 -0.30044976 0.76428396 0.24928586 0.16162641 0.4308542 0.22620746 -0.77026665 -0.5900353 0.5126918 0.14970718 0.2064389 -0.049979646 -0.5313694 -0.5425866 -0.5841385 -0.25557703 -0.24420115 -0.022085564 0.1399588 1.2138286 0.38026968 -0.79878795 -0.012349607 -0.15315032 -0.57367074 -0.37406942 0.1359384 -0.117829286 -0.4130605 0.10566765 0.24111722 -0.19716091 -0.7847359 0.54738176 0.26838592 0.6454894 -0.27314234 0.89955163 0.026940154 0.15945978 -0.2966854 0.20268235 -0.13272153 -0.53825307 -0.026478592 -0.07615503 0.056642964 0.42620665 -0.18456993 -0.48503312 -0.19395883 0.4637104 0.32713532 0.007255256 -0.27308425 -0.67183393 0.010971643 -0.042937092 0.017947545 -0.32178956 -0.55138886 0.28272498 0.43326324 0.24902351
305 -0.11639664 -0.45448598 0.52747476 -0.04777458 0.040438168 -1.039243 -0.16177385 -0.0037877802 -0.2466465 0.28635964 0.19726996 0.049671542 -0.41092074 -0.32263124 0.1340918 0.2542515 0.3232613 -0.043189507 -0.13628285 1.4393371 -0.16469425 0.28698772 -0.6045506 0.13643801 -0.3207541 -0.29638878 -0.6170258 -0.09598519 0.021152625 -0.25722924 -0.22091393 -0.083660156 -0.38063887 0.45322654 0.2019728 0.9696053 0.005554813 0.21977653 0.3125963 0.45084608 -0.11678331 0.4651941 0.41874534 -0.2845465 0.13254412 -0.10827619 0.2060507 -0.25402725 0.15340547 -0.5245175 0.77327114 0.28774136 0.7296243 -0.2535631 0.37891278 -0.27798063 0.6910986 -0.250898 -0.12340452 -0.26972434 -0.6682154 -0.31912395 -0.30008894 0.4144211
41 -0.2450274 0.4077764 0.3494221 0.0760595 -0.64007807 -0.095168754 -0.021740979 0.25611886 0.19638425 -0.1222998 0.052550238 -0.27357718 -0.06851122 -0.111591905 -0.77874625 0.4099991 0.53042966 0.33595428 0.44168073 0.92719054 0.008903088 -0.34114993 0.34905642 -0.43640426 -0.17215614 0.20009527 0.097200595 -0.4886679 -0.27276388 -0.31422168 1.1063305 0.43510967 -0.045400664 0.14333303 0.2602676 0.47690895 -0.5150494 0.3841146 0.06266181 0.52662617 -0.31679708 0.2600811 0.17890438 0.55110586 0.31908885 -0.6510241 0.44179294 0.43712324 -0.4317613 0.0781454 -0.23150007 -0.101152964 0.28165993 -0.040439628 -0.13761428 -0.08643589 -0.2728353 0.51345074 -0.26714858 -0.39995039 0.20103164 0.16440484 0.020354657 0.20041649
204 -0.1550148 -0.40145123 0.32344306 0.2571676 -0.2258978 0.6325246 -0.20842655 -0.4980935 -0.32090935 -0.031228185 0.2856432 -0.17013705 -0.3591918 0.08849656 -0.7262804 0.20701292 0.063960865 -0.07181019 -0.0041905376 1.0725652 0.12763561 -0.28975758 0.053123757 -0.8216419 -0.781407 -0.13811333 -0.29826263 -0.38811865 0.012446461 -0.2068713 0.5646987 0.20632857 -0.2510541 0.33895725 1.1410749 -0.012812197 -0.31449196 0.02847172 0.24296838 0.22458036 0.6959908 0.90180707 0.056980275 0.3839176 0.6728502 -0.7289643 0.78855777 -0.028493155 -0.4848951 0.19157885 0.6675702 0.07766894 0.2681826 -0.22244565 0.44201726 0.08572807 -0.08830416 -0.1673643 -0.032447096 0.3770117 0.050569493 -0.23108698 0.32188737 0.1981978
105 -0.35569498 0.0038987347 0.6701058 0.5820976 -0.13853122 -0.44466078 -0.013216241 -0.2511352 -0.709589 -0.012604826 0.42933634 -0.20870836 -0.768555 -0.22390237 -0.28085566 -0.08396306 0.29987895 0.15647101 0.17699438 1.1238102 0.11284862 0.53200245 -0.4567677 -0.42022973 -0.27530324 -0.33428615 -0.3113899 0.2884081 -0.15680362 0.045157354 0.027602043 0.099295236 -0.051946077 0.5609689 0.07877589 0.107144825 -0.24177805 -0.161941 0.0751208 0.513263 -0.5751315 0.0141037945 0.3945723 0.029221496 0.07287743 -0.55017483 0.04973097 0.2553283 -0.11401947 0.608139 -0.3167821 0.22199708 0.76699656 0.10193147 0.03555669 -0.17893633 -0.11856242 0.16114779 0.28556147 0.7590864 -0.30752528 0.39794004 0.37127623 -0.23267397
72 -0.23732597 0.15935218 0.1991124 0.06924017 -0.5842939 0.050522413 -0.24780184 -0.023873542 0.09835047 0.013698843 0.05822791 -0.16268107 0.08022045 0.14305218 -0.7662958 0.3488531 0.09484836 0.40344435 0.35506174 0.7546357 -0.10926677 -0.31347683 0.17001845 -0.49979323 -0.10155909 0.037827615 0.012135598 -0.41347483 -0.11853409 -0.10450837 1.0414234 0.25012735 -0.16583756 0.15986818 0.2688784 0.09548114 -0.6062971 0.15074079 0.22133608 0.50248855 0.04656785 0.16256662 0.28495675 0.5431636 0.25020337 -0.63152355 0.50841284 0.2673545 -0.45371404 0.23332484 0.22448923 0.08240814 0.27465025 0.005932888 0.08376332 0.07526881 -0.07576236 0.16611491 -0.20387422 -0.21997666 0.22048806 -0.112766095 0.18261918 0.23386745
151 -0.27511302 0.07077541 0.42457846 -0.04800422 -0.5860326 0.032035273 -0.25790393 -0.07875374 0.091471605 0.008331082 0.01041543 -0.13918768 0.043632593 0.10397657 -0.72289115 0.4094713 0.16309811 0.22338367 0.27946556 0.8071599 -0.062020086 -0.3139434 0.11277208 -0.3486461 -0.1608849 0.04344008 -0.00020878631 -0.46777576 -0.06452829 -0.22411323 1.1494912 0.2826312 -0.21757357 0.16766892 0.16384844 0.08783706 -0.5546361 0.15374838 0.15828648 0.5787237 -0.1820921 0.044257022 0.3577205 0.61953384 0.3017312 -0.5971221 0.56994563 0.1901169 -0.48564744 0.21157397 -0.038984258 0.014861964 0.25710025 0.0039914967 0.111709885 -0.048042316 -0.41207117 0.34473687 -0.23172525 -0.06460633 0.18836786 0.017457038 0.015821055 0.19548784
270 -0.2755898 0.7607107 0.24981546 0.1571208 0.45118612 0.26125944 -0.7739009 -0.6067049 0.50499004 0.14522375 0.17803498 -0.11481088 -0.51580787 -0.53879255 -0.56383073 -0.286467 -0.22069067 0.022047212 0.17553955 1.180901 0.34294617 -0.7891687 -0.025749441 -0.16347799 -0.61186296 -0.36053193 0.15263526 -0.17936806 -0.44520843 0.078311674 0.3471729 -0.27521056 -0.71386415 0.5874725 0.34782967 0.5877621 -0.2082037 0.95946556 -0.07703718 0.18532507 -0.37433216 0.27189016 -0.18809122 -0.5877009 -0.068402626 -0.09809202 0.10752451 0.45446986 -0.18299925 -0.44195342 -0.21438716 0.47000208 0.40788075 -0.0104780495 -0.3164917 -0.7283089 0.03464754 -0.14002554 0.020450447 -0.23238197 -0.4950335 0.26051927 0.37660095 0.27927616
300 -0.17096134 -0.4826776 0.55017394 -0.012537903 0.14240508 -1.0535761 -0.23917834 -0.1024488 -0.34630466 0.27315095 0.2094419 0.10459664 -0.42943582 -0.30158022 0.065627515 0.27301407 0.27868852 0.03902321 -0.101069674 1.4883815 -0.11310973 0.25306275 -0.6159126 0.058390386 -0.33552355 -0.43282813 -0.6483072 -0.08274228 -0.04509503 -0.21590409 -0.19244029 -0.054477345 -0.42609367 0.48845875 0.06495216 0.99229616 -0.019348664 0.20268361 0.3814481 0.4486853 0.008388685 0.37644285 0.47244474 -0.29051194 0.07238864 -0.1123798 0.29589155 -0.31645977 0.18506218 -0.5098754 0.86651766 0.23201089 0.65832657 -0.3094816 0.39462984 -0.32410395 0.70698696 -0.2697831 -0.07909671 -0.30058295 -0.61266834 -0.3323008 -0.29947144 0.4397826
94 0.06847555 -0.30642426 0.8853065 -0.33855125 0.1682101 -0.9821029 -0.26095018 -0.14517784 0.03616119 0.27857757 -0.108757444 -0.49440756 0.40051302 -0.07054368 -0.56518614 0.6422937 -0.6777972 0.03547687 0.16614409 1.2226293 0.6032937 0.5598061 -0.39350855 -0.2274987 -0.53694856 -0.37263945 0.07205334 0.38666284 -0.38271087 0.20246774 0.13563083 -0.9746953 -0.15750213 0.22021323 0.25599986 0.38703388 -0.7694099 0.2517704 0.53096 0.34514198 -0.94720733 0.0801811 -0.12358256 -0.32699856 0.21442778 0.9888916 0.4509885 -0.33496946 0.5225094 -0.6192336 0.20113608 0.5050995 0.26977524 0.4507346 0.17054534 -0.19716758 0.14905825 0.37195194 -0.16690609 -0.7419696 -0.10623872 -0.385943 -0.017786928 0.059072345
132 -0.40418977 0.091182895 0.5646284 0.55285454 -0.016578803 -0.4868455 -0.06186764 -0.4226682 -0.6876401 -0.03924986 0.53146476 -0.03842946 -0.8417581 -0.06698274 -0.19035834 -0.16706356 0.19314753 0.35776082 0.2384338 1.2350032 0.26324946 0.5197825 -0.5626515 -0.4506894 -0.27285954 -0.5538583 -0.39858636 0.35797492 -0.19686027 0.24240112 0.0625938 0.13273974 0.0087492345 0.69611865 0.013202756 0.08605795 -0.38748717 -0.1498992 0.19140022 0.5929488 -0.7271749 -0.056295287 0.49891323 -0.059801567 -0.103516534 -0.47183946 0.049327347 0.35980067 -0.1085997 0.565388 -0.29828155 0.22316475 0.7247862 0.1219411 0.03650802 -0.2464832 -0.15368442 0.17194252 0.29434153 0.64048094 -0.42050138 0.24746883 0.5377672 -0.3842503
206 -0.17132932 -0.38756618 0.46459055 0.17878045 -0.19632366 0.55487233 -0.29496932 -0.6374738 -0.3333753 -0.1450136 0.31939977 -0.18808098 -0.40226993 0.09023062 -0.71639293 0.14876099 0.093371436 -0.055127203 0.07714409 1.0114311 0.13644895 -0.313843 0.024364589 -0.7823808 -0.7220308 -0.064883776 -0.4736701 -0.51232517 -0.0108147655 -0.25610176 0.60991263 0.1839096 -0.3551011 0.23913662 1.1623724 -0.009954549 -0.40463635 0.05232089 0.21912071 0.22815795 0.61184883 0.9500775 0.13425282 0.43051472 0.61957943 -0.6841547 0.75949997 -0.014503568 -0.44752434 0.16285117 0.69029576 0.251298 0.3606609 -0.2673567 0.3331581 0.06910359 0.015825076 -0.100651436 -0.033515025 0.2788526 0.013989637 -0.3061232 0.30605015 0.20336092
216 -0.37890813 0.051340755 0.5668807 0.6601361 -0.02714981 -0.41379607 -0.071114674 -0.49334446 -0.715249 -0.0629105 0.51653683 -0.038089428 -0.793422 -0.18682705 -0.19873148 -0.1610602 0.17108586 0.35356122 0.23817652 1.1660352 0.20397227 0.5906019 -0.48380837 -0.43612546 -0.3196378 -0.38530907 -0.34540415 0.34280384 -0.21352093 0.19524576 0.05497109 0.13119961 -0.04626313 0.6330507 -0.029187035 0.04579251 -0.3236245 -0.1238064 0.14965239 0.56755847 -0.71931946 0.009065231 0.44887638 -0.040979102 0.08022432 -0.5321301 0.045767017 0.4074853 -0.09445399 0.5369034 -0.30521834 0.2819359 0.691369 0.103126734 -0.010020018 -0.16759387 -0.21120153 0.26081067 0.3146589 0.7274571 -0.41133708 0.39496842 0.41729996 -0.30546954
314 0.04964768 -0.39762828 0.06966878 0.15186444 0.10653345 0.1056102 -0.22788475 -0.046580274 -0.5014814 0.52547497 -0.3550278 -0.18396302 0.1268365 -0.2112306 -0.61937374 0.5991448 -0.20581682 0.21234383 0.090058245 1.2092922 -0.07059732 -0.38357842 0.3578695 -0.40159994 -0.57064855 0.01698929 0.24984728 -0.11862504 -0.6839407 -0.113190815 0.86215764 0.18628213 -0.4662036 0.676978 0.14852124 -0.2319888 -0.0914735 0.2193409 0.105612375 0.021745691 -0.07759783 0.20650949 0.28535885 0.833192 0.046939082 -0.5715549 0.7059673 0.32024333 -0.14207958 0.11927922 0.56643903 -0.11376837 0.19693473 0.06669108 -0.09371851 -0.06189848 0.5640577 -0.11519869 -0.24971199 -0.678517 -0.4835116 0.122397035 0.22122699 0.3161866
188 -0.11693024 0.008548227 0.55700046 0.45251244 -0.45018986 -0.6439651 -0.08818795 0.18238828 -0.5420562 0.049514525 0.23129967 -0.3110151 -0.7668224 -0.5229596 -0.20695202 -0.26774666 0.7298717 0.025831131 -0.13269466 1.0172666 -0.06685532 0.5507963 -0.22556017 -0.19166048 -0.34134287 -0.16058259 -0.24652806 0.30735126 -0.14532927 -0.21482384 -0.40544605 0.03739412 -0.3392369 0.3053306 0.23281887 0.38775274 -0.06039191 -0.41243488 -0.17717572 0.42291626 -0.2599129 0.17205223 0.04556339 0.096387014 0.3602195 -0.6773681 -0.0029094303 0.21154988 0.09339325 0.5006472 -0.12395039 0.5966533 0.5698164 -0.23847993 0.2143391 -0.50569046 0.47568104 -0.084694214 0.23481263 0.7401019 -0.38010037 0.18153271 0.0074946256 -0.016552195
15 -0.114430435 -0.3665494 0.32354426 -0.16016951 0.120993294 -0.81057626 -0.13606861 0.022526905 0.3983922 -0.20830029 0.24354234 -0.23905124 -0.09327619 -0.30073875 -0.12360902 0.53874254 0.25179604 -0.5505427 0.2667238 1.329474 0.055156164 0.27863738 -0.3802585 -0.43875247 -0.44824734 -0.08174539 -0.18881173 0.39844432 -0.090943195 -0.228666 0.008315716 -0.72553456 0.012533421 0.1517008 0.66300744 0.8172401 -0.7753735 -0.029240096 0.048856966 0.5446294 -0.12831822 0.19680944 0.11626398 -0.4064715 -0.15388063 0.31127432 0.17384043 -0.3248943 -0.21856003 -0.6293768 0.96063966 0.27291775 0.42236733 -0.12336403 -0.21944393 -0.6186033 0.057667144 0.06919979 -0.2539995 -0.63157344 -0.42839664 -0.7547883 0.21402174 0.4217438
237 -0.097427055 0.17214133 -0.034633778 -0.06325301 0.43897066 0.71005845 -0.27860755 0.0005783782 0.3395358 0.35533696 -0.20109443 0.5482874 0.19629864 -0.03152202 -0.43479553 0.52992016 0.19794074 0.31269443 0.07548052 1.0916564 -0.054545913 -0.53900194 -0.14336455 -0.30601934 -0.57351905 -0.1466928 -0.022003373 -0.49425834 0.048597105 -0.021037169 0.7941361 -0.42184412 -0.6408501 0.30429125 0.8597959 0.12899643 -0.742509 0.5741595 -0.023996547 -0.1678381 0.06609476 0.2572291 -0.25976923 0.19195539 0.60883015 -0.030141989 0.1577487 -0.29852512 -0.54396755 -0.40185922 -0.1296329 0.27335477 0.5249425 -0.37018287 -0.33207843 -0.60581434 -0.11530476 0.20539293 0.33282214 -0.48489425 -0.38464645 -0.055241644 0.1107204 0.3732551
226 -0.241864 0.15926856 0.3421454 0.016096639 -0.6344656 0.03177653 -0.28856742 -0.082124144 0.09790709 -0.018280536 -0.009133849 -0.22414427 -0.0049321563 0.054523323 -0.6968042 0.30055568 0.17834118 0.3574206 0.31751418 0.8180154 -0.13175245 -0.34876588 0.21120715 -0.5265721 -0.1163554 0.10694124 0.02922106 -0.5242663 -0.03320342 -0.23278438 1.0984249 0.4072687 -0.14575507 0.15802783 0.22489902 0.12678611 -0.45417666 0.19973423 0.09071633 0.48844752 -0.026780555 0.17093143 0.20437816 0.53544277 0.2542004 -0.675793 0.62257653 0.28926256 -0.43551847 0.24718562 0.10474141 0.08928053 0.33845708 -0.1372479 0.088586114 -0.033788208 -0.07795601 0.15771954 -0.2656777 -0.18969914 0.1989635 -0.020006223 0.11208774 0.33331537
271 -0.29653805 0.82476586 0.24046054 0.13790627 0.3826441 0.19911242 -0.7691326 -0.6042355 0.52206403 0.13854362 0.18166186 -0.0713016 -0.56773907 -0.5154935 -0.5910575 -0.28247672 -0.177361 -0.0010543125 0.15025336 1.1675091 0.3242778 -0.7969064 -0.015059766 -0.119631045 -0.5508114 -0.38030484 0.15083055 -0.18349113 -0.41733035 0.107425086 0.3283752 -0.20666517 -0.72833115 0.56558776 0.30595446 0.5932043 -0.27069262 0.8454026 0.042432386 0.21674448 -0.3609373 0.20373607 -0.1674311 -0.43946132 0.029234217 -0.12881863 0.12281134 0.39395666 -0.18441784 -0.56535274 -0.3064521 0.40916145 0.35253248 0.04276058 -0.25846782 -0.61004734 0.12179149 -0.034873687 0.016209949 -0.34443414 -0.6113822 0.24349946 0.51362324 0.22917144
227 -0.22726563 0.16298753 0.27059394 -0.07549096 -0.5625372 0.03649893 -0.28476727 -0.030470695 0.17537837 0.032939788 0.019867454 -0.18864912 0.053735975 0.11734086 -0.68329936 0.36340162 0.17782235 0.38477296 0.3674588 0.72667956 -0.043383654 -0.32149434 0.16003336 -0.4650261 -0.13004938 0.08604547 -0.030302325 -0.51653814 -0.083105356 -0.21556576 1.0763379 0.36040246 -0.13547978 0.12776586 0.28132898 0.21479717 -0.51454407 0.09790404 0.16847232 0.5433036 -0.020931473 0.20896886 0.2135446 0.56247103 0.29038405 -0.62186366 0.60403 0.30981058 -0.42043287 0.21043997 0.06790756 0.06555707 0.26181948 -0.16314758 0.08804573 -0.028948942 -0.16972142 0.28459063 -0.3018842 -0.119837046 0.19142841 -0.020230498 0.11393449 0.2269226
35 0.061818186 -0.26054007 0.8124923 -0.15962143 0.13525094 -0.92963105 -0.28182352 -0.13801405 -0.0038883265 0.14789808 -0.037143994 -0.6092861 0.50605273 -0.1465073 -0.66895944 0.63181996 -0.7422515 0.14189309 0.054082137 1.1723306 0.66447395 0.5176275 -0.21176083 -0.23703954 -0.51577324 -0.34635645 0.038319916 0.41832477 -0.4102381 0.2340732 0.0033656836 -0.7597665 0.022636123 0.21274683 0.07979561 0.2775232 -0.66938305 0.23013157 0.4297981 0.2084606 -0.8875048 0.09442058 -0.18596984 -0.1933901 0.23791805 0.9614209 0.44403717 -0.28422543 0.46667498 -0.35709247 0.09304575 0.49082077 0.26983902 0.370578 0.22922453 -0.25332123 0.20077364 0.25234878 -0.16595471 -0.7259066 -0.0950184 -0.15802681 0.08501772 -0.03635253
257 -0.279951 0.21550834 0.26135138 0.09609431 -0.15041436 -0.108246244 -0.25386447 0.19301431 0.43780273 -0.049778372 0.29928917 0.041036382 -0.104542285 -0.13323534 -0.09027786 0.019570071 -0.21227427 0.6350832 0.47192416 0.8074191 0.1388875 0.20912424 -0.18522413 -0.84266657 0.024763405 -0.11593009 0.123835504 -0.043139283 0.46890616 0.11474305 0.23703477 0.46945456 -0.32276607 -0.044868223 0.21527094 1.3257478 -0.39435712 0.8677733 0.35088453 0.4398071 -0.13613813 0.08915174 0.43796745 -0.045822673 -0.18243161 -0.12209561 -0.079356395 0.05833142 -0.75585943 0.1520489 0.269361 0.30395836 -0.10682761 0.31796616 0.039649107 -0.6849134 -0.4668911 0.08560196 0.11071674 -1.391298 -0.26250592 0.5600601 0.279775 0.100014105
306 -0.098357745 -0.4768359 0.36810178 -0.04089739 0.20237511 -0.97886735 -0.35871577 -0.15010925 0.1449573 -0.027040064 0.2453769 -0.102998875 -0.25950882 -0.58164454 0.10442444 0.26280344 0.2414442 -0.49441212 -0.12803221 1.6274438 -0.14679994 0.3722435 -0.5944952 -0.10192242 -0.6118047 -0.28762332 -0.35823664 0.25296676 -0.018368728 -0.18487877 -0.10746178 -0.46291548 -0.46815398 0.32612926 0.33904827 1.0531509 -0.46840462 -0.006351304 0.12743801 0.4460277 -0.01131515 0.29755026 0.40893948 -0.28321362 0.11334283 0.075392075 0.22299518 -0.44858065 0.1325205 -0.8094587 1.0458274 0.45896095 0.47249547 -0.3851174 -0.051449146 -0.46191198 0.5387979 -0.09358052 -0.1620026 -0.54199517 -0.59957016 -0.5671427 -0.12474365 0.4450796
142 -0.2740618 0.19126129 0.3001329 0.115983605 -0.16194363 -0.102519706 -0.20714332 0.21780652 0.36617652 -0.07746644 0.28252602 -0.04005882 -0.08818055 -0.15997452 -0.15436694 0.023559185 -0.2710938 0.58419645 0.5221743 0.80706537 0.121220484 0.26695254 -0.16727826 -0.9288369 0.029806044 -0.11287711 0.1320117 0.057574425 0.4141776 0.14618702 0.11563959 0.49814644 -0.30854252 -0.12818135 0.118957914 1.3227812 -0.40193674 0.7807411 0.4273964 0.54115427 -0.10344491 0.058374528 0.4268175 0.014459333 -0.220035 -0.12576273 -0.09230874 0.073619485 -0.7073024 0.15701193 0.328123 0.27373636 -0.14649253 0.36376375 0.06100475 -0.684441 -0.4226584 0.05131197 0.09687558 -1.455287 -0.35245872 0.6354118 0.34652132 0.082741864
219 0.10789557 0.0040522404 0.36546275 0.8553859 -0.4282566 -0.13863958 -0.26412857 -0.36728674 -0.46398893 0.26218277 0.1987074 -0.014230096 -0.4844474 -0.19921272 0.21311852 0.305872 0.42649665 0.38301724 -0.13743947 1.2923938 0.010779308 0.24840039 0.17429814 -0.38398188 -0.034753647 -0.26843888 -0.4975203 -0.39248943 0.013619113 0.0589901 0.620735 0.13765466 -0.485215 0.27745828 -0.27215803 -0.30600336 -0.59807104 -0.090141356 0.85828066 0.28827584 -0.4346308 0.103420295 0.5528278 0.17098643 0.8478989 -0.5140001 0.2534742 0.33787307 -0.01719003 0.025065392 -0.25314865 0.17435402 0.94590455 0.048455577 -0.019016957 -0.054483347 -0.17697634 0.6355487 0.016874034 0.908295 -0.23132187 0.13986182 0.029044816 0.054696262
310 -0.12887596 0.07316418 0.27552798 0.19281085 0.00875867 -0.027402686 -0.36816305 0.07585721 0.2347334 -0.17041482 0.19186045 -0.060251378 -0.0191547 -0.30277172 0.17831783 -0.22003748 -0.47923627 0.6446875 0.4442347 0.9076706 -0.08581229 0.36673832 -0.39505163 -0.9607707 -0.23404992 -0.25188082 0.20967308 -0.013177339 0.52026826 0.2531427 0.039735544 0.4877924 -0.43559107 0.11090416 0.26897424 1.0853534 -0.48261034 0.77914673 0.04596715 0.4635636 -0.2882819 0.04319186 0.4807383 0.3067825 0.13788393 -0.24131547 0.014702294 0.027030716 -0.3539777 0.32161552 0.24392048 0.24577972 -0.035870492 -0.054825433 0.008242867 -0.6223034 -0.23837356 0.36633983 0.07003721 -1.6815557 -0.53915864 0.5673095 0.4799386 0.062656306
186 -0.14267385 0.040323447 0.58748823 0.6921859 -0.30816063 -0.37548095 -0.10702708 -0.088491656 -0.540106 0.1286179 0.31682536 -0.284154 -0.70516086 -0.2802165 -0.200685 -0.06695011 0.48633716 0.11485118 -0.08608578 1.0036288 0.08377857 0.53876185 -0.21613857 -0.35335523 -0.28170693 -0.15969217 -0.20011817 0.26176068 -0.07082471 -0.027012903 -0.18484986 0.08498805 -0.23778118 0.39566538 0.004367813 0.04013014 -0.13177763 -0.3383654 0.17385305 0.361615 -0.5552748 0.067132324 0.1810332 0.057712466 0.5027583 -0.6051581 0.043246612 0.28445074 -0.010226577 0.5235661 -0.3665527 0.34012198 0.68189776 0.029225642 0.2611289 -0.38800645 0.048366744 0.204928 0.1937231 0.78719926 -0.32755274 0.31521606 0.17412288 -0.1778233
304 -0.15664792 -0.3818666 0.39082235 -0.15861489 0.017419728 -0.8499231 0.065732956 0.05148318 -0.06505853 0.3282787 0.33086014 0.20240372 -0.1998341 -0.18428719 0.15328105 0.3418718 0.4126143 -0.02984535 -0.05210314 1.5973891 0.050896123 0.32550204 -0.54815525 -0.09789993 -0.47139513 -0.41652104 -0.77398455 0.024361478 -0.077992484 -0.35567805 -0.23289303 -0.2041132 -0.23690747 0.39885965 0.42106116 0.8063141 -0.083215 0.14601494 0.34177643 0.50063807 0.054801013 0.39363658 0.36857244 -0.42553896 -0.01569692 0.13958076 0.14676693 -0.15585059 0.13146582 -0.41545987 0.948726 0.45232734 0.738896 -0.32996935 0.4347669 -0.23591338 0.7806576 -0.01661551 -0.0033376608 -0.52213573 -0.58264565 -0.5761972 -0.12343772 0.42220157
272 -0.2762617 0.79806066 0.28444567 0.12189773 0.41884217 0.16061887 -0.78491056 -0.599451 0.5109857 0.1464402 0.17347251 -0.06227333 -0.53859735 -0.5591389 -0.5185424 -0.2757525 -0.20213908 -0.06260392 0.16158837 1.2250965 0.38515484 -0.866985 -0.028984142 -0.029700806 -0.61613137 -0.37187514 0.08510336 -0.16410162 -0.4847655 0.09791994 0.2631747 -0.22216636 -0.76107705 0.5670057 0.31351975 0.49389228 -0.20098318 0.9390834 -0.04884983 0.18082024 -0.40558213 0.20549826 -0.17184666 -0.4295362 -0.012522955 -0.07079561 0.09075445 0.37844276 -0.19151719 -0.45155153 -0.2992512 0.5019105 0.42967054 0.082939774 -0.30581138 -0.6611487 0.08792018 -0.04382862 -0.029445073 -0.26032847 -0.6065159 0.25332355 0.46839958 0.26529396
207 -0.169342 -0.43584403 0.38462034 0.3096728 -0.20619293 0.5633656 -0.20756526 -0.5822472 -0.38768026 -0.031513616 0.31535557 -0.06066212 -0.4334688 0.15112735 -0.625355 0.15911113 0.014837104 0.024694271 0.056121714 1.1108505 0.1447515 -0.2721275 -0.0025253482 -0.82835835 -0.7252987 -0.089863785 -0.47562128 -0.47961876 0.056607105 -0.23062952 0.5471929 0.2137262 -0.27985296 0.2695879 1.2165837 -0.032754496 -0.3260507 0.01408652 0.30343822 0.24697351 0.7124216 0.88967645 0.08570056 0.33083865 0.6713167 -0.6959151 0.7040595 -0.08304512 -0.46185908 0.20209637 0.80782336 0.23103745 0.32079202 -0.24009743 0.43022853 0.016848313 -0.04382968 -0.1176965 -0.038132284 0.35527748 -0.051273096 -0.25517356 0.3752716 0.16377915
302 -0.15425545 -0.47151813 0.5466425 -0.004965427 0.12066564 -0.9977017 -0.18031421 -0.048815094 -0.29664516 0.26907283 0.25699472 0.037821636 -0.49660963 -0.2992576 0.008344489 0.26864636 0.30437872 -0.06868687 -0.10334511 1.4447013 -0.030068556 0.28949875 -0.59705096 0.14115809 -0.3347754 -0.3486305 -0.5616876 -0.07307347 -0.08756285 -0.23294184 -0.28046036 -0.11491109 -0.44472358 0.44360167 0.278773 1.1432508 -0.035553038 0.2326356 0.3280227 0.47458658 -0.030309748 0.4934143 0.44370452 -0.36289132 0.041323826 -0.08204264 0.23184572 -0.32346016 0.16958524 -0.4383625 0.90331644 0.30179784 0.6098072 -0.27567902 0.37777802 -0.33988345 0.7130179 -0.2728753 -0.060731653 -0.36322892 -0.5854621 -0.3513347 -0.2778625 0.36477038
155 0.22388864 -0.048213754 0.76529515 0.12323274 0.15108317 -0.73957944 -0.23075049 -0.48840466 0.15124348 0.26489595 -0.0049931975 -0.6127054 0.71068484 -0.46853068 -0.63176316 0.04876728 -0.2770841 0.044472024 0.4909317 1.0327826 0.39592305 0.8303725 -0.36353156 0.032688607 -0.6255699 -0.2062677 -0.03492564 0.38907036 -0.67236066 0.4932608 0.0471959 -0.58814603 -0.42093346 0.24223988 0.7821442 0.03939126 -0.4563261 0.07874214 0.37838504 0.56105435 -0.725584 0.23568843 -0.03124708 -0.08269788 -0.06751882 0.09039787 0.16447467 0.09772434 0.25989708 -0.1662656 0.7034913 0.3205971 -0.41708037 0.39286193 0.059838157 -0.3426493 -0.33001664 0.2023755 -0.3316459 -0.28533375 -0.29074574 -0.5507574 0.40583998 -0.29350153
158 -0.20606068 -0.4601615 0.23834018 0.16278039 -0.09976406 0.66232866 -0.25498006 -0.45482954 -0.2830777 -0.14654273 0.17029507 -0.13999397 -0.26880896 0.0985593 -0.6829379 0.25758064 0.04998019 -0.24846895 0.14807689 1.163281 0.11235098 -0.39942214 0.070839345 -0.7406733 -0.9150787 -0.06825738 -0.38785034 -0.35406363 -0.04059631 -0.24435912 0.71554995 0.041207757 -0.17276397 0.24202582 0.9656422 0.048630863 -0.47622985 -0.05443943 0.054785818 0.34465116 0.62992 0.6367034 -0.013670303 0.49631736 0.53003305 -0.6278766 0.72505015 -0.092547394 -0.46605387 0.011046342 0.43270925 0.18241501 0.34823027 -0.28151843 0.07095016 -0.09972624 -0.04406484 -0.07791308 0.048614457 0.27692 0.07491708 -0.2028463 0.0857315 0.2411462
24 -0.20404105 0.36439508 0.35171187 0.45182446 -0.051153358 -0.06398968 0.16711432 -0.7501308 -0.21494462 -0.028573783 0.7070522 -0.015445215 -0.5298066 -0.532298 -0.2928613 -0.20788892 0.3528889 0.33872035 -0.20523338 1.6989783 0.5335011 0.3565171 -0.112670414 -0.55415964 -0.07293699 -1.0559918 -0.52305454 -0.14440323 -0.09541173 0.5141399 0.4035557 -0.025779359 -0.15690629 -0.021876011 0.15593153 -0.014687611 -0.82388186 -0.21929166 0.6647569 0.12550792 -0.37101334 0.23916012 0.5970207 -0.31250528 0.033070732 0.049276013 0.34585893 0.34035593 -0.20354305 0.44491044 0.017817171 0.75189286 0.931365 -0.16352306 0.25468323 -0.17045438 -0.4014678 0.88307196 0.89242554 0.242636 -0.2536708 -0.21802223 0.4117259 -0.787168
159 0.20878111 -0.042755846 0.8233573 0.14922637 0.14454618 -0.6994652 -0.27813023 -0.49688163 0.21932524 0.29408 -0.025805889 -0.62269866 0.6811827 -0.3664961 -0.6206528 0.054411504 -0.28108874 0.059428133 0.5107298 0.9574349 0.44922605 0.81879646 -0.35136238 -0.05923537 -0.6487161 -0.16255486 -0.008948204 0.39478132 -0.6485844 0.49653167 0.09098838 -0.5959986 -0.4681484 0.20407867 0.73647505 0.02884439 -0.41822883 0.0723415 0.3702844 0.5925599 -0.73999906 0.12015318 -0.020396732 -0.15401904 -0.041931845 0.11528069 0.14058352 0.08822222 0.24038471 -0.13069758 0.6939819 0.32317758 -0.4082377 0.5083836 -0.0025070354 -0.3478163 -0.34143302 0.27485836 -0.39084354 -0.2501212 -0.3057962 -0.6128396 0.43771484 -0.28475893
40 -0.13686922 -0.03513025 0.6517339 0.60552704 -0.38092935 -0.39379725 -0.083248526 -0.051618867 -0.55511326 0.13708764 0.31222022 -0.18554841 -0.6654183 -0.35284704 -0.20266464 -0.01111538 0.51840127 0.15005773 -0.056102365 1.0339068 0.030767832 0.48327595 -0.18080607 -0.3217631 -0.30034855 -0.23242706 -0.26019093 0.22229701 -0.07093733 -0.1018966 -0.106273405 0.20224562 -0.11217806 0.4208488 0.05466802 0.03673515 -0.14729649 -0.31564137 0.15825184 0.46065417 -0.4891405 0.09340504 0.21181113 0.11463721 0.43910632 -0.5997837 0.08667456 0.27453074 -0.04944894 0.5996507 -0.42578247 0.3381524 0.73242456 -0.024105124 0.20244028 -0.35790658 0.11169246 0.14989719 0.20260596 0.838057 -0.31409094 0.3318758 0.17677028 -0.20752597
4 -0.10043182 -0.31545338 0.12580514 0.060614076 -0.3385739 0.32955155 -0.1937683 -0.24152102 -0.23533313 -0.016302701 -0.010629829 -0.07206601 -0.24759768 0.19667776 -0.4868647 0.34498587 0.068209805 0.115939476 0.278077 0.95749444 -0.09226553 -0.21750489 0.20294313 -0.6168384 -0.29355028 0.19465569 -0.09337814 -0.46803698 -0.070764296 -0.17404936 0.8605915 0.269223 -0.20325962 0.09000064 0.47319114 0.10895343 -0.51527226 0.10587538 0.2514644 0.4180146 0.25612372 0.455852 -0.014484605 0.46893534 0.5949436 -0.5720997 0.57144827 0.09972905 -0.26970682 0.11438945 0.3485728 0.23046896 0.23594745 -0.059369758 0.023735074 -0.010500127 -0.0376489 0.18956144 -0.11918701 0.12979366 0.1877412 0.11866799 0.1430505 0.22004768
56 -0.14212869 0.3844907 0.44958788 0.24658622 -0.3767104 -0.34392136 0.008520874 -0.66657203 0.019577349 0.13555035 0.6327054 0.08710795 -0.41275388 -0.56137586 -0.29797485 -0.20473237 0.54475987 0.4249855 -0.32976446 1.6609224 0.43147114 0.30128193 -0.13074481 -0.4426789 -0.13765898 -0.99828243 -0.72009605 -0.26269442 0.05676872 0.30674762 0.29642865 0.045374535 -0.14165808 0.016657408 0.06275142 -0.0008223294 -0.82964873 -0.4071916 0.895445 0.2559163 -0.31694934 0.2720881 0.60852855 -0.3960104 0.2700423 0.052453533 0.38842598 0.3600008 -0.065775774 0.3526816 -0.17072065 0.7919883 0.94760275 -0.28810343 0.44513205 -0.1891105 -0.31534 0.9000788 0.72995716 0.39916053 -0.20145406 -0.39388672 0.24631797 -0.79008365
