108 64
54 -0.27528575 0.04165615 -0.104906306 0.9345651 -0.12838878 -0.29594404 0.38123965 0.3075288 -0.89499456 -0.24375722 -0.58741355 -0.6194472 0.30002284 -0.18388331 0.24661924 -0.21634121 0.29247668 -0.08879657 0.27171782 0.37090686 0.54093266 -0.010818922 -0.0495653 0.18880971 -0.15955347 -0.08776433 -0.39221886 0.051412184 -0.5720724 -0.3094981 -0.19778593 -0.3903071 0.39938658 -0.1493899 -0.21955615 -0.102445036 -0.13825747 -0.4161976 -0.07876717 -0.19003375 0.02224374 0.43866038 -0.46493015 0.11328501 0.16226666 0.039869286 0.22113706 0.6012105 -0.15119998 0.22136326 -0.006324584 0.19006033 0.09100548 0.08352042 0.020670379 -0.8130106 -0.060575858 -0.11931066 0.16409405 0.7569068 -0.44913632 -0.32059303 0.12476037 -0.18205422
55 -0.13661021 0.027667435 -0.14153227 0.63388747 -0.13811773 0.0011425023 0.31086513 0.2304508 -0.72590876 -0.44685885 -0.38768038 -0.46665096 0.23045285 -0.24297735 -0.042958286 -0.0911637 0.4189776 -0.04176343 0.35519096 0.25415447 0.42383036 -0.041777503 0.11571548 -0.039701637 -0.10142247 0.15823 -0.4297621 -0.18676701 -0.48371845 -0.41861224 -0.15379645 -0.3957852 0.25174373 -0.178562 -0.18665524 -0.08160705 -0.37230983 -0.3206045 -0.021483164 -0.040812735 0.11386394 0.06249488 -0.24960625 0.15519494 0.1825387 -0.21230425 0.21905813 0.34839806 -0.32869098 0.28728667 -0.122548975 0.27416041 0.20282249 0.14478683 0.008353508 -0.5368878 0.18821213 -0.23773314 0.17765447 0.39199197 -0.40793043 -0.3363005 -0.049781207 -0.12300476
32 0.046171345 -0.023509894 0.08640295 0.3270857 0.44849303 -0.09499302 0.03807617 -0.2763689 -0.36466104 0.008823791 0.12208084 -0.5511023 -0.05126606 -0.284714 -0.21637124 -0.08943137 -0.42672312 0.73021847 0.31613263 0.06328869 0.43690446 0.3519723 0.44611752 0.06634278 0.129281 0.118985794 -0.25056568 0.15582201 -0.41505548 0.051878583 0.080752224 0.36814594 0.60900533 -0.23639375 0.13177647 -0.03020761 -0.12767911 0.20857441 0.16503324 -0.040598746 0.2139167 0.02022793 -0.23267147 -0.4072908 -0.14757407 0.17951299 0.32432136 0.116785765 -0.5009471 0.2215353 -0.0021981318 -0.01416857 0.1447086 0.044000145 0.12808648 -0.3136145 -0.33452207 -0.4864899 0.31399116 0.119096346 0.18546942 -0.0394565 -0.38487163 0.28937525
31 -0.13900827 -0.08197929 0.21548295 0.5116157 0.39569575 0.21603402 0.05405723 -0.278198 -0.43382695 0.11895636 -0.060626633 -0.4062137 -0.1852651 -0.3272346 -0.022855036 -0.1702619 -0.3152291 0.83401597 0.39902928 0.34417924 0.45079753 0.21982911 0.50871307 -0.030968888 0.22486809 0.18918984 -0.36293906 0.17722893 -0.36900392 0.038741577 -0.039862934 0.5490063 0.75049657 -0.36390537 0.13011976 -0.18999295 -0.20970887 0.09928815 0.24312116 -0.057830818 0.13658698 -0.28041473 -0.43323857 -0.2872552 -0.2102319 0.27965456 0.53659743 -0.045988843 -0.5519882 0.3108551 -0.021102743 -0.07550766 0.32415307 -0.29265633 -0.07529633 -0.4487693 -0.1526032 -0.35804582 0.45469624 0.34077257 0.24599928 -0.003950974 -0.4291776 0.40652558
39 -0.4058129 -0.4793018 -0.25722852 -0.045996144 0.17957683 0.14323452 0.5651527 0.11557227 -0.6940742 -0.065740824 -0.18769513 -0.09725451 -0.3531804 0.12729661 0.111469835 -0.13393137 0.06463162 0.41462445 0.45130405 0.08416484 0.26495495 -0.056366805 -0.2266412 0.022174342 -0.18799634 -0.54105574 0.023830894 -0.20062557 -0.13130993 -0.17636147 -0.46377355 0.020249458 0.26241118 -0.28557405 0.08963758 -0.02844548 -0.05822906 -0.1669511 0.26105767 0.2653277 0.37182403 -0.0137904445 -0.30794945 0.006678529 -0.2630258 0.13644385 0.33365697 -0.03709773 -0.17085701 0.014743622 -0.079008505 0.27143264 0.38251314 -0.23726095 0.12290118 0.06054787 0.11631251 -0.27341026 0.076915294 0.4260748 0.3375452 -0.2943123 -0.3215174 0.12810256
64 -0.07214127 -0.1318498 0.19848302 0.6142646 -0.25451058 -0.032269903 -0.016433217 -0.21870412 -0.15024178 -0.2946978 -0.137395 -0.5660329 0.0141147515 -0.11957841 0.4154715 0.21987039 -0.19568302 -0.12924053 0.17217466 0.1827416 0.28457296 0.44815665 0.09010753 0.12496242 0.29263368 -0.034024462 -0.49325982 0.15182145 -0.27186596 -0.32436606 0.08730307 -0.06557408 0.06066888 -0.26686576 -0.6128569 0.08401476 -0.031290766 0.34384042 0.04417377 -0.16565438 0.29348552 0.05092232 0.31526756 -0.4849646 0.20844805 0.16476227 0.3480394 0.2810114 -0.012943193 0.10456707 -0.27324852 0.17195556 -0.0029942337 0.5186106 0.33831903 -0.0644656 -0.24654298 -0.078504175 0.24822862 0.4244229 0.47084114 -0.04239588 0.024412265 0.23603396
70 -0.32812744 0.112494804 1.02667 0.04743488 0.069879405 -0.06330339 0.4277739 -0.13441275 -0.5545123 -0.33990714 -0.35180956 -0.61664665 -0.39482167 -0.45169842 0.5037943 -0.16751897 -0.0063548964 0.21840383 0.29908645 0.043684557 -0.09736047 -0.011954249 -0.23108567 0.16293305 -0.23013856 -0.4420566 -0.45591792 -0.07420885 -0.6192428 -0.6160391 0.032747753 -0.26727217 0.2830126 0.28171647 -0.26973432 -0.100885406 -0.103416346 -0.0076489123 0.027420003 -0.11862272 0.15136994 0.08561648 0.39753455 0.062178582 0.03252383 -0.20055446 0.55633104 0.13843259 -0.082656115 -0.069064 0.13164337 -0.15385126 -0.02773965 -0.07461183 0.321351 0.020252395 -0.06876964 -0.03371335 -0.19722567 0.53039354 0.14494562 -0.086575575 -0.39528838 0.28775963
72 -0.1700728 -0.1253613 0.0570544 0.253234 0.38492414 -0.1661431 0.19306818 -0.26763645 -0.49521387 -0.1979951 -0.031129811 -0.26192468 -0.14890617 -0.14019112 -0.11905707 -0.052579883 -0.010900841 0.42009428 0.62189776 0.57511824 0.44908318 0.3374085 -0.16793492 0.058846273 -0.14826126 0.025952851 -0.5387956 0.10541601 -0.07241634 -0.09023323 0.040629968 -0.0386914 0.12779911 0.0024329447 -0.073164955 0.038773946 -0.113175064 -0.0744694 -0.11485644 -0.11065038 -0.003137053 -0.033871714 -0.1537797 0.07425705 0.10773021 -0.10295591 0.13250786 -0.01439169 0.37112176 0.021214332 0.05219483 0.089954294 0.0935222 0.25058094 0.18633185 -0.032346733 -0.18722373 -0.32071206 -0.30476007 0.18832931 -0.15043819 -0.40168306 -0.25902385 -0.11083166
73 -0.086250275 -0.12525992 -0.13702141 0.32631773 -0.08646335 -0.10825553 0.43018508 -0.13244367 -0.47764307 -0.4126583 -0.0043028914 -0.33262175 -0.061481155 -0.17235586 -0.07955471 -0.20819552 0.25408554 0.14073418 0.43222493 0.4379654 0.21043189 0.14996172 -0.20835003 0.25980815 -0.24792011 -0.03303001 -0.37142184 -0.039784484 -0.19035715 -0.4154597 -0.047968935 -0.2637927 0.061441824 -0.40319425 0.05673448 0.095023535 -0.22122994 -0.40795684 -0.026635207 -0.052883603 0.10084337 0.01070795 -0.20509419 0.07759291 0.091202185 -0.20168188 0.22929123 0.030428773 0.091781355 0.003350301 0.17941356 0.09850229 0.29912198 0.14325866 0.082467616 -0.29314035 0.02345356 -0.37114874 -0.0971145 0.40728027 -0.26228333 -0.33602718 -0.17709258 -0.16744153
44 -0.82203925 0.11218515 -0.011714057 0.5217014 0.08485374 0.23795153 0.36948448 -0.35601413 -0.34850064 -0.41869766 -0.3308842 0.13938886 -0.2795474 -0.16668199 -0.08997477 -0.37648153 -0.5750657 0.17688882 0.29019457 0.020468881 -0.071912654 -0.24762358 -0.3228701 0.4000158 -0.05160988 -0.6796361 -0.5347607 -0.32687825 -0.55175257 -0.23507322 0.28299233 0.31805295 0.5627297 -0.067480356 0.30735826 0.12329705 0.029604653 0.2281104 -0.09423091 0.02501262 0.4777469 0.051385775 0.38720027 -0.3169125 -0.026249468 0.18047352 0.089908294 0.13646583 -0.12828809 -0.18963149 -0.5402062 0.4252783 -0.19825631 -0.011241461 0.017797947 -0.0021145428 -0.33540884 -0.12095535 0.24331988 0.4384932 0.03343075 0.0621306 -0.25292942 0.37592113
50 -0.36507186 -0.20998809 0.3318478 -0.01372054 0.17058882 0.24067406 0.06376684 -0.1008686 -0.3563016 -0.02977018 -0.20517369 -0.33339378 -0.37386528 -0.11175245 0.25346607 -0.2828824 -0.22512765 0.10517397 0.21170309 -0.46884647 0.069054894 -0.14791128 -0.18963249 0.37629497 -0.23649926 -0.04718149 -0.46608478 -0.15359361 -0.29538956 -0.10917162 -0.03143794 0.127491 0.25412887 0.09816585 0.029054467 -0.1002719 -0.035247147 0.1496933 -0.14583492 0.07660134 0.5314644 0.102560855 0.06629929 -0.30939877 -0.37408808 -0.07362753 0.46910873 0.27599686 -0.1555663 -0.17130429 -0.056493595 0.3250147 -0.15135655 -0.14241786 0.38284755 -0.060626887 0.11665827 -0.18573876 -0.16466941 0.6070355 -0.13768022 -0.29794618 0.055816796 0.4968865
49 -0.67581534 0.044755563 -0.053016815 0.14546116 0.1949201 0.16587661 0.26299843 -0.14933464 -0.4425583 -0.15666986 -0.13272053 0.01242688 -0.10255758 -0.03089993 -0.1540508 -0.41435286 -0.31841406 0.068428285 0.10395536 -0.140977 0.023483232 -0.07807259 -0.06260254 0.2031588 -0.08246346 -0.37565213 -0.5737356 -0.11060796 -0.3895893 -0.1108473 -0.0061270045 0.35108027 0.3136794 0.073240235 0.15409313 0.004704139 0.038634494 0.31295556 -0.18420623 0.12238807 0.67197937 -0.07670995 -0.0015629068 -0.2813662 -0.0721389 0.11879355 0.12732114 0.032693304 -0.13944283 -0.046430312 -0.3486724 0.5220588 -0.20511784 -0.031166932 0.16397937 -0.033151753 -0.11703111 0.048558883 0.009302881 0.41129965 0.04853934 -0.174131 0.022964826 0.48581198
69 -0.39035192 0.099608175 0.5518279 0.4199716 -0.0687162 -0.17536978 0.27866232 -0.11632726 -0.2583268 -0.39017007 -0.15138045 -0.50061136 -0.4166004 -0.4209612 0.16227497 -0.046272203 0.01159146 0.16484934 0.37436485 0.2349524 0.04460425 0.0796638 -0.26684108 0.02880635 -0.28892663 -0.28728458 -0.30050147 0.1186342 -0.27749887 -0.62274414 0.12006897 -0.24580123 0.23267253 0.3236835 -0.22175105 0.06962898 0.15692747 0.19412754 0.22871567 -0.14324479 0.08241468 -0.08763696 0.50970834 0.09046993 -0.007815258 -0.08312406 0.53781104 0.028377146 -0.04208144 -0.042222686 0.018428275 -0.13405088 0.117550544 0.17374521 0.2640708 -0.028569492 0.028558712 -0.13561627 -0.17062381 0.2742457 0.040393017 -0.05185583 -0.19541469 0.007234027
56 0.0911657 0.016788715 -0.03930402 0.47973382 0.090340294 0.16677363 0.23632589 -0.11613889 -0.02892228 -0.22102913 0.122715056 0.037792325 -0.28159386 -0.28968483 -0.15007506 0.24281749 -0.23767237 -0.23201281 -0.0034569534 0.0074823634 0.3003933 0.028852258 0.43745866 -0.14719193 -0.11778569 -0.10966801 -0.5707563 -0.047257148 -0.490355 -0.24271798 0.043031856 0.19110408 0.26143798 -0.10063918 -0.120387144 -0.18512349 -0.16611688 -0.018980153 0.09068192 0.18253742 0.55558115 0.11501751 -0.09523457 -0.32243478 0.020273285 0.06047007 0.14194533 0.27382347 -0.4373781 0.031887453 0.026191987 0.15264383 0.07271852 -0.017085133 0.41653797 -0.32720998 0.102938704 -0.043666296 0.36920166 0.46846005 -0.088484585 -0.2316913 0.08409813 0.2597393
78 -0.5059745 0.2145524 0.109630786 0.4281401 -0.2855653 -0.04038185 0.13231741 -0.23449042 -0.23273486 -0.25611708 -0.10205682 -0.27487358 -0.09083069 -0.48208502 -0.00470383 -0.18018073 -0.17972332 0.065565564 0.36033422 0.5213691 0.17858964 -0.10133624 -0.06875406 -0.09407851 -0.13382114 -0.5973547 -0.51553226 -0.07323885 -0.29355413 -0.3632856 -0.090196304 -0.19005999 0.19303764 -0.14125992 -0.16473882 0.102390185 0.14598064 0.24920794 0.32283834 0.09568583 0.22148591 -0.10714159 0.75191677 0.12672442 0.21285447 0.05314862 0.16332543 -0.11379499 0.08764806 -0.0031275977 -0.29727173 0.06909717 0.07103985 0.2841416 0.08454252 -0.07490528 -0.2942623 -0.19183297 -0.043834366 0.19906926 0.023835065 -0.07260702 -0.11674598 0.049856793
34 0.15212026 -0.18368472 0.10438974 0.3867375 0.3801767 0.066563696 0.12106658 -0.16923757 -0.21710874 -0.17009404 -0.00614237 -0.2430931 -0.1042232 -0.26472774 -0.092449404 0.09461046 -0.4760916 0.11487777 -0.056701962 -0.042476445 0.3290618 0.20824277 0.50954914 0.016885616 0.033900756 -0.16355461 -0.4233523 0.15312517 -0.48810378 0.07711772 0.13698067 0.53551227 0.50677204 -0.15194856 0.048324797 -0.095430896 -0.1802965 0.19078453 0.33503997 0.003438084 0.08706821 0.021162547 0.017049665 -0.44308463 -0.19199167 0.1358575 0.38120836 0.314567 -0.2996849 -0.011058475 0.048589576 0.053121593 -0.06471229 0.20078452 0.286432 -0.19874454 -0.0698195 -0.22299357 0.12914117 0.09460955 0.054079376 -0.183962 -0.14071499 0.29125667
58 -0.06256167 -0.076957874 -0.19589454 0.5166796 0.2358123 0.2669202 0.078136 -0.16174053 -0.13670135 -0.397546 0.065846376 -0.09609345 -0.25642052 -0.24727003 -0.356492 0.2351779 0.06479724 -0.055603858 0.07895926 0.2713108 0.3679903 -0.038088236 0.15044719 -0.023117408 -0.19441031 0.21629103 -0.52997893 -0.2558567 -0.5270068 -0.28406137 -0.13092808 -0.016019424 0.08943733 -0.037273202 -0.15234318 -0.16330856 -0.40177867 -0.23268677 -0.017357733 0.109420806 0.43102467 0.26910594 -0.045856006 -0.40817645 0.26762643 0.114133775 0.35475168 0.22798437 -0.31693575 0.34044644 -0.08553907 0.29578972 -0.079238996 0.10779611 0.30577946 -0.31903502 0.0011030188 -0.0038811206 0.28202057 0.6979653 -0.4366746 -0.33854315 -0.01283451 0.21078633
57 0.0012814759 0.0294953 -0.23444155 0.5154048 -0.07018421 0.21920268 0.29044145 -0.018680414 -0.4421027 -0.3454046 -0.0216366 -0.23636334 -0.06462308 -0.14018752 -0.1376682 0.035855856 0.22070384 -0.10673868 0.14201382 0.42629525 0.15620436 0.058589716 0.13146958 0.089966424 -0.17506652 -0.02161123 -0.48976958 -0.1436256 -0.32794854 -0.46672118 0.039268784 -0.22542584 0.22951378 -0.25809598 -0.19634736 -0.07622315 -0.48070076 -0.26912963 -0.084922224 0.004581782 0.46297896 0.23342903 -0.21893093 -0.27078113 0.2682161 -0.1296043 0.29373205 0.32793155 -0.44955224 0.14751993 -0.008384612 0.17829348 0.24943137 0.21993376 0.24165916 -0.3633397 0.061872043 -0.18778247 0.41900805 0.4887574 -0.5455051 -0.41369653 0.24449973 0.046430323
76 -0.33017224 0.13376431 0.34187695 0.14260212 -0.21233429 -0.26028237 0.45487136 -0.12617755 -0.3386998 -0.20521733 -0.11247831 -0.3819598 -0.29944798 -0.39535537 0.19602486 -0.17089517 0.026097262 0.22398964 0.31833646 0.5091724 0.21081714 0.1805116 -0.13095547 -0.030266175 -0.15215659 -0.098939754 -0.45080325 -0.050994214 -0.18362655 -0.26601735 0.010789464 -0.30366835 0.15360646 -0.08567089 -0.027446905 0.10794894 -0.07335209 -0.2012639 0.07249376 -0.0042894483 0.050418936 -0.114379786 0.21816844 0.002719808 0.20849146 -0.06844609 0.18753244 -0.15882228 0.16758265 -0.060662664 -0.13873684 -0.007904091 0.19514614 0.41762513 0.04485372 -0.08064165 -0.10082775 -0.29726043 0.086323984 0.14790922 -0.048224814 -0.20876104 -0.13530515 -0.17367749
68 -0.44421807 0.049489133 0.61210537 0.031514052 0.058364272 -0.037712272 0.41834196 -0.09699277 -0.45997375 -0.25256264 -0.2768188 -0.50622493 -0.3994696 -0.3568668 0.48121187 -0.24842153 -0.12388595 0.16554579 0.3962657 -0.14817572 -0.019387236 -0.18304668 -0.23458444 0.31565192 -0.36488014 -0.07529233 -0.472454 -0.1456071 -0.4634879 -0.583528 -0.029045435 0.03513862 0.24143867 0.28308827 0.023800582 -0.20747122 0.05588024 0.1682182 -0.074620344 0.045959953 0.10774108 0.17425358 0.2912421 0.07046682 -0.2743872 -0.19476326 0.77031094 0.011187518 -0.32299593 -0.2446729 -0.0073717316 -0.06496578 0.013733569 0.026287494 0.47758773 0.11409281 0.15510583 -0.07305535 -0.30904952 0.60995674 0.056582987 -0.04568381 -0.082075454 0.3294564
77 -0.7389603 0.3016267 0.07229702 0.5148199 -0.108839594 0.029630134 0.42964175 -0.40190578 -0.3355898 -0.2401329 -0.19890137 -0.08882363 -0.052893747 -0.30794922 -0.15503085 -0.50720984 -0.33399248 0.055740517 0.18604705 0.34999868 0.017847735 -0.19310229 -0.18239857 0.24443373 -0.10492226 -0.6330029 -0.6817837 -0.22481135 -0.538036 -0.16035368 -0.05261288 0.22536652 0.4382231 0.056274522 0.2709738 0.021562466 0.10807653 0.27125472 -0.045057416 0.11658087 0.50451195 0.005312714 0.61411935 -0.17346095 -0.038079243 0.24096231 0.1913959 -0.03089454 -0.01428487 -0.10949128 -0.4712097 0.19288749 -0.080870114 -0.052412044 -0.0834223 -0.20691924 -0.49452698 -0.10112351 0.036054965 0.18105914 0.17843927 0.056358293 0.0083127525 0.47775254
47 -0.106935166 -0.15813123 0.011113394 0.44779542 0.3376486 0.13370161 0.094590075 -0.27652174 -0.16673577 -0.1862518 -0.06941072 -0.22410773 -0.07484615 -0.11684279 -0.27499732 -0.17537978 -0.14443418 0.1079393 -0.057820123 -0.1642669 0.03193894 0.024142316 0.1702656 0.17667674 0.09309648 -0.1590662 -0.5348539 -0.17716795 -0.5047233 0.007720562 0.14867303 0.1936074 0.22187202 0.06552416 0.31233373 -0.03331809 -0.14152613 0.095071055 -0.023412408 0.11061364 0.31866738 0.119046904 0.07257672 -0.40460953 -0.39951053 0.41624147 0.3921421 0.2552515 -0.10708466 -0.17132528 -0.13965113 0.30993676 -0.058246672 0.022907782 0.5854793 -0.026519852 0.041851096 -0.0073995646 0.023714675 0.46290755 0.109194994 -0.19464098 0.049070835 0.36197576
35 0.033554792 -0.106152736 -0.06024294 0.1929531 0.49325877 -0.40271664 0.3136519 -0.39597023 -0.36432645 -0.3512649 -0.11157368 -0.35371011 -0.12149745 -0.38520914 -0.21251 -0.1046847 -0.075489044 0.45765874 0.5085947 0.3565214 0.56764305 0.32597503 0.09586512 -0.3243194 0.015550453 -0.09863819 -0.53675675 0.035309125 -0.13156144 0.028809499 -0.23639515 0.28906447 0.5068675 -0.18064673 -0.10814796 -0.027311936 -0.11392528 0.21432953 0.034486312 -0.07855928 -0.08666624 0.29152885 -0.15942012 0.08371288 0.21924247 0.07530285 0.32405928 0.0038940336 -0.038811322 0.09526836 0.04994248 -0.12652911 0.16454156 0.12775004 0.082853734 0.08250636 -0.098192096 -0.55572736 -0.090245515 0.08132951 -0.09153464 -0.32157362 -0.48779798 -0.22860411
33 0.03271465 -0.08950405 0.033191286 0.24728675 0.5876331 -0.06406222 0.32602632 -0.3483995 -0.42713106 -0.16181591 -0.023427714 -0.30138215 -0.052609116 -0.30491176 -0.20971996 -0.03841285 -0.16052385 0.53225714 0.5121908 0.1942021 0.66288656 0.40299234 0.16969612 -0.06246827 0.08651039 0.115902014 -0.4871268 0.25339594 -0.117464975 0.09242134 0.20909525 0.33257875 0.48558837 -0.0988374 0.21117902 0.067147024 -0.113666944 0.35317662 0.19194804 -0.024175685 -0.054170005 0.20989753 -0.11287629 -0.08535838 -0.2077366 0.061355244 0.40972334 -0.022774896 -0.3383688 0.120641954 -0.090902835 -0.025461087 0.07595856 0.23300683 0.052944817 -0.076200165 -0.19745061 -0.5145881 0.2861321 -0.042816233 -0.013913639 -0.19474776 -0.5530462 0.08233213
29 -0.14974372 -0.30223617 0.10876544 0.7844981 0.7870867 0.37785363 0.08269536 -0.20024619 -0.69045585 0.3732586 -0.16820177 -0.26507473 -0.3745194 -0.039850947 0.13110672 -0.1409543 -0.24825777 0.994209 0.55135214 0.47518557 0.53818685 0.40315574 0.4659197 0.097623214 0.26301014 -0.13750315 -0.16859902 0.18623994 -0.378305 -0.074322045 -0.30512774 0.5434162 0.8596843 -0.41071495 -0.12543161 -0.103301495 -0.16363494 0.06257284 0.20460917 0.022104833 0.118519805 -0.4903705 -0.62654096 -0.08845827 -0.016357837 0.079878524 0.4628818 0.15994169 -0.5046309 0.38105083 -0.28103644 -0.080287024 0.4173424 -0.24047238 -0.10623962 -0.26156548 -0.254013 -0.24711801 0.26818702 0.5556642 0.29186514 0.07782769 -0.22643186 0.49320233
60 -0.392476 -0.488908 0.08439788 0.2050862 -0.08889968 0.04281357 -0.07979246 0.10128062 -0.24180955 -0.36003426 -0.08607445 -0.50379467 -0.2191232 0.1262033 0.05264178 0.07671802 -0.2122329 0.035020888 0.37331218 -0.20942593 0.618544 0.10359656 -0.056349024 0.0038890173 -0.35041562 0.08020896 -0.67722875 -0.37031096 0.011958656 -0.4508448 -0.14612405 0.023513239 0.044241667 -0.20117323 0.0723139 -0.12835662 -0.10959037 -0.125674 -0.042545743 -0.05521916 0.32027286 0.27954137 0.31055307 -0.41929176 0.3635904 0.12765427 -0.10186917 -0.04669183 -0.058858033 0.20214169 0.048054818 0.25149253 -0.26022962 0.09701595 0.36774537 0.11811988 -0.14018328 -0.1334359 0.047388695 0.58393 0.038733114 -0.14500184 -0.16746761 0.31572616
43 -0.034137588 -0.15954287 -0.21217439 0.20313051 0.6082952 -0.044580076 0.57893723 -0.28389388 -0.44793192 -0.09339389 0.31804508 -0.31077898 -0.23695846 -0.57324433 0.022662688 -0.05377611 -0.23112455 0.11933155 0.32910952 0.1853685 -0.008849058 -0.12734812 0.023568612 -0.33219537 -0.19563341 -0.52984214 -0.3750957 -0.28879052 -0.17373842 0.05896625 -0.36029094 0.11320126 -0.053413592 0.0921251 -0.4784623 -0.15544747 -0.07633309 0.19860326 0.36186412 -0.00092221965 0.13905734 -0.16275455 0.11065472 -0.152734 0.19243948 0.2866837 0.5184471 0.31162763 0.058466353 -0.22022611 -0.39858127 -0.20100756 0.11941841 -0.21585198 0.42179358 -0.13399641 0.062037777 -0.16947722 0.016529366 0.17928693 0.13696815 -0.18754135 -0.4037236 0.0042244582
63 -0.24183668 -0.28967333 0.15038228 0.94939554 -0.28462097 -0.346942 0.05855074 -0.1926632 -0.50416917 -0.38002822 -0.22119074 -0.7835528 0.17871481 -0.4730053 0.6646596 0.25661692 -0.12860546 -0.34383523 0.1751542 0.1253849 0.59805954 0.2739171 0.26199004 0.21702522 0.33634502 0.09577838 -0.5090523 0.13443111 -0.28747463 -0.22608735 0.06273332 -0.17932813 0.16099696 -0.062331997 -0.46772686 0.044116087 0.23216295 0.50054073 0.08742787 -0.123895004 0.31164154 0.09594037 0.17773487 -0.27622846 0.014537439 0.3256455 0.40078098 0.42114407 0.099659875 0.1274584 -0.022359902 0.05116919 -0.28411183 0.20925976 0.22140522 -0.2418805 -0.21444874 0.1412344 0.33226067 0.4613762 0.42024103 -0.008782969 0.105348706 0.16613185
53 -0.31344998 -0.14905386 -0.29590276 1.0749359 -0.24892427 -0.3627035 0.44702762 0.25091857 -0.94239044 -0.31903732 -0.8292615 -0.73059446 0.44544995 -0.31665498 0.53772336 -0.0014292821 0.1615514 -0.2255371 0.26634344 0.29825848 0.63916475 0.2947353 0.096488506 0.04239085 0.09749384 0.110839844 -0.39577052 -0.020103391 -0.6269634 -0.3834348 -0.25336337 -0.5179566 0.5633031 -0.06063391 -0.42758766 -0.042770673 -0.07991132 -0.18430243 0.098845206 -0.09998527 0.12852138 0.48439807 -0.4318467 0.055776473 0.12247445 0.097291596 0.35072526 0.7130233 -0.107303806 0.27210784 0.068441756 0.112701796 0.053328864 0.03417726 -0.1442473 -0.5852001 0.0057084155 -0.07351035 0.25343972 0.66041255 -0.22311555 -0.2099474 0.22614361 0.007348462
38 -0.62450206 -0.41236454 -0.049979713 0.2402618 0.26786503 0.41910478 0.44368201 0.017423293 -0.87755364 0.28473377 -0.21423021 -0.1104684 -0.50480634 0.04275602 0.25596082 -0.19629496 -0.00077640533 0.5444615 0.549456 0.2334971 0.34312785 -0.15106255 -0.19653028 -0.048172697 0.051156998 -0.32872558 -0.017355101 -0.15610044 -0.20411056 -0.07458723 -0.4853157 0.24405895 0.5095432 -0.33283085 -0.051959027 -0.11701784 0.07736384 -0.13874328 0.3103818 0.20721999 0.38418734 -0.27555448 -0.33085448 0.16902947 -0.22062048 0.18829845 0.13967575 -0.06806739 -0.23007426 0.19996363 -0.045141958 0.013971745 0.39698243 -0.40496168 -0.2973011 -0.07064402 0.14017458 -0.29387027 0.025425319 0.6133039 0.31929776 -0.11374388 -0.25665712 0.15802251
42 -0.33527875 -0.0668238 -0.12267805 0.020439524 0.097446285 0.11594226 0.6401562 -0.07978901 -0.60883474 0.021879977 -0.12887521 -0.2188607 -0.30057085 0.030199738 0.043572266 -0.08877542 0.01548785 0.31997192 0.46728775 0.22099547 0.305049 0.41488963 -0.12233851 -0.107126184 -0.16421545 -0.22800083 -0.24803863 -0.12199832 -0.08339516 -0.11107473 -0.20402981 -0.09346202 0.035503693 -0.11289821 0.16649234 0.1392612 -0.08671861 -0.20387031 0.0995304 0.19503045 0.027485622 0.13352095 -0.07240405 -0.031684484 -0.080614515 -0.13470872 0.13457465 0.07619029 0.07778932 -0.0512374 -0.043981098 0.21008326 0.3161603 0.031034153 0.030457254 -0.07258705 -0.0010215095 -0.23445694 -0.04482313 0.35943466 -0.076567754 -0.35923216 -0.32422546 -0.14202292
105 -0.20935005 -0.09749778 -0.0061980337 0.12859166 -0.07917947 -0.103000686 0.32479197 -0.0073150247 -0.65020263 -0.23879811 -0.020302135 -0.2983367 -0.15804972 -0.09361447 0.022365944 -0.11874042 0.12788448 0.16429837 0.6023318 0.4207768 0.35716638 0.27118096 -0.24747394 -0.062136646 -0.10295439 -0.08459829 -0.6194333 -0.11538877 0.005347455 -0.24784823 0.03687231 -0.2058019 0.17472056 -0.32057783 0.028702302 0.048047602 -0.1638956 -0.19298501 -0.12189016 0.075311646 0.08236549 -0.042846978 -0.07378418 0.020022042 0.14172758 -0.24528897 0.024431799 -0.036624044 0.27135992 0.17615826 -0.0004114527 -0.0057070395 0.3034465 0.19885166 0.08231144 -0.05459026 -0.018005306 -0.32475898 -0.22159442 0.25467148 -0.10836552 -0.21048036 -0.4157472 -0.15708701
51 -0.4291905 0.009064854 0.5326032 -0.13474926 0.08776854 0.22433634 0.29536292 -0.03573182 -0.23764668 -0.22749624 -0.27725646 -0.544069 -0.513782 -0.12648028 0.31546596 -0.14958684 -0.14016086 0.33361718 0.25905794 -0.3851699 -0.026447494 -0.10718403 -0.04061672 0.23546813 -0.4891582 -0.1818798 -0.7000395 -0.1727641 -0.6316165 -0.28534707 -0.016290212 0.05020418 0.2575798 0.07513904 0.011847661 -0.28584093 0.08041986 0.15990525 -0.16532546 0.042883843 0.3863325 0.16542491 0.043642674 -0.068375975 -0.5069968 0.2830533 0.48680088 -0.018572299 -0.34404275 -0.20615736 -0.13810623 0.100074664 -0.0942567 0.07746666 0.3509002 0.04145841 -0.00023358231 -0.07063093 -0.18620238 0.7782087 0.20469978 0.15576276 0.062505126 0.37314
41 -0.37976393 -0.30878866 -0.22539663 -0.091828175 0.40123683 0.14963642 0.30978462 -0.0644586 -0.5301238 -0.19539323 -0.1749812 -0.09854848 -0.28749368 0.048668057 4.1016447e-05 -0.2199678 -0.0063847774 0.2450155 0.24395128 -0.37292352 0.08687608 -0.10857514 -0.1405362 0.055329975 -0.24109499 -0.36980534 -0.3003085 -0.24007197 -0.26032203 -0.3430675 -0.104302205 0.062241398 0.3936992 -0.015451365 0.13097773 0.017814128 -0.13464417 0.1719015 0.12555553 0.3678564 0.46957976 0.03196976 -0.11974139 -0.12483227 -0.35052386 0.08865221 0.065611176 -0.0994128 -0.1096765 -0.27145067 -0.11940117 0.28637964 0.050716896 -0.2810479 0.049864586 0.057060536 -0.086330995 -0.073573336 0.07911293 0.6520788 0.12126225 -0.2764795 -0.0629577 0.28925988
75 -0.30278298 -0.02062619 0.43355545 0.48122555 -0.22190993 -0.053218804 0.12158131 -0.2672343 -0.13683659 -0.35112888 -0.13321726 -0.3783099 -0.20633332 -0.41546357 0.3477637 -0.09391799 -0.2319123 -0.1278906 0.29014698 0.30329964 0.06438172 0.26760474 -0.13017678 0.05250922 -0.051860474 -0.23448569 -0.5969917 0.089338005 -0.19118133 -0.463474 0.06702326 -0.06557967 0.03293393 -0.05122489 -0.4082155 -0.07890911 0.07832949 0.06706892 0.24092385 -0.02720595 0.17349248 -0.14551058 0.52983624 -0.30726665 0.18348612 0.056265 0.20936225 0.12158375 0.18796888 0.14874923 -0.20838502 -0.17797399 -0.03150171 0.2629547 0.14695431 -0.04581872 -0.13152432 -0.10618717 0.1397447 0.25728336 0.3114865 0.022777356 -0.077137284 -0.026299201
91 -0.485164 -0.114970304 0.04147852 0.0141520575 0.23462197 0.14973202 0.21804471 -0.16210082 -0.46876577 -0.12929367 -0.11726321 -0.10732024 -0.1750633 0.028073454 -0.08613451 -0.23846488 -0.29746205 0.1732335 0.22259669 -0.31187916 0.10609239 -0.11775734 -0.13456577 0.107251436 -0.07198821 -0.2201648 -0.48339802 -0.2300496 -0.38929117 -0.09058226 -0.22204825 0.15946364 0.3534858 0.008402881 0.18176779 0.01939796 -0.14248155 0.23494276 -0.25925595 0.2118439 0.47083268 0.19294553 0.14010112 -0.45161697 -0.23204465 0.111312985 0.17711096 0.040510528 -0.18918712 -0.040901463 -0.08881401 0.24472575 -0.120035596 -0.16134036 0.43275258 0.102313824 -0.103929 0.08537048 -0.13668594 0.48626986 0.17862052 -0.21248354 0.0011717386 0.52740014
48 -0.15502192 -0.084221296 0.011469728 0.32321757 0.049406238 0.0005360162 -0.045604732 -0.26524413 -0.028451314 -0.3204569 0.21055195 -0.33215111 -0.14613049 -0.30317008 0.03164967 0.103582725 -0.24109516 -0.13104557 0.034551457 0.012198582 0.0745701 0.23099172 0.25989825 -0.09436192 0.25953618 -0.041269675 -0.41605645 -0.16704588 -0.2902505 -0.25484163 0.044692047 0.12703109 0.2607955 -0.123918876 -0.09804917 -0.018311726 -0.03713502 0.38356236 0.2950598 -0.11533267 0.24140704 -0.037577 0.030578967 -0.6224954 0.014372945 0.13480332 0.39578065 0.25632423 -0.21968435 0.3799282 -0.16672288 0.060034033 0.047070928 0.2941181 0.36514106 -0.22826436 -0.08286863 -0.078511514 0.33271325 0.428356 0.16376959 -0.026658356 0.17213212 0.39531854
79 -0.7030145 0.2161429 -0.03387015 0.61913776 -0.28427145 -0.18792239 0.33558422 -0.49034807 -0.29402277 -0.4803259 -0.5331803 -0.1554003 -0.21157621 -0.40024766 -0.08764614 -0.33832902 -0.20798938 0.06097223 0.40012354 0.4121321 0.095435776 -0.1431375 -0.070582554 0.017855065 -0.15434103 -0.7133116 -0.6163688 -0.15430167 -0.29092133 -0.3059763 0.14402011 -0.00484894 0.26754883 -0.043370694 0.0218675 0.14142701 0.052400976 0.1976329 0.15547113 0.27152914 0.40771553 0.040892642 0.7834721 0.09495217 -0.027656714 0.020128967 0.1274196 0.00961723 0.06926753 0.07775609 -0.5945178 0.04679426 -0.081368476 -0.008664397 -0.05850616 0.04159321 -0.60413194 -0.2735794 0.051922683 0.059046462 0.11406867 0.03112252 -0.097767845 0.3731358
7 -0.28378078 0.14320633 0.27560896 0.33108154 -0.063935995 -0.18924138 0.50791645 -0.16944218 -0.28156215 -0.28118998 -0.12467328 -0.35612413 -0.35317504 -0.46090892 0.13049303 -0.09496933 -0.0047684014 0.006602624 0.4235914 0.4275946 0.14148578 0.07261864 -0.15003273 -0.008147646 -0.25176972 -0.33450213 -0.4698444 -0.043031365 -0.13020764 -0.5652246 0.17969455 -0.17793953 0.1277439 0.09011912 -0.24534996 -0.13671885 0.21362422 0.19081546 0.28824604 -0.07454732 0.15952648 -0.03332606 0.5973444 0.09732727 0.22533207 0.016620979 0.15708874 0.124615476 0.11851465 0.049941085 -0.28196254 -0.08760591 0.22296384 0.15474044 0.16377832 -0.07746289 -0.16914584 -0.15991282 0.0024183302 0.12975556 0.07480453 -0.0137702795 -0.17583747 -0.20619482
1 0.030071435 -0.22011307 -0.13186686 0.3236003 0.24873227 0.01450372 0.20085265 -0.13382842 -0.0855601 -0.2113195 0.050313182 -0.026533354 -0.20285855 -0.36884964 -0.2766582 0.06672223 -0.30363318 -0.03964534 -0.03191346 -0.09673205 0.15836729 0.14403886 0.3079699 0.032908767 0.10327776 -0.14832206 -0.544237 0.026974872 -0.42933095 -0.051499337 -0.001659709 0.3224467 0.26054335 -0.051716045 -0.04634482 -0.13357113 -0.021128593 0.23372655 0.22718886 -0.021973606 0.36653093 0.016427282 0.0044336035 -0.4549391 -0.087196656 0.25478703 0.4224563 0.3957748 -0.24828887 0.10816649 -0.18191196 0.11116847 0.111761354 -0.01583437 0.4425899 -0.25255516 0.0091042835 -0.112159595 0.27214915 0.27562416 0.061243698 -0.31347498 0.22632107 0.25503877
28 -0.28475547 -0.3673671 0.0027508808 0.39718303 0.6392507 0.3309334 0.24501206 -0.29054278 -0.9300224 0.0683341 -0.23302776 -0.40376183 -0.7626716 0.13162148 0.2542624 -0.22061206 -0.25347292 0.83908004 0.55769444 0.2939845 0.45001146 0.3139389 0.21290343 -0.028786993 0.1906551 -0.21247971 0.13503517 0.12487786 -0.4260764 -0.050371654 -0.5438408 0.32152742 0.9401124 -0.41102776 -0.1950387 -0.23259571 -0.34162343 0.16032697 0.15222932 0.2043214 0.12982471 -0.5204935 -0.5341815 0.019741293 -0.084419675 0.14439726 0.64537215 -0.039161175 -0.38917005 0.32623369 -0.27045137 0.118330285 0.37850538 -0.41925538 -0.33327752 -0.30042425 -0.05911056 -0.4850623 0.280898 0.64373684 0.40010524 0.23220423 -0.18816367 0.38839316
30 -0.60159415 -0.2694438 -0.0071591665 0.47278357 0.5506795 0.39581314 0.2736638 -0.030344848 -0.82818747 0.35872892 -0.11925374 -0.21078755 -0.52252555 0.039010968 0.32245895 -0.19994712 -0.053606242 0.75564694 0.56405485 0.31780148 0.3426585 0.027532091 0.11407125 -0.030741585 0.086734936 -0.35788044 0.04673908 -0.09362104 -0.20591298 -0.105214864 -0.5031598 0.3104053 0.72954315 -0.34247917 -0.040433474 -0.18046205 -0.13148819 0.04919506 0.24163714 0.17456137 0.25290695 -0.46710762 -0.56702995 0.013559009 -0.14536548 0.07120412 0.37681484 -0.041350193 -0.3335945 0.17582631 -0.17151035 0.14262414 0.41103268 -0.17108282 -0.3438198 -0.17257427 -0.052354623 -0.26243734 0.21514124 0.6924004 0.28284127 0.08951077 -0.36624438 0.46704727
61 -0.26542884 -0.30354086 -0.035073906 0.26071015 -0.0012327054 0.32396638 -0.0073782853 -0.17653766 -0.12800466 -0.6651249 -0.0025400433 -0.444131 -0.45365393 0.008603729 0.058484063 0.29878268 -0.14940941 -0.02695405 0.2976587 0.121022604 0.6056411 -0.0096762655 -0.17581062 0.16322567 -0.17732999 0.092415184 -0.77846 -0.38278645 0.064119294 -0.5792949 -0.25875604 0.11226015 0.13920933 -0.20326261 -0.07689568 -0.094195336 -0.20745176 -0.28987727 -0.40789193 -0.111366026 0.28644583 0.15566424 0.07546813 -0.3101027 0.58221495 0.17028563 0.15521918 -0.09060509 -0.26108018 0.39929742 -0.2401276 0.2723768 -0.2687722 0.11898253 0.5296119 -0.1926334 -0.08167403 0.08884027 0.0069420827 0.94034624 -0.22466919 -0.21862224 -0.13838933 0.2890938
45 -0.90945536 -0.061750043 0.033351492 0.6451043 0.20097125 0.45790267 0.3582242 -0.34803703 -0.2939643 -0.56503534 -0.5652848 0.28222677 -0.4157287 -0.09885628 -0.120652 -0.63384676 -0.5778976 0.16920957 0.3541595 -0.0025203992 0.15657681 -0.17243132 -0.38475487 0.37938988 0.23814364 -0.55993193 -0.58675224 -0.2998252 -0.6482483 -0.28307706 0.21720941 0.29657355 0.9900532 -0.027378805 0.15292113 0.34500098 0.111683294 0.21500501 -0.17466915 -0.034541234 0.511091 0.16070928 0.49465623 -0.21935841 0.017772723 0.22780003 0.2077411 0.30079183 -0.21064565 -0.18407479 -0.3737211 0.28817722 -0.31467763 -0.012794663 0.034405522 -0.14514281 -0.22516063 -0.09582342 0.43874127 0.17928703 0.004854968 0.36423624 -0.4204471 0.4869098
19 -0.24273752 -0.0053218263 -0.18067913 0.70410633 -0.11538994 -0.1247251 0.5499629 0.19445957 -0.75567853 -0.53956366 -0.4274122 -0.45297444 0.14458768 -0.385544 0.035093583 -0.14904505 0.56838375 -0.13515446 0.4131842 0.27267373 0.5297148 0.07934983 0.0149525115 0.10264301 -0.077752225 0.23699716 -0.509984 -0.04946705 -0.6537394 -0.34298524 -0.2939977 -0.39885178 0.3217386 -0.28808454 -0.08806699 -0.08315199 -0.07129439 -0.26948527 -0.16661605 -0.28339422 0.11951318 0.31824434 -0.45948502 0.020885857 0.19538184 0.17520064 0.07529808 0.4578461 -0.18303838 0.060054768 0.0048346343 0.27574107 0.19624412 0.09923967 -0.029165741 -0.8145713 0.05572003 -0.253659 0.05555082 0.50301147 -0.40674964 -0.32426974 0.12201494 -0.18351029
37 -0.19483538 -0.4652493 -0.23424546 0.31278014 0.60427123 -0.2715461 0.47906613 -0.50976235 -0.40403703 -0.459744 0.3565206 -0.66284096 -0.2402929 -0.41583923 0.24189271 -0.02641771 -0.33978942 0.21915434 0.4534166 0.46684107 0.11232567 -0.13312884 0.083772555 -0.53183246 -0.026761284 -0.43983376 -0.35183734 -0.29655108 -0.12831098 0.25659835 -0.28323874 0.2969374 0.39695096 0.3675114 -0.35367224 -0.16831334 0.10411506 0.1313679 0.21795833 -0.07068793 0.006397808 0.092256755 0.083433196 0.13038658 0.24900304 0.30714762 0.41045 0.22610418 -0.13302259 0.09631447 -0.1921028 -0.10980752 0.11898507 -0.2926504 0.29691133 -0.062072963 0.0980706 -0.41018683 0.07157396 0.2686579 0.104459435 -0.406929 -0.7512756 -0.2669079
93 -0.3489859 -0.21242581 -0.38225117 1.0105027 -0.24257195 -0.47552848 0.274642 0.1459203 -0.87094235 -0.28902245 -0.7484054 -0.72395694 0.36297235 -0.22690243 0.5507032 -0.08299344 0.22008534 -0.28991938 0.43162683 0.45211115 0.69042516 0.12884688 -0.043176193 0.3018759 0.040581208 0.030636083 -0.5319422 -0.02427992 -0.79106855 -0.24839872 -0.15706873 -0.62228596 0.51480764 -0.04483858 -0.23509024 0.05071376 -0.17012037 -0.2595549 0.015205516 -0.041337274 0.11675047 0.48082215 -0.38976845 0.07154595 0.16605228 0.14810106 0.3817757 0.7031276 -0.057064153 0.24883959 0.030679941 0.013220633 0.18546453 -0.07529505 -0.22911488 -0.68899953 0.0039464287 -0.30170044 0.278648 0.7893565 -0.28665626 -0.24844486 0.12846354 -0.19037896
36 -0.0709641 -0.2320176 -0.17807293 0.18117955 0.64091104 -0.21103647 0.2718598 -0.50735104 -0.384099 -0.42498836 0.082276165 -0.517254 -0.20618828 -0.5620085 0.01726432 0.004961512 -0.06504332 0.33444223 0.57181716 0.4025071 0.46224752 0.05795501 0.19921604 -0.3188307 -0.06277013 -0.4659019 -0.54761916 -0.14214696 -0.1378574 0.15326792 -0.12065673 0.42996225 0.21308772 0.06458463 -0.20215017 -0.13238946 -0.11778577 0.121062964 0.22796375 -0.1156884 -0.067910664 0.2946605 -0.19678475 0.24385624 0.24256139 0.2806818 0.44349822 0.17640036 -0.07431001 0.03279348 -0.05543412 -0.25114772 0.22619161 -0.09078038 0.15197358 -0.047050662 -0.13139208 -0.65703285 -0.050031863 0.10190411 0.090183705 -0.3724956 -0.6312486 -0.24107029
71 -0.4666423 0.18165712 1.1159993 0.1480223 0.009234194 -0.05255558 0.57249826 -0.2595203 -0.8328867 -0.39101744 -0.48073378 -0.43200332 -0.3985775 -0.5148167 0.35809413 -0.18513812 0.14451784 0.4755243 0.40792778 0.15531124 -0.30332598 0.026676003 0.013189996 0.07665429 -0.017026812 -0.49125138 -0.42310345 -0.011789169 -0.88945884 -0.71721685 0.1287862 -0.1644034 0.19075096 0.2064481 -0.48210615 -0.03698945 -0.04074982 -0.097415544 -0.069662936 -0.23186712 0.34167686 0.078296095 0.5064493 0.011768169 0.07756226 -0.2465875 0.73133886 0.1290302 -0.06665732 0.12724793 0.18945034 -0.32754055 0.04192882 -0.27557313 0.5035511 0.22051312 -0.18059364 0.0038419974 -0.30391192 0.69537795 0.1440331 -0.11849701 -0.4891263 0.5937438
11 -0.33280784 0.07953141 0.7311168 0.1521523 0.08697998 -0.0911828 0.33649892 -0.09880142 -0.37802446 -0.19822197 -0.22091107 -0.60667825 -0.46768686 -0.5002834 0.5442135 -0.14255576 -0.03132944 0.1690522 0.2350279 -0.013217383 0.04424527 -0.06579705 -0.2876116 0.24621816 -0.33082357 -0.1930654 -0.45514247 -0.08895765 -0.5224744 -0.5375444 -0.041046996 -0.13646866 0.12377333 0.31066945 -0.29244322 -0.19041231 -0.14377691 0.0557496 0.21614417 0.12933184 0.19909465 0.12946926 0.61385393 0.030369572 -0.20794983 -0.07581137 0.5522406 0.007860739 -0.21959552 -0.093569696 -0.0535741 -0.31357497 0.006622889 0.13879053 0.3085216 -0.08134454 -0.08772255 -0.16085993 -0.22625396 0.48536256 0.10233368 0.09778211 -0.23874743 0.027417637
97 -0.00862751 0.055000443 -0.1059247 0.44287902 0.009856351 0.25097236 0.18185808 -0.07610037 -0.21506612 -0.2783834 0.10610738 0.0030691922 -0.25385284 -0.34898236 -0.32031712 0.15864131 0.06547591 -0.17610176 0.045986086 0.29803887 0.2094654 0.050049488 0.3057298 0.043852787 -0.06035152 0.11006477 -0.4795163 -0.18048908 -0.55748725 -0.26181465 0.13416816 -0.07048456 0.2969813 -0.14625995 -0.07540788 -0.20046504 -0.3177522 -0.21706012 0.11997068 0.1859004 0.5455865 0.14246003 -0.16578157 -0.34221542 0.21212567 -0.029776407 0.3119225 0.39443347 -0.4141968 0.16558765 -0.1559417 0.29134873 0.04791536 0.15615204 0.3482405 -0.34378132 0.19126421 0.009901281 0.36838743 0.7425098 -0.42884862 -0.19156483 0.07571412 0.17496438
101 -0.14457187 -0.21630743 0.36385944 0.4911795 -0.0822888 0.064465314 -0.025433628 -0.3319753 0.10449938 -0.42064893 0.053435262 -0.41884205 -0.35531178 -0.2598241 0.3383814 0.20607498 -0.2120095 -0.26607764 0.14908637 0.2534419 0.32683957 0.28491092 0.09495009 0.14916201 0.31169555 -0.071777984 -0.55627215 -0.024758147 -0.15488313 -0.31245732 -0.00952147 0.15426967 0.117566854 -0.30114952 -0.28472316 0.030756723 0.020131731 0.19050401 0.056630246 -0.1842239 0.37803996 0.12420531 0.45549926 -0.458597 0.34144458 0.0024265447 0.20791073 0.38005006 0.028072959 0.42995298 -0.13607566 -0.00014864758 0.06343649 0.20579281 0.22941378 -0.0814677 -0.1736769 -0.08760779 0.056143876 0.35429943 0.41432357 -0.1193748 0.21795897 0.22461294
96 -0.075330585 0.08778469 -0.16801186 0.50052696 -0.018355992 -0.05111356 0.3833504 0.026372388 -0.7203635 -0.28113312 -0.11585533 -0.23624255 -0.08515491 -0.32936183 -0.18119416 -0.10395052 0.23524854 0.017752573 0.33345473 0.419323 0.34645608 0.020078141 -0.038979948 0.02833383 -0.14705521 -0.07075151 -0.36952016 -0.29922664 -0.26260263 -0.06838193 -0.04743368 -0.35795212 0.11222968 -0.19228971 -0.2107087 -0.05655538 -0.52373725 -0.43275803 -0.009841054 0.109387375 0.24963295 0.21227495 -0.113498226 -0.08948207 0.2203206 -0.3193617 0.32558516 0.2584828 -0.2165129 0.1542552 -0.107339814 0.20401283 0.23811962 0.18850258 0.06225573 -0.27931958 0.21374582 -0.11641598 0.07724648 0.42073557 -0.45590785 -0.18024749 -0.037612285 -0.16295563
26 -0.50393635 -0.19822629 -0.24539904 -0.09101056 0.2631311 -0.11688835 0.56358904 0.10436833 -0.52851033 -0.0780005 -0.09596421 0.026049264 -0.49788544 0.23408306 0.11075854 -0.09708186 -0.10517201 0.26261413 0.41932496 -0.1556333 0.31614417 0.054582145 -0.27000675 -0.10693836 -0.2759075 -0.45335317 -0.18152843 -0.24019484 -0.14434 -0.12137527 -0.39471433 0.13619284 0.24819587 -0.22862816 -0.018304912 -0.076032534 -0.055463906 0.0017100602 0.26926708 0.35986716 0.45131212 0.066670455 -0.09487694 -0.060469266 -0.16606161 0.13503937 0.15109521 0.14435898 0.013549182 -0.17416313 0.0073562856 0.2245712 0.17743857 -0.15528986 0.05774378 -0.1258172 0.011451084 -0.47047287 -0.108411774 0.47313014 0.15283641 -0.28042385 -0.331184 0.015241739
59 -0.12502928 -0.14462769 -0.007048807 0.54778266 0.11552375 0.36917433 0.021191543 -0.29974422 -0.17763297 -0.5569515 -0.0001799181 -0.21294999 -0.3516412 0.015166283 0.083433956 0.1817854 0.06979485 -0.28196615 0.15458386 0.45751265 0.5656501 0.04639984 0.23455414 -0.010997188 -0.44368973 0.17637773 -0.8678449 -0.5052831 -0.19019657 -0.2957614 -0.205647 0.15812635 0.1969687 -0.3662467 0.041843437 -0.08036412 -0.15532415 -0.04596851 -0.2881275 0.10257572 0.34227517 0.18975653 -0.14020075 -0.44715267 0.5595246 0.16027017 0.15176621 -0.0017989955 -0.3573924 0.19745249 -0.0327013 0.303692 -0.32888028 -0.039412536 0.5111619 -0.25131962 -0.16124803 0.15574501 0.088665955 0.7582913 -0.46912196 -0.35820502 -0.13138373 0.29824394
65 -0.34515563 -0.30253088 0.019689245 0.16463201 0.058795813 0.24937135 -0.08595273 -0.15211119 -0.29989192 -0.38516125 -0.19720867 -0.1831094 -0.37000167 -0.08370412 -0.005614236 -0.13335922 -0.06279828 0.24559483 0.19979826 -0.1812234 0.1167579 -0.014141139 -0.167616 0.26690716 -0.1666121 -0.03457964 -0.4446782 -0.26097924 -0.2818752 -0.27426273 -0.2020536 0.24629875 0.12421162 -0.21709985 0.18281808 0.07696176 -0.05524423 0.20067346 -0.24204864 0.020887928 0.45660895 0.30056468 0.35311618 -0.5830689 -0.23767266 0.2283598 0.07299591 -0.023372475 -0.18800607 -0.05722536 -0.14724214 0.3410352 -0.17345855 -0.03693567 0.33442178 0.1473664 0.0010896424 -0.08054722 -0.20522393 0.71299523 -0.03741201 -0.2144484 -0.13738312 0.4426239
67 -0.1720434 -0.22143719 0.124262996 0.101667404 -0.0019277798 -0.21489632 0.11643823 -0.17181681 -0.30044454 -0.2608282 -0.17709434 -0.36110464 -0.13629334 -0.16036303 0.08125178 -0.25516638 0.10216727 0.29630914 0.57987165 0.21110877 0.5268948 0.39063188 -0.20117484 -0.115805104 -0.18085392 -0.023878762 -0.561924 -0.09907491 0.064834066 -0.3698533 -0.24930318 -0.19903345 0.01404009 -0.33926687 -0.005452772 0.045598235 -0.24683248 -0.12917423 -0.07644735 0.08992928 0.05430402 0.2363632 -0.0012364055 -0.15232557 0.2798455 -0.20581396 0.048959933 -0.086184114 -0.06126814 0.18290903 0.06063811 0.30207637 0.08898207 0.22421639 0.1522994 -0.062570654 -0.060072318 -0.1488767 0.0381613 0.30189005 -0.19071512 -0.352707 -0.35781443 -0.18822202
83 -0.03763199 -0.037858684 0.074352585 0.5851472 0.46202028 0.06781864 0.14771423 -0.40338138 -0.57148427 0.1347682 -0.12355365 -0.49933508 -0.16938409 -0.19791888 -0.15991533 -0.13389322 -0.3769941 0.6994413 0.21471165 0.23430184 0.3708323 0.30382213 0.7304701 -0.08078376 0.20304121 0.24775527 -0.44536996 0.26710027 -0.4304386 0.0290518 -0.0059842337 0.74300814 0.70046616 -0.27970263 0.03940851 -0.09179817 0.020222079 0.18036728 0.022875264 -0.062069748 0.11409654 -0.10455809 -0.33590004 -0.30796427 -0.15405968 0.45206442 0.41425574 -0.1093874 -0.45640218 0.18858755 0.06210167 -0.044302244 0.33755073 -0.056296047 -0.010707001 -0.30588216 -0.14201133 -0.5537266 0.48992965 0.34124032 0.12569691 -0.07058233 -0.35603073 0.37845886
89 -0.83326346 0.16773522 -0.09321643 0.4054508 -0.03808105 0.2839021 0.42182824 -0.2629243 -0.33860892 -0.35386378 -0.204779 0.12958302 -0.12235257 -0.20892721 -0.07400514 -0.5711009 -0.35511443 0.10944105 0.13402349 0.1438338 -0.0054179793 -0.17856246 -0.1814223 0.23482503 -0.032972407 -0.37061834 -0.4727675 -0.2039488 -0.4751622 -0.29535368 0.01907587 0.2732166 0.39333504 -0.034796204 0.28421524 -0.045522556 0.014509773 0.36197668 0.09415589 0.189813 0.5876546 0.010588995 0.46094322 -0.1714782 -0.112716936 0.23667242 -0.025737487 -0.028227726 -0.124324866 -0.08675668 -0.37868083 0.2565915 -0.10804752 0.01761267 0.14701714 -0.16513528 -0.39190778 -0.099740244 0.09429204 0.3953232 0.11438536 -0.086404406 -0.039583847 0.46784827
0 -0.035290327 -0.13919783 -0.11886434 0.21398199 0.30858213 -0.33644515 0.22405505 -0.2785867 -0.41464677 -0.16179962 -0.010069031 -0.31065413 -0.117038846 -0.26452124 -0.15443347 -0.13774547 -0.0034779017 0.40950006 0.68308514 0.4938889 0.70008576 0.40710685 -0.009664962 -0.19193116 -0.10131781 0.003790485 -0.6774585 0.17284466 -0.021168841 0.1957356 0.11046586 0.18642232 0.51538277 -0.07344668 0.24884936 -0.078104526 -0.032637633 0.20109114 -0.02131319 -0.038846545 -0.019234246 0.058117144 -0.010560204 0.050549492 0.10423473 0.00981522 0.40391734 -0.024878452 -0.11678902 0.118131734 -0.030820217 -0.039210603 0.25647226 0.23403181 0.123265125 -0.09540036 -0.097280376 -0.5203009 -0.13835461 0.07630506 -0.15281738 -0.31027025 -0.30441973 -0.15170301
74 -0.30817673 0.11164218 0.28427878 0.2300429 0.07644994 -0.14741506 0.4966372 -0.3706085 -0.16058017 -0.34951586 0.13434814 -0.34729996 -0.33548605 -0.56023186 0.19004603 -0.00748091 -0.1501045 0.05193606 0.38140666 0.41183993 0.034990486 -0.06363092 -0.05788149 -0.036346503 -0.2333825 -0.43171862 -0.25441977 -0.09889861 -0.23049371 -0.22216795 -0.24883677 -0.06968232 0.09235363 0.250686 -0.36789945 -0.039372087 0.28785688 0.10940228 0.29475677 0.029600266 0.17179805 -0.07814961 0.42633137 0.10830908 0.23677343 0.108605295 0.31122056 0.058930796 0.08593928 0.05060854 -0.36198094 -0.14104903 0.1547649 0.097159 0.03966523 -0.122842185 -0.07022113 -0.2340064 0.108202875 0.31094807 0.10461841 -0.024168532 -0.266652 -0.27142102
102 -0.3880575 0.10311127 0.7457499 0.15359724 -0.04789293 -0.07704484 0.46349224 -0.10867543 -0.4803252 -0.28132 -0.2592541 -0.6448075 -0.40448505 -0.5114225 0.50048155 -0.1261485 -0.069906786 0.082391106 0.2193277 0.06731687 -0.073746644 -0.054540925 -0.23856165 0.29675913 -0.26591924 -0.15282351 -0.44351983 -0.122120194 -0.4445251 -0.6458687 0.064114735 -0.16239826 0.29660788 0.27569485 -0.35489854 -0.08783503 0.029669737 0.10209952 0.2007178 0.06321219 0.27819055 0.01030478 0.4822007 0.024620483 -0.16214874 -0.023740841 0.46269202 0.0764693 -0.117127955 -0.07302403 -0.036082022 -0.2661293 0.015510011 0.045828056 0.39939 0.061127547 0.011275221 -0.16627772 -0.26750904 0.6169015 0.07163755 0.13666233 -0.12291612 0.18098992
6 -0.35556138 0.0036696563 0.5736805 0.072889134 0.22587714 0.16386706 0.25805336 -0.09103243 -0.2965029 -0.11982636 -0.26588005 -0.46004546 -0.38774446 -0.32324725 0.19010833 -0.2037659 -0.1324583 0.34871924 0.22208346 -0.4676667 -0.033042848 -0.016866064 -0.17720905 0.42625538 -0.35694185 0.025852727 -0.54667383 -0.11251749 -0.50610256 -0.3741492 -0.13964984 0.20046261 0.40372923 0.2606523 0.062737726 -0.1912098 0.086734265 0.06635911 -0.06595425 0.16744839 0.3737509 0.22160141 0.12723851 -0.09673874 -0.35656187 -0.014810694 0.4613222 0.17878807 -0.16485034 -0.28969878 -0.13560891 0.0769435 -0.029834026 0.0069781323 0.3860739 0.2500531 0.10791436 -0.06371986 -0.42726547 0.8671213 -0.015362719 0.034465592 0.003808737 0.3572068
5 -0.720687 0.23336987 -0.15327361 0.45600504 0.069969386 0.23904024 0.35094327 -0.3798682 -0.4078646 -0.33652297 -0.29985735 0.13216296 -0.01664268 -0.2234162 -0.20746179 -0.48394725 -0.28006998 -0.01689729 0.23120327 0.11110901 -0.06811889 -0.43213135 -0.23062275 0.23480365 -0.16177383 -0.29857922 -0.6283069 -0.22043905 -0.39709398 -0.15721558 -0.027479297 0.25354943 0.5504214 -0.12990457 0.22181289 0.028309343 0.027349072 0.27971613 -0.19992469 0.13273832 0.55403435 0.0741671 0.29629254 -0.15626717 -0.1026127 0.26252967 -0.016972162 -0.012007538 -0.108366534 0.031077849 -0.531747 0.29519013 -0.008770672 0.00526688 0.06485874 -0.048485428 -0.3647452 -0.06976361 0.004338367 0.27426434 0.06592759 -0.119349174 -0.21198186 0.3293564
85 -0.022423266 -0.070143074 0.0052743093 0.09758189 0.3727927 -0.23887756 0.27615604 -0.3193992 -0.45934945 -0.23759119 0.0009842583 -0.42492187 -0.17898764 -0.2354401 -0.16630259 -0.19955929 -0.0091415895 0.5295357 0.62051606 0.44060534 0.6153983 0.42704675 0.043582268 -0.23660177 -0.0580767 0.11460368 -0.67001075 0.048515808 -0.10834335 0.05289629 0.103308074 0.20023923 0.5419229 0.05652309 0.17532936 0.07568908 0.07162309 0.04780604 -0.20421633 -0.003187826 -0.013535405 0.11882586 -0.12561129 0.09303445 -0.08819294 0.055967737 0.27278998 0.0018514445 -0.09588273 -0.012335679 0.06509317 -0.095009424 0.26470453 0.14024204 0.06344725 -0.18251957 -0.112619676 -0.4922755 -0.171857 -0.007448401 -0.13283883 -0.31911838 -0.44936734 -0.15013337
2 -0.09611282 0.13413091 -0.21331015 0.5944905 -0.13858801 0.0121772885 0.3216994 -0.031924803 -0.7276228 -0.28028223 -0.16939272 -0.3345703 -0.05246724 -0.39386338 -0.16326451 -0.19158624 0.21279857 -0.015788568 0.2092873 0.35781989 0.24216095 0.117155105 -0.011561842 0.065121666 -0.08130503 0.0075096926 -0.5863914 -0.19333512 -0.3668028 -0.14087991 0.07673961 -0.3614184 0.16536622 -0.17819098 -0.08539217 0.055643618 -0.50436467 -0.44132227 0.022497263 0.11874895 0.1969386 0.17059901 -0.27221113 -0.14006533 0.058642894 -0.4038398 0.18764539 0.22399528 -0.19509704 0.16054086 -0.059473883 0.17790633 0.3802606 0.10910582 0.095972344 -0.39493093 0.1742922 -0.060686324 0.085436754 0.39487848 -0.575836 -0.2615734 0.024064833 -0.1380311
92 -0.41703135 0.013892562 0.57887876 -0.015681887 0.23182142 0.21666469 0.28387523 -0.06514728 -0.3090758 0.009411714 -0.19939962 -0.60211366 -0.50930923 -0.25617066 0.31189266 -0.24533871 -0.14965849 0.26222178 0.19590092 -0.33616155 -0.105031215 -0.13622104 -0.1882447 0.4100955 -0.38824722 0.028970564 -0.4648841 -0.18238455 -0.4635336 -0.40691456 -0.19719635 0.168494 0.31703323 0.20741524 0.02044156 -0.20780195 0.07020984 0.10599927 -0.038348816 0.16315722 0.31565547 0.07692051 0.10085875 -0.1333109 -0.49451095 0.112606674 0.44786668 0.08748933 -0.29819736 -0.20644414 -0.11383928 0.1405934 -0.041990455 0.015791012 0.4745525 0.010117531 0.069467045 -0.07604925 -0.18763103 0.7171869 0.02222484 -0.0005352707 0.041079562 0.30779907
9 -0.7753564 0.26961794 0.0980021 0.5289167 -0.21170095 0.10887694 0.33970323 -0.3724991 -0.345138 -0.40193433 -0.39099523 -0.14129248 -0.083057396 -0.4321542 -0.07560438 -0.46913567 -0.30212545 0.069515504 0.265746 0.39437672 0.15500127 -0.22300059 -0.15303333 0.19208409 -0.19913052 -0.5143518 -0.56722504 -0.24058871 -0.22346927 -0.28244773 0.034287702 -0.026700499 0.29616305 -0.033139195 -0.12672669 0.12816606 0.16302583 0.3488133 0.19336969 0.15903753 0.37660387 -0.08940613 0.69727093 0.1004684 0.09573188 0.14163749 0.058039267 -0.020605436 0.06816491 -0.160102 -0.45927194 0.10204129 0.18584117 -0.00021969687 -0.14682406 -0.088158414 -0.44703802 -0.2180556 0.006872442 0.27586597 0.17463577 -0.08016725 -0.123246804 0.24986856
18 0.054910135 -0.13715474 -0.015037187 0.3053704 0.39938918 -0.12078315 0.03809826 -0.26634523 -0.35959268 -0.110954255 0.112211354 -0.3900007 -0.25204405 -0.2689422 -0.2331631 0.14452486 -0.3753472 0.6246195 0.35279945 0.015448355 0.46550074 0.39987 0.3071095 -0.08147439 0.022345126 0.033766765 -0.48003376 0.28661326 -0.39176437 0.07184157 0.181868 0.3233663 0.55149966 -0.0221998 0.25603968 -0.057469953 -0.19380127 0.25955763 0.17010793 0.14237411 0.04708744 0.0055974782 -0.28236604 -0.36160964 -0.079457305 0.12641616 0.36458662 0.08327239 -0.42358026 0.062938906 -0.06664909 0.0036122547 0.07660097 0.27094173 0.2072451 -0.18561505 -0.22653559 -0.41086355 0.27846584 -0.025604812 0.10600426 -0.21239394 -0.33985633 0.28430703
4 -0.069300756 0.06491214 -0.22683582 0.5479094 -0.105523564 0.18910141 -0.06998815 -0.104368865 -0.28020456 -0.35263088 0.0823835 -0.1342645 -0.17303398 -0.29812434 -0.32127246 0.16654351 0.003457022 -0.030352088 0.12514384 0.17057095 0.265713 0.02860273 0.31384325 -0.051394142 -0.005535661 -0.018075174 -0.6572463 -0.19305605 -0.5099488 -0.24844593 0.14531359 -0.098350696 0.23178539 -0.16041568 -0.05117615 -0.30214486 -0.41448244 -0.28042835 0.07771698 0.13554408 0.48173177 0.18130465 -0.39306852 -0.35973337 0.32528093 0.01501992 0.22647831 0.31377414 -0.3648486 0.122402504 -0.049474373 0.28737238 -0.04558333 0.13573231 0.31876293 -0.28181154 0.16366519 -0.023163468 0.31331274 0.67766947 -0.3872665 -0.2704389 0.0644209 0.13475926
84 0.209958 -0.25996536 -0.056295943 0.3945815 0.54023045 -0.21785231 0.19532603 -0.2943799 -0.29954275 -0.17908993 0.14978781 -0.34526965 -0.17666703 -0.26395538 -0.16535953 0.049268994 -0.33598626 0.56205875 0.085551195 0.1148362 0.40316215 0.46343166 0.116921745 -0.17993398 0.09698483 -0.0012632953 -0.49116996 0.26957658 -0.40320584 0.15381499 0.25435048 0.39675605 0.72697896 -0.044246234 0.23463672 -0.16308776 -0.26934892 0.27870414 0.056852352 0.10495036 0.100379884 0.00703458 -0.041443594 -0.37166375 -0.18259051 0.20260596 0.44096163 -0.034521572 -0.44098693 0.20820858 -0.014546869 0.02643986 0.10319493 0.2366815 0.13338125 -0.24063243 -0.34890467 -0.29283988 0.19690177 0.08987899 0.086930804 -0.24893892 -0.23425047 0.3320685
106 -0.7263462 0.25397348 0.06425842 0.54300165 -0.19287454 0.018256126 0.30199212 -0.45740572 -0.3742124 -0.4184865 -0.34295952 -0.115719974 -0.044179417 -0.36885104 -0.05726534 -0.45647895 -0.3025856 -0.25131395 0.39856982 0.48452136 0.16570565 -0.17073508 -0.12958501 0.09482385 -0.3160156 -0.49796686 -0.57354426 -0.17237535 -0.2768689 -0.22397242 0.1894713 -0.043552924 0.3016324 -0.045398295 -0.0015177652 0.024833728 0.10491622 0.28227904 0.20272456 0.16960151 0.31989563 0.03181759 0.6496962 0.013480475 0.11464899 0.12719494 0.1365089 0.04111835 0.013757276 -0.06615337 -0.6052282 0.18143983 0.10906603 0.1762309 -0.13726279 -0.079781756 -0.44182938 -0.21949838 -0.027127689 0.16228148 0.15740874 0.026894988 -0.12999874 0.22123237
46 -0.01719195 -0.22167125 -0.1573966 0.31279728 0.45892516 -0.03555823 0.20398596 -0.47710553 -0.14944099 -0.13899207 0.35349187 -0.17715696 -0.22236331 -0.2383108 -0.19843186 0.2272974 -0.13432075 -0.10745792 0.043073643 0.13725863 0.010727635 0.028404912 0.39107788 -0.10202779 -0.08324748 -0.086004555 -0.47510248 -0.1973075 -0.34519964 -0.014266444 -0.11490687 0.24833487 0.3790088 0.07386958 -0.16981943 0.012059337 -0.02901135 0.28729865 0.393091 0.14167918 0.3249334 -0.05295248 -0.22506636 -0.41338876 0.04254982 0.21109153 0.576271 0.38379788 -0.16771945 0.01366138 -0.17220281 0.082272634 0.049673803 -0.057878193 0.2723412 -0.1984788 0.14432183 -0.12786391 0.09099655 0.31582388 0.089965634 -0.3960871 -0.057746988 0.05204665
14 -0.39598894 -0.3526105 0.13476327 0.42722014 0.6473618 0.592506 0.16044906 -0.22914329 -0.8851747 0.2538981 -0.19372185 -0.24983828 -0.7036911 0.11051121 0.25448957 -0.19329506 -0.13393857 0.81907886 0.58756196 0.44832355 0.43383384 0.26934987 0.1747837 -0.040716458 0.22921738 -0.26582354 -0.05841256 0.023152176 -0.24628884 0.01587232 -0.44289404 0.42861918 0.81418085 -0.4705401 -0.068061 -0.13403085 -0.24648443 0.16401207 0.092028946 0.12270653 0.2945038 -0.39146003 -0.5454519 -0.13349144 -0.1711513 0.15957469 0.5165755 -0.0970792 -0.40535444 0.28882647 -0.2609548 0.20016937 0.42640102 -0.31840113 -0.3888773 -0.38014093 -0.14807123 -0.37304503 0.3608574 0.7111951 0.43086088 0.08402015 -0.32658595 0.49199066
52 -0.43110582 -0.32085308 -0.0023042716 1.1866792 -0.20142768 -0.47992748 0.29424307 0.21932559 -0.79784936 -0.6215553 -0.5603467 -0.97859144 0.1849374 -0.4603475 0.83527386 0.018758046 0.23354317 -0.18089502 0.12480094 0.07081981 0.6170928 0.3010895 0.054804254 0.29608268 0.4299929 0.10419525 -0.35409123 0.19893989 -0.6356897 -0.41718063 -0.19766973 -0.3428046 0.28375098 -0.20025665 -0.5175129 0.027451035 -0.10728308 0.06077058 0.13924971 -0.37392062 0.19957416 0.22950882 -0.014246872 -0.19576524 0.17601688 0.17310211 0.16613735 0.6013009 -0.2515164 0.20705679 0.24707253 0.058830343 -0.06932453 0.078001395 -0.012675359 -0.64783597 -0.15504715 0.1248802 0.367473 0.5734094 0.14310957 -0.019651828 0.37128618 0.00813986
62 -0.4261268 -0.25294313 0.30870405 0.98908913 -0.24852085 -0.5672697 0.10747067 -0.06922121 -0.5968439 -0.39969063 -0.46814048 -0.72508895 0.18098141 -0.34431714 0.9153157 0.12678528 -0.055779207 -0.40376225 0.03213493 0.115334176 0.69772285 0.1955232 0.19061244 0.18536836 0.2394012 0.106327035 -0.5052607 0.24980868 -0.40937114 -0.45103 -0.065059446 -0.13690226 0.22319639 -0.09857159 -0.52430815 -0.038706675 0.12252036 0.28697047 0.085892856 -0.3188277 0.25969929 0.25497684 0.075092696 -0.3345249 0.20976615 0.29210582 0.4727912 0.61539155 -0.22995628 0.3730388 0.0114363255 0.046703007 -0.16699 0.16800563 -0.0539758 -0.6917198 -0.31628463 0.09651394 0.22203197 0.45416954 0.21067306 0.0894483 0.30646297 0.13179125
86 -0.17758504 -0.22261931 -0.092720345 0.141172 0.5947823 -0.15170026 0.42828405 -0.5135207 -0.38005453 -0.31255746 0.25096884 -0.613934 -0.3128713 -0.50870824 0.00415941 -0.01598899 -0.29142937 0.22857633 0.45968565 0.31587568 0.25198472 -0.055748586 0.26283824 -0.46526065 -0.06256362 -0.5111051 -0.46684423 -0.3270707 -0.1658135 0.30164704 -0.23385791 0.3801625 0.20724446 0.15862311 -0.37733635 -0.1336936 0.047893822 0.15109569 0.2511432 0.04667367 0.04891079 0.09883402 -0.050828032 0.11933793 0.25474748 0.276389 0.48947737 0.25069848 -0.10156846 0.024920428 -0.19394046 -0.17608549 0.21206926 -0.20716771 0.14888872 -0.16764604 0.02236252 -0.42153972 0.038191937 0.14479335 0.23931615 -0.3395403 -0.68364 -0.32206073
23 -0.27835095 -0.135068 -0.37669137 1.0318254 -0.1319339 -0.2866646 0.41069627 0.27101216 -0.8897289 -0.18235053 -0.8169912 -0.6514398 0.19723052 -0.3030648 0.4951302 -0.051964197 0.24891317 -0.23916613 0.3252616 0.29143646 0.69294024 0.12258513 -0.14962038 0.2801421 0.08508683 -0.009436137 -0.36655366 -0.13756691 -0.9047675 -0.24163468 -0.3965783 -0.55500585 0.36906034 0.0412637 -0.24312715 -0.06664181 -0.14816068 -0.18929876 -0.09566923 -0.06335211 0.17286317 0.5466517 -0.32466537 0.11291092 0.08638551 0.1306801 0.23104598 0.6023512 -0.2952401 0.18920778 0.017705867 0.015528173 0.23620792 -0.11773101 -0.2052223 -0.7595011 0.036732934 -0.22638941 0.30377996 0.8060578 -0.38561335 -0.28113136 0.21631622 -0.20713308
66 -0.14386807 -0.42192864 0.44274464 0.5524037 -0.14638506 -0.07978206 -0.2974536 -0.09150587 -0.087987274 -0.35737684 -0.17684972 -0.37507454 -0.2920522 -0.1396263 0.47915933 0.22805788 -0.29450858 -0.21705022 0.16960065 0.09431427 0.2517872 0.38898048 -0.042241286 -0.06807732 0.030735176 -0.087288894 -0.73794675 -0.14728706 -0.058967825 -0.520984 -0.088086806 -0.005722566 0.084773 -0.29565403 -0.25692835 0.04964513 -0.06532239 0.25245723 -0.047197316 -0.10724004 0.22675915 0.020386923 0.3102217 -0.75279456 0.29575652 0.20682004 0.208422 0.10574358 0.071165726 0.3578715 -0.08305483 0.11491223 -0.0066451062 0.19736016 0.30406606 0.054372866 -0.08613807 -0.06696953 0.16606115 0.57649505 0.19934337 -0.040756557 -0.002620561 0.2426524
10 -0.86646414 -0.009928391 -0.0263346 0.7026728 0.2911534 0.35760638 0.4446072 -0.231894 -0.3626326 -0.5112632 -0.3634349 0.197402 -0.43521422 -0.16191614 -0.03183455 -0.5681986 -0.5950975 0.21939778 0.21597129 0.06890387 0.059846126 -0.13526659 -0.30778992 0.34986973 0.15058276 -0.6368304 -0.56446755 -0.39788514 -0.61789674 -0.36835867 0.115028396 0.3237502 0.90789586 0.057324264 0.26437017 0.403108 0.03321914 0.22684595 -0.010794174 -0.11680098 0.54950583 0.18813016 0.41784543 -0.107569925 0.0029650074 0.29327098 0.06988172 0.3165084 -0.2273574 -0.4336755 -0.35252255 0.4161678 -0.35009006 -0.13914321 0.20911367 -0.19183964 -0.48658425 -0.2382197 0.35703486 0.20124966 -0.046234634 0.34633422 -0.33235195 0.4769885
27 -0.0676782 -0.28176737 0.24896942 0.69431907 -0.3991006 -0.330638 0.064890385 -0.30014402 -0.22801311 -0.20397957 -0.23961924 -0.6290657 0.13287053 -0.49629113 0.88006544 0.34401202 -0.2716809 -0.16380107 0.30587876 0.21347548 0.41010773 0.20344251 0.19880727 0.10765522 0.38085815 -0.07678943 -0.47995532 0.07865493 -0.22958113 -0.28801218 0.017372003 -0.10673194 0.051275823 -0.04997065 -0.48761314 0.038244836 0.12317093 0.38064837 0.21190387 -0.1658084 0.249901 0.2032944 0.265821 -0.41742665 -0.12995043 0.12311245 0.29692173 0.35336554 0.13826412 0.09590555 -0.13754259 0.08144487 -0.09349287 0.29825702 0.29782948 -0.28090024 -0.26459336 0.09884178 0.38117087 0.7089115 0.26570988 -0.02196353 0.006977821 0.42112488
17 -0.29461306 -0.2871032 0.14588164 0.41189668 0.07565809 0.33782995 -0.07275836 -0.07090352 -0.06515916 -0.5890612 -0.084233195 -0.45414785 -0.35873652 -0.003307157 0.13230112 0.14925665 -0.194851 0.084860526 0.18807259 0.2188506 0.5447558 0.079381675 -0.020187706 -0.02749953 -0.41319606 0.1401308 -0.65834534 -0.4927013 0.052659698 -0.38321358 -0.33817193 0.08259282 0.2716184 -0.20239565 -0.01726757 -0.1279501 -0.22324175 -0.19482918 -0.18295191 -0.040156487 0.22306548 0.36513618 0.047415253 -0.57996535 0.41609532 0.098570555 -0.09772132 -0.022003967 -0.19523579 0.348296 -0.02293644 0.33268833 -0.12737803 0.12502311 0.52494615 -0.10485041 -0.16515067 0.1679892 0.07182668 0.9556806 -0.27100062 -0.31382403 -0.2693098 0.18568659
13 -0.6368206 0.05116621 1.0124558 0.047565617 0.11495952 -0.055927977 0.5761448 -0.25330675 -0.6386972 -0.42842484 -0.35327706 -0.48548755 -0.47180358 -0.43021783 0.43171993 -0.19112709 0.09902553 0.35238615 0.34863594 0.059359133 -0.32366878 0.08102276 -0.24465051 0.18196185 -0.023557698 -0.43239874 -0.38350654 0.05523192 -0.9307336 -0.7278213 0.0430869 -0.20812495 0.15618812 0.32416794 -0.32531634 0.014818404 -0.026811276 0.049778655 -0.15055247 -0.18117891 0.25611922 0.15859146 0.25910786 -0.008543905 -0.047654357 -0.044581804 0.5016449 0.17930743 -0.19521053 0.1998341 0.13564046 -0.44674984 0.06296689 -0.33234 0.40791184 0.10503569 -0.19612929 -0.3182762 -0.4398404 0.7618045 0.11256038 -0.14443278 -0.6499128 0.48332804
21 -0.30036205 -0.0003315236 -0.24733154 1.002599 -0.24243462 -0.3858875 0.34532046 0.18016233 -1.0103151 -0.28311008 -0.814687 -0.7101993 0.27596766 -0.34136477 0.35577303 -0.0075307703 0.25100553 -0.27218956 0.3412089 0.25980315 0.7095376 0.1402607 0.006963317 0.17909817 0.2095942 0.05246993 -0.45020938 -0.11587994 -0.77064437 -0.1878654 -0.27135655 -0.4734247 0.43576914 -0.00799664 -0.34858203 0.01794193 -0.057656076 -0.18486093 -0.14909431 -0.07232441 0.21019529 0.58933324 -0.36977166 0.10608994 0.11986866 0.08397264 0.2869257 0.65417653 -0.15998568 0.19681191 0.025778953 0.08048393 0.19508204 -0.08534819 -0.16191795 -0.7597812 0.07430815 -0.24581912 0.22220956 0.73913074 -0.32645178 -0.2804762 0.12834172 -0.24632841
20 0.0013759808 -0.15807912 0.08395276 0.48836067 0.50254595 -0.049803317 0.09656089 -0.2791012 -0.48565206 0.11004872 -0.11828577 -0.4175282 -0.24083404 -0.28379825 -0.16237876 -0.16450071 -0.433191 0.74455404 0.3091898 0.18751614 0.36243916 0.3840611 0.64426786 -0.0184503 0.20259072 0.18709338 -0.4122023 0.31494528 -0.37250674 -0.12232993 0.056813598 0.6633181 0.79549855 -0.27276862 -0.06195415 -0.17567976 0.026650615 0.18457736 0.013680138 -0.14747182 0.19772217 -0.23175475 -0.28821072 -0.23209286 -0.08332853 0.3505952 0.45516616 0.034145173 -0.4733051 0.08860867 0.016083919 -0.09633626 0.3420962 -0.05050595 -0.01007729 -0.29748362 -0.13073194 -0.41125926 0.41184855 0.22634257 0.17532696 -0.011684034 -0.31004974 0.36042708
22 0.04267349 0.038344044 0.056326963 0.5901389 0.4424554 0.019688737 0.079565726 -0.3873935 -0.60746765 0.094613135 -0.06884478 -0.5334604 -0.23284149 -0.19078898 -0.23859476 -0.068599634 -0.563236 0.69988966 0.32000533 0.2336322 0.36859953 0.31129757 0.5858362 0.068681404 0.19838321 0.25697705 -0.439133 0.21985164 -0.3633969 -0.043899953 0.037871793 0.6404117 0.7736591 -0.27368498 0.014076 -0.16717654 0.020996578 0.1359005 -0.13342313 -0.08291539 0.16546458 -0.15342365 -0.45106724 -0.23382469 -0.18265645 0.20325853 0.5140966 -0.101339154 -0.54342437 0.27071086 0.071019225 -0.048632324 0.34509963 -0.09477425 -0.002408448 -0.37342417 -0.13032404 -0.4328038 0.44196272 0.31635994 0.16466191 0.06921284 -0.30639222 0.5005541
100 -0.2082478 -0.22981039 0.2127133 0.70567155 -0.33197826 -0.35222363 -0.012999998 -0.22312765 -0.42890766 -0.14729182 -0.23115848 -0.6189283 0.064507365 -0.4180816 0.6526654 0.33984184 -0.083737545 -0.16326576 0.24085066 0.32121998 0.36178124 0.2582785 0.15378338 -0.011137893 0.44318125 -0.006411509 -0.4498282 0.3924811 -0.38430512 -0.3290368 0.14228642 0.013115281 0.14103867 -0.053363487 -0.45566082 0.04295063 0.2036252 0.43885204 0.13143627 -0.109240934 0.30289796 0.117606394 0.2904569 -0.46350223 0.032639198 0.25676036 0.09876696 0.32830343 0.092402555 0.091472976 -0.02163204 0.07615672 -0.330444 0.17330503 0.35156414 -0.2404766 -0.2489297 0.094581075 0.38115582 0.65887445 0.37741575 -0.12921396 0.06211671 0.38961285
40 -0.4624466 -0.3442657 -0.40705755 0.14423405 0.4774148 0.109199144 0.68627876 0.019255089 -0.58736736 -0.24187134 0.015234781 -0.095922336 -0.41456985 0.108218506 0.08694565 -0.07449371 -0.11273522 0.19899388 0.339178 0.012394421 0.24245712 0.031409096 -0.144897 -0.09617971 -0.34328353 -0.5021891 -0.06309867 -0.30556867 -0.14552549 -0.059205186 -0.4048273 0.05280783 0.13658488 0.058576874 -0.22807926 -0.08674261 0.04256829 0.10193231 0.27024752 0.3507369 0.34311455 -0.108503394 -0.0898755 0.12309854 -0.087121494 0.1383008 0.4067657 0.17085199 -0.06870906 -0.056569472 -0.21131994 0.2496132 0.24648198 -0.15898076 0.032224383 0.026720542 0.02287739 -0.18185593 -0.062044475 0.33603257 0.21478266 -0.27086523 -0.41007587 -0.25392154
95 -0.37258708 -0.08471077 -0.2373045 0.75835747 -0.038648713 -0.07886182 0.4470686 0.193448 -0.8196908 -0.35642743 -0.43845263 -0.40348434 0.10241327 -0.329561 0.11361059 -0.2748021 0.4961784 -0.08491506 0.36292621 0.3334018 0.5527343 0.0783539 0.1719142 -0.057838257 0.073868185 0.07547453 -0.44837585 0.090432405 -0.5414936 -0.3375226 -0.22106557 -0.3350667 0.390746 -0.25613907 -0.08653313 -0.17542219 -0.22699685 -0.39162117 -0.09342829 -0.12425165 0.17556994 0.34148413 -0.36955446 0.08196059 0.30718252 0.1185427 0.14511815 0.5755332 -0.2695789 0.0922674 -0.003563086 0.1495699 0.20311633 0.15553372 -0.02067132 -0.8184011 0.033587877 -0.171335 0.03274532 0.39940184 -0.455346 -0.30700716 0.186024 -0.33232546
90 -1.0180981 0.0846397 -0.016255083 0.6385353 0.054524437 0.42646077 0.48240122 -0.25658926 -0.3525288 -0.46572447 -0.35898927 0.25823852 -0.39479107 -0.106095955 -0.066290274 -0.5826497 -0.4997819 0.2211475 0.3183321 0.026874073 0.10688039 -0.18886721 -0.21123533 0.40502673 0.047237672 -0.67468786 -0.60900134 -0.40550333 -0.48871583 -0.42021403 0.16181912 0.20765306 0.81861854 0.081826195 0.20758332 0.34004617 -0.011975425 0.1479018 0.0054741283 -0.027962655 0.5182001 0.07366299 0.44448394 -0.24014723 0.02840012 0.17571133 0.18241489 0.20081599 -0.1313552 -0.28535393 -0.3679594 0.3766598 -0.17214063 -0.07554517 0.1460159 -0.16040616 -0.40868613 -0.104888655 0.4921137 0.17034563 -0.14562772 0.27993518 -0.4102226 0.37430584
94 -0.41222012 -0.043780375 -0.21910676 0.66051406 -0.07207713 -0.25787988 0.5395411 0.08993535 -0.90085363 -0.3202694 -0.38773024 -0.4761487 0.22359613 -0.38018534 0.18464826 -0.15826003 0.44343844 -0.106595844 0.39463535 0.30300435 0.52988327 0.0025526632 0.107946925 0.050089706 0.057825707 0.016236397 -0.47373953 0.05975853 -0.6309495 -0.3977159 -0.18423471 -0.42030624 0.25361088 -0.21097913 -0.091157824 -0.075596 -0.17516506 -0.34526914 -0.03425909 -0.1390775 0.109539576 0.4493321 -0.45085338 0.11467457 0.43487442 0.08328811 0.16000508 0.59039944 -0.23793042 0.10961094 -0.038028996 0.17523083 0.121971294 0.09896391 0.033779886 -0.82377654 -0.015696011 -0.17652641 0.036124334 0.43920246 -0.50895643 -0.36583507 0.03674566 -0.31367832
24 -0.61375636 -0.48598355 -0.043198436 0.085975125 0.14494416 0.3001644 0.4104839 0.014620517 -0.7229812 0.08632354 -0.20804298 -0.020743588 -0.2569469 0.074231006 0.06473034 -0.21181965 0.07682583 0.5119898 0.6504944 0.20825337 0.23688406 -0.16161077 -0.09139562 -0.21819402 -0.010014292 -0.40392083 -0.11729658 -0.35563967 -0.22946477 -0.075124174 -0.63917655 0.06797761 0.43436384 -0.28666914 -0.047535744 0.09106927 -0.0924608 -0.21699904 0.36067238 0.17475425 0.47158986 -0.22128692 -0.40990043 0.03805734 -0.08844864 -0.021151096 0.1835444 -0.0123559795 -0.12592039 0.12946504 -0.034736086 0.19343756 0.35731527 -0.52279073 -0.15781713 -0.002534968 0.17689553 -0.1731496 0.16294694 0.6043053 0.47733516 -0.19737682 -0.112202056 0.15337485
103 -0.5120198 0.122055456 0.91189736 0.14281695 0.10388649 -0.09470655 0.49782267 -0.17312525 -0.5896905 -0.37835327 -0.42526087 -0.6811686 -0.44447386 -0.41959256 0.45604712 -0.20199873 0.10050719 0.31272915 0.31421828 -0.0019332103 -0.31770593 0.022112837 -0.15470187 0.21471313 -0.036465656 -0.44810233 -0.39503825 0.007442675 -0.8588982 -0.65259755 0.17687562 -0.3821904 0.13445145 0.23062046 -0.3918976 -0.028781595 -0.11359697 3.1508753e-05 -0.17779602 -0.18924262 0.30137426 0.14984106 0.23722698 0.05889361 0.047873143 -0.118094705 0.55629104 0.16123225 -0.17073552 0.10683759 0.038629476 -0.37318587 0.25462508 -0.27624798 0.50896025 0.16352685 -0.27398688 -0.2559297 -0.3976474 0.64466447 0.14010231 -0.05757774 -0.54413503 0.50803703
88 -0.6890639 -0.4944204 -0.094936505 0.14533603 0.15762559 0.16083999 0.52475363 0.11388569 -0.7845408 -0.004471806 -0.21268788 0.06525684 -0.3968362 0.08760776 0.15360375 -0.10343374 -0.012995361 0.56417495 0.58347857 0.18098643 0.30063042 -0.18593025 -0.043080483 -0.15610483 -0.09182068 -0.36560157 -0.09737232 -0.2689392 -0.30187798 -0.02488549 -0.71076906 0.3134826 0.36968058 -0.22090967 -0.10628561 0.06429898 0.030143572 -0.13424192 0.3160005 0.09840677 0.5715306 -0.17020151 -0.44680125 0.054149743 -0.23480475 0.029586963 0.1810754 -0.10838907 -0.1329331 0.0991232 0.03069131 0.21024664 0.3677995 -0.37021416 -0.2266369 -0.02761823 0.16379043 -0.27217224 3.751232e-05 0.6998098 0.40932864 -0.17304267 -0.056546304 0.12984025
87 -0.58555484 -0.27255544 0.016476773 0.26146835 0.49107122 0.39317974 0.30569082 0.08053681 -0.93586284 0.33280948 -0.10906622 -0.35195675 -0.528824 0.09395874 0.3156714 -0.104987904 0.035084005 0.7417601 0.57331467 0.39471376 0.42800882 -0.020294024 -0.0024414812 -0.053578746 -0.007919602 -0.3457701 0.110685706 -0.16548078 -0.19137722 -0.053311568 -0.6702979 0.2979247 0.66155744 -0.09946605 -0.0363163 -0.12798725 -0.070742205 -0.0545375 0.27072182 0.27982774 0.50120264 -0.40904924 -0.4329856 -0.052567307 -0.27130812 0.11773929 0.419006 -0.11910099 -0.20465651 0.25449604 -0.12649438 0.13573869 0.31481087 -0.3568746 -0.44320625 -0.20082296 -0.05944057 -0.16587657 0.09820729 0.78172797 0.2084374 0.10377019 -0.20186429 0.3040814
98 -0.11254506 -0.0733621 -0.13470735 0.62665033 0.18052582 0.38194367 0.13836072 -0.09632304 -0.22679786 -0.6432909 0.08100747 -0.23064281 -0.39301988 -0.12990648 -0.13367471 0.25679597 -0.19493279 -0.20477192 -0.031879123 0.58439565 0.38824943 0.07440851 0.073590554 0.023738194 -0.36115438 0.24310349 -0.5048098 -0.4229812 -0.3546585 -0.30254385 -0.22490752 -0.025494948 0.28636232 -0.12175463 0.0055466457 -0.2944539 -0.35506323 -0.25396883 -0.18301429 -0.036225732 0.39686036 0.3416868 -0.15275684 -0.57416594 0.584556 0.044162042 0.074560225 0.14098816 -0.4292776 0.24812943 -0.090415604 0.2922194 -0.08603056 0.0409414 0.34819308 -0.24998131 -0.07917357 0.021595092 0.12847708 0.83451796 -0.51749194 -0.29952765 -0.16231075 0.20649491
82 -0.22925533 -0.36206838 0.14313835 0.5519246 0.45987174 0.32409027 0.13454473 -0.18194176 -0.4840264 0.052415494 -0.2589826 -0.23869959 -0.35443008 -0.11473764 0.121571824 -0.17407873 -0.35366747 0.8677043 0.33751947 0.37167975 0.49707037 0.26433575 0.53565156 0.13917781 0.17578556 0.093965694 -0.12746239 0.14713942 -0.43619618 -0.02824695 -0.29845154 0.51782656 0.9154311 -0.24351075 0.031928465 -0.10738648 -0.091173634 0.07812167 0.10076386 -0.1659485 0.12841003 -0.5436341 -0.4829711 -0.07131589 -0.100023486 0.3146876 0.4760115 0.042749938 -0.63225853 0.21428075 -0.23475592 -0.13085887 0.45283794 -0.078153685 -0.0027378444 -0.49892238 -0.14643544 -0.54311305 0.52932334 0.3787476 0.4505384 0.0015661038 -0.21733457 0.64056164
81 -0.07755477 -0.26751047 0.22272986 0.53438205 0.47865695 0.33598873 -0.030045949 -0.3640804 -0.5990023 0.28999934 -0.19435543 -0.38378593 -0.47502583 -0.18870813 0.120798044 0.018716857 -0.263473 0.796729 0.48305655 0.40698874 0.63004905 0.23725158 0.542474 0.01219336 0.047209583 0.11153363 -0.41405287 0.1726571 -0.38622403 -0.016824588 -0.2758413 0.53050613 0.8925092 -0.36927366 -0.062385984 -0.10158037 -0.0867909 0.21733823 0.2013474 -0.07703944 0.085531555 -0.5065835 -0.5021631 -0.09596288 -0.19290328 0.2616034 0.56936216 -0.079450585 -0.5799279 0.3882451 -0.20763421 -0.120770276 0.46021876 -0.16810308 -0.12927519 -0.60093886 -0.20883243 -0.44451058 0.48720968 0.49618044 0.3712677 -0.0633452 -0.22677077 0.5556807
25 -0.219115 -0.1638653 0.28617886 1.0426873 -0.22192769 -0.43128145 0.047886074 -0.06894524 -0.59371674 -0.4633723 -0.45858508 -0.7593105 0.2423852 -0.33905867 0.7856255 0.10966358 -0.1694693 -0.40653723 0.156957 0.08295867 0.7311926 0.18556127 0.21080485 0.26744714 0.28208098 -0.07973413 -0.3464133 0.22888927 -0.2693692 -0.27226454 -0.07102176 -0.18461075 0.27411112 -0.12083745 -0.5930756 0.010211649 0.20142846 0.2775838 0.14884092 -0.21478432 0.30295274 0.24868049 0.082744695 -0.5209856 0.06874179 0.21523292 0.3852526 0.40102175 -0.005900364 0.33117762 0.01969851 0.053519964 -0.17619017 0.3317429 0.2677571 -0.6206113 -0.34611788 0.1469743 0.30828473 0.55506516 0.33332494 0.19747153 0.020703217 0.12631941
3 -0.19731213 -0.359869 -0.12343792 0.24912655 0.5492587 -0.31564254 0.29431438 -0.49396574 -0.40769508 -0.48080036 0.022937305 -0.56479913 -0.16258591 -0.48140272 -0.076052606 -0.08850919 -0.18780307 0.385336 0.65278083 0.21752883 0.4993437 0.13270502 0.1706396 -0.47670853 -0.044982757 -0.426777 -0.6861576 -0.16466148 -0.11819553 0.37259012 0.0042387643 0.23962885 0.34381425 -0.08052647 -0.11767004 0.08904142 -0.061900947 0.17982422 0.073219076 -0.07504098 -0.21330597 0.23687914 -0.09092343 0.35683456 0.30874676 0.07108546 0.45780927 0.012530796 -0.20817348 0.08599553 -0.0645429 -0.1672374 0.27171096 0.025534883 0.09965768 -0.11774412 -0.14637756 -0.50524807 -0.07938658 -0.006507237 0.011423262 -0.3254802 -0.7316427 -0.244518
15 -0.47219402 -0.30498838 -0.073171794 1.421166 -0.34041575 -0.48686075 0.3968071 0.22881693 -1.0037544 -0.6675941 -0.7079499 -1.0077533 0.28236502 -0.49723697 0.83395255 -0.01789041 0.2454349 -0.09900891 -0.0034838933 0.19446637 0.50400525 0.16872326 -0.018562298 0.088824466 0.3715808 0.1212226 -0.33187827 0.15219204 -0.4566072 -0.36506835 -0.40041116 -0.11633873 0.3594651 -0.3383265 -0.7614847 -0.034135647 -0.24472834 -0.028799398 0.029753745 -0.32269657 0.2355133 0.24901056 0.08106014 -0.29764697 0.11083711 0.20383224 0.40531865 0.60111034 -0.29614097 0.51434183 0.11175979 -0.014402329 -0.073880054 0.052163452 -0.25147095 -0.7811901 -0.16718648 0.21139178 0.2772603 0.66119874 0.21970734 -0.062206324 0.36571783 -0.010514443
80 -0.26420695 -0.1916499 0.02860551 0.5253886 0.6648119 0.27209136 0.17595397 -0.26367858 -0.88103396 -0.013596531 -0.3414876 -0.5266797 -0.6171297 0.09518615 0.29594153 -0.4462064 -0.11608601 1.0165849 0.67393744 0.14392513 0.42861825 0.46201274 0.10396429 0.113425076 0.33326027 -0.35840797 0.24937835 -0.0014946646 -0.39675996 -0.01155662 -0.42508438 0.2636405 0.79624647 -0.540985 -0.038120255 -0.15973033 -0.3754842 0.07460533 0.06578785 0.32716456 0.06879447 -0.2593501 -0.54628134 0.007592067 -0.2787898 -0.04551689 0.38432416 0.0422638 -0.5027961 0.29753444 -0.26479676 0.19703673 0.58423895 -0.34934726 -0.4426658 -0.32286718 -0.25533953 -0.67488116 0.30538508 0.8684257 0.29470736 0.2794311 -0.41243684 0.57413113
12 -0.84622324 -0.2603774 0.063002385 0.72999084 0.06708219 0.32050017 0.28499013 -0.23527674 -0.34482357 -0.46163282 -0.48082307 0.08407514 -0.34047145 -0.27468315 -0.01568755 -0.5348329 -0.53949517 0.31248984 0.47602874 -0.053904217 0.3149156 -0.21594225 -0.48281044 0.48938856 0.36218578 -0.62280387 -0.6250652 -0.30706254 -0.43390548 -0.35904604 0.26077524 0.1863826 1.2532495 0.10459694 0.44122356 0.55472106 0.1160226 0.12754118 0.086159006 -0.06322369 0.77665174 0.22850393 0.66630393 -0.20290788 0.04480945 0.14831513 0.13538483 0.35435805 -0.3294004 -0.396373 -0.30720824 0.4535426 -0.31369185 -0.23785633 0.11789675 -0.12732713 -0.11770464 -0.05435013 0.7140346 0.27589676 -0.00897581 0.49283743 -0.37426883 0.59693056
107 -0.5011621 0.25908852 0.03522377 0.5234439 -0.104337126 -0.122244254 0.2632739 -0.46604362 -0.53129345 -0.41353506 -0.6682872 -0.18981533 -0.2290655 -0.40479103 -0.2779145 -0.38952032 -0.35371 -0.3329144 0.24204533 0.4328528 0.20888272 -0.1477155 -0.055840414 -0.12155831 -0.0671407 -0.88671637 -0.58942825 -0.3551533 -0.35001704 -0.24702322 -0.043133177 -0.109702624 0.3518879 -0.14760935 -0.18999152 0.20968746 0.000984896 0.113501176 -0.03943541 0.36054605 0.30119634 -0.29023874 0.7312299 0.089851715 -0.11910942 0.07918022 -0.007538501 -0.0511007 0.11765542 0.16531985 -0.74955344 0.04146354 0.032042883 0.009024534 -0.062454604 -0.18260102 -0.7093568 -0.45687738 0.06341491 0.27989084 0.05252856 0.010906093 0.115003936 0.33174095
16 -0.28971615 -0.27193943 -0.29201922 0.24465004 0.79503 -0.2900096 0.33060306 -0.26486102 -0.5386821 -0.37217477 0.10922637 -0.4801578 -0.25879902 -0.44833985 0.12893021 -0.40176266 -0.28684852 0.21206258 0.51129097 0.680013 0.15576705 -0.090463854 0.2858945 -0.6724909 -0.07793543 -0.39866933 -0.299428 -0.27842233 -0.36644435 0.24085975 -0.3384161 0.49585488 0.120163344 0.4523922 -0.6321316 -0.2569149 -0.050255615 0.21020272 0.20258461 -0.37671247 0.1349578 0.06948865 0.1878455 0.13502204 0.22726797 0.23395674 0.69744056 0.16930017 -0.2249158 -0.022672689 -0.07294998 -0.22822541 0.056163404 -0.19684719 0.2899171 -0.09783019 0.11978784 -0.55522346 0.096400216 0.39538726 0.44791445 -0.34597513 -0.7000437 -0.3816798
99 -0.50963855 -0.19742268 0.08743903 0.2607724 -0.031910714 0.46962637 -0.14205043 -0.10942102 -0.052319366 -0.59234923 0.010795867 -0.42980886 -0.50594956 -0.062175877 0.23864454 0.2633416 0.064150356 0.16597377 0.40749717 0.17471617 0.9083057 0.0061436053 -0.2048892 0.10392604 -0.376711 0.23302159 -1.0796993 -0.4343666 0.2508397 -0.62656206 -0.06694262 0.03845313 0.25324938 -0.12641352 -0.13216262 -0.034820467 -0.27952835 -0.3751713 -0.36444798 -0.17253627 0.2537424 0.4145532 0.019947385 -0.22928484 0.4700014 0.24937993 0.11657709 0.10575903 -0.18039688 0.25910905 -0.18351196 0.16764694 -0.3353105 0.10175428 0.6645472 -0.30980137 -0.22010323 0.21402135 0.10337038 1.1101671 -0.2995953 -0.21014012 -0.32273874 0.2930808
8 -0.62104106 -0.008229353 0.5048849 -0.054105174 0.27704355 0.24149187 0.16544284 -0.1514615 -0.28988934 -0.24410535 -0.41049573 -0.7980874 -0.6146521 -0.33226353 0.26045483 -0.30175075 -0.33730078 0.36174446 0.5657927 -0.4748493 -0.12856509 -0.16591243 0.067639425 0.33062267 -0.62960273 -0.17516278 -0.5537646 -0.029812146 -0.5605849 -0.3374495 0.0216428 0.010865222 0.21072038 0.07420642 0.1117124 -0.29160005 0.1815735 0.18956582 -0.27424607 0.07351159 0.42669937 0.273222 -0.18798313 0.06886213 -0.60363233 0.100520246 0.47991198 -0.0073974277 -0.19218704 -0.18649475 0.0866307 -0.06793515 0.08793182 -0.009594992 0.5813095 -0.026376575 -0.09762633 0.08583006 -0.1391872 0.83452123 0.31912717 0.1407489 0.39098766 0.30298823
104 -0.56749684 0.47924805 1.1933724 0.028507555 0.15019476 -0.24571306 0.6805132 -0.4090435 -0.631515 -0.5026021 -0.509823 -0.5564189 -0.56673914 -0.38125056 0.40672964 -0.26224604 0.17933527 0.5613296 0.4531027 0.25719693 -0.32696313 0.14060287 0.08679741 0.27174523 -0.017560977 -0.5749109 -0.46684554 0.04890592 -1.0857106 -0.8237334 0.20365714 -0.44576973 0.40438542 0.20203196 -0.6670945 0.31109095 -0.07975526 0.13055784 -0.24577995 -0.23410493 0.39715582 0.19686778 0.3925298 -0.119388275 0.12322105 -0.16595514 0.78737473 0.30999017 -0.20047721 -0.039474245 0.2041641 -0.25427756 0.3129472 -0.38557377 0.34704837 0.047379863 -0.2809588 -0.1993905 -0.29485166 0.7793748 0.098532654 -0.011013411 -0.7087662 0.6065019
