207 64
203 0.54608434 -1.8046345 0.7165296 0.53160256 -1.1926383 -0.27374467 0.26348594 0.7116794 -1.5699981 -0.2658088 0.5454773 -1.4731984 -1.7881291 0.31674448 0.021039823 0.6269665 0.9256499 1.1174245 -0.6016475 -0.7360967 1.0538566 1.445471 2.0951993 -0.7257203 0.075557016 -1.0934597 0.31895718 0.61968434 -0.54639834 -0.34684953 -1.0940759 -0.09771077 0.1476714 -0.54846966 -0.35494328 -0.7289811 0.9054184 -0.7720484 -0.5798587 -0.26606032 0.21557847 0.9214687 -0.7449023 -1.0485857 0.43611446 -0.8950518 -0.10309416 0.19885966 0.9402891 0.5911477 -0.07290909 0.39540213 -0.50585026 1.4730631 0.17714964 -1.0596565 0.63596016 -0.77610946 -0.072079375 1.3148675 -0.117820226 1.0165797 0.78166664 0.4505422
181 0.13610925 -0.10278565 0.40091768 0.07906512 0.18139167 -0.07657533 -0.13295417 0.607337 -1.0954442 -0.6754273 -1.1630529 -0.7814607 -1.2467054 -0.09301472 0.547621 1.5313013 0.4121191 1.2355499 0.829999 1.7458428 0.14797148 -0.41154617 0.7770041 0.18750621 -1.1193844 0.3917982 0.7132367 -1.6626682 0.6660019 -0.8854789 0.37467533 0.56656516 -1.113929 -0.16508743 -0.70317 0.5658976 -0.11893226 0.31776983 -0.18086818 0.48722926 2.0627007 -1.529163 0.5888599 -0.03687214 0.45274085 -1.154249 -0.44131547 -1.1112312 -0.4656708 -0.92274934 0.3702542 0.5181705 1.46552 1.4024718 0.34885404 0.95402694 0.41730613 0.245877 1.1307359 -0.002020971 0.5115466 0.8407537 0.34340796 1.3797575
126 0.78243923 -1.5832547 1.3232836 -0.19778489 -1.4303184 -0.23750868 -0.3983547 -0.6444952 -0.39862427 1.2970495 -0.45917058 -0.3360377 -1.2878276 -1.3999135 1.0276238 2.198767 0.12240155 1.4186622 0.17601296 1.2189275 0.6420591 1.4438103 1.7237021 -0.8846987 0.77502316 0.007701742 0.062751405 -0.7085659 1.6870716 0.16527906 0.79250413 1.2983098 -0.326354 1.2910203 -1.6740798 -0.8358621 1.4802995 0.5232271 -1.1660311 -0.9189071 0.63692737 1.1253227 -0.4296231 -1.2634504 1.2843161 -0.41130474 0.6602726 0.34251142 0.03389665 -0.91440135 0.32855776 -1.3935863 0.13995963 1.4409227 0.6311018 0.41129738 0.29934528 -0.42562377 -0.2716141 1.0605971 -0.14648272 1.4088542 1.2660137 0.69995767
182 0.686846 -1.5481462 0.54833305 -0.3123794 0.22855188 -0.73933524 -1.0868683 1.0292143 -1.6317617 1.4750087 -2.0422869 -1.4060818 -0.6413155 0.5512693 1.2796332 2.2743726 -0.01753909 1.3446054 -0.33371827 1.8910857 1.2028136 -0.6709564 0.5506684 0.4194615 0.17354077 1.0782822 -0.48893833 -1.9907134 0.14144564 -1.1082009 -0.15286814 -0.8186443 0.40312213 -0.003888381 -0.12318339 0.3056577 0.025407774 0.5303841 -0.34604704 -1.2400991 0.7232697 -1.0240244 -0.43767828 0.039871998 0.43676737 -0.64159316 -0.103071645 0.305224 -0.6311936 -1.1728325 0.5110416 0.4125434 1.3954064 1.1097499 0.99880046 0.42822823 -0.61045533 0.9116077 0.49927163 0.75944746 -0.7015955 0.04087575 0.30143875 -0.59635484
146 0.058622222 -0.2119497 0.16529827 0.10672013 0.010790639 -0.27266616 0.02771877 -0.05170537 -0.5513194 0.24902415 -0.4968266 -0.35190502 -0.6869025 0.07122752 0.46300608 0.7415972 0.31371635 0.38061208 0.016502224 0.55397004 0.22359984 -0.24396071 0.015652873 0.1813883 -0.37906083 0.2087105 0.029476598 -0.64719003 0.29339272 -0.42409712 0.02007455 0.018480482 -0.19871208 0.06025662 -0.2995002 -0.117686816 0.088300064 -0.024641555 -0.34496194 -0.03323257 0.7590493 -0.44169974 0.2941672 -0.14928803 0.27128842 -0.5036277 -0.23051462 -0.12935251 -0.1398846 -0.53722286 0.23239405 0.014250868 0.49542955 0.6456074 0.54418296 0.36148494 0.13379541 0.3066116 0.45521533 0.21107812 -0.025665892 0.07415369 0.17632608 0.009183495
183 0.19140077 -0.7766885 0.3124812 0.19754635 -0.7142774 0.47406375 -0.57445604 0.29431748 -0.20897144 -0.111552805 0.08919201 -0.08810779 -0.71801186 -0.23410964 0.030844634 -0.027672555 -0.2205469 0.39859226 -0.047387324 0.39158994 0.6145713 0.38161469 0.8226887 -0.2332966 0.27374026 0.03118649 0.6703289 -0.6574095 -0.196566 -0.15453564 0.10485933 0.19443867 0.14880891 -0.2761661 0.004659184 0.59628296 0.57716995 -0.2470577 0.4145866 -0.25106022 0.17406793 0.30364686 -0.72244483 -0.17655131 0.13268855 -0.5143784 -0.14699696 0.23835303 0.010612674 -0.56258714 0.4233142 0.083176486 0.033593304 0.44595858 -0.04600037 -0.10238246 -0.43880194 -0.118411176 -0.021275366 0.2432796 -0.11765967 0.61004066 0.5329546 0.29100525
65 -0.055147093 -0.62836874 0.01951956 -0.11386614 0.30000675 -0.2550262 -0.8165515 0.048221074 -0.5410791 -0.048279066 -0.23526773 -0.30434346 -0.35413316 -0.13048892 0.039814267 0.07369284 -0.5208136 0.192892 -0.4184289 0.33350113 0.67668647 0.75587475 0.5210511 -0.18028285 -0.08620018 0.61005694 0.013399171 -0.40000457 0.012326547 0.014883234 -0.058664482 -0.11037061 0.13065937 0.5933451 0.3325848 0.14259191 -0.19898333 -0.3105739 0.15000162 0.70606333 0.2968198 -0.10635299 -0.7445838 -0.7489413 0.086545035 -0.3052996 0.23023124 -0.1116049 0.2869965 -0.25883293 0.51975447 -0.121813625 0.33044896 0.5832501 -0.00068659394 0.09687534 -0.0633011 -0.34093356 -0.31928983 0.65575796 0.30708778 0.26610154 0.6830221 0.106831886
60 0.12569708 -0.10088644 0.23729146 -0.16422088 0.14112774 -0.2089509 0.0630998 0.20460217 -0.5373616 0.187707 -0.42310193 -0.43089893 -0.499449 0.23594388 0.4254283 0.64911634 0.29144678 0.55234164 -0.042155594 0.511091 0.097571686 -0.30378246 0.097964406 0.52808225 -0.26790962 -0.0009939038 0.12772752 -0.5229951 0.21011014 -0.36120206 0.10008117 0.030819904 0.11400333 0.16402374 -0.11684966 0.047839575 0.10669639 0.2542879 -0.19867311 -0.21590622 0.74662334 -0.5364557 0.36095884 -0.092451476 0.14906123 -0.38142043 0.0037018806 -0.022790138 -0.1795198 -0.315198 0.16013807 -0.070229955 0.68497163 0.3926224 0.47401565 0.39287618 0.01612456 0.37660277 0.05552069 0.29625177 0.06743184 0.21257138 0.33256206 0.122285716
147 -0.11531965 -1.215596 -0.23622131 -0.12693276 -0.63347685 -0.29617226 -0.3467652 0.6050968 -0.48808733 -0.22448078 0.08232744 -0.6058089 -0.31814665 -0.34443173 0.5394295 -0.12527962 0.046468306 0.15237963 0.20854363 0.39652368 0.07358987 0.3205226 0.1833704 0.09716436 0.24587606 0.08256633 0.21098624 -0.22915931 0.19735646 -0.21209718 -0.1414557 -0.18536013 0.22844528 0.18050447 -0.37049463 0.18479337 0.14345723 -0.56557035 0.2387724 0.2600249 -0.14710943 0.34790176 -0.49511367 -0.23967423 0.148342 -0.37983957 -0.100797854 0.24174789 0.18841861 0.1998176 0.1997574 -0.5172924 0.44508034 0.40462786 -0.027061954 -0.22312194 -0.1632867 -0.56487185 0.16563928 0.4226987 0.16650407 0.4672249 0.053637825 0.15676613
81 0.17688109 -0.4432617 0.1539301 0.011074335 0.12333247 -0.26362753 -0.1390129 -0.039538674 -0.58186704 0.19507049 -0.659397 -0.23183118 -0.54308325 0.1067086 0.46647346 0.70415336 0.17171112 0.33743852 -0.0208814 0.67111397 0.09821478 -0.4446174 -0.04484091 0.3081929 -0.14482664 0.06969416 0.077708565 -0.5070034 0.15315211 -0.31456092 0.015425099 -0.15016864 -0.027350165 0.18505271 -0.16456614 -0.09503522 0.09626632 0.29720232 -0.37414512 -0.22378847 0.8058868 -0.56495553 0.24273293 -0.08831017 0.21168685 -0.49716583 -0.057771504 -0.064316854 -0.13039485 -0.4507365 0.22141528 -0.0046355887 0.5101246 0.45993054 0.35425383 0.35295162 0.037473228 0.46190643 0.1879588 0.44584876 -0.07653628 0.051750414 0.22333981 0.096433885
45 0.18356505 -0.8699956 0.7149582 0.44073758 -0.5860938 -0.046500687 0.21718507 0.29683802 -0.96340984 -0.06341719 0.5274026 -0.8927392 -1.0825311 0.11723858 -0.14790995 0.28568405 0.47079384 0.48800838 -0.27320287 -0.35858443 0.45604527 0.5159137 0.98030347 -0.4474891 0.1476982 -0.56444424 0.08477921 0.35890496 -0.108258516 0.19521673 -0.49841884 -0.01781169 -0.037166473 -0.5187649 -0.15218584 -0.693906 0.543391 -0.60515094 -0.30609795 -0.21019846 0.33821228 0.59705454 -0.559755 -0.71900135 0.38418564 -0.73480386 -0.2735196 0.2764788 0.68332916 0.35565296 -0.028486332 0.23155642 -0.23715611 1.0845784 0.043591205 -0.5581326 0.091037594 -0.54562646 -0.027368931 0.9024266 -0.17696652 0.6909074 0.8925448 0.40324146
82 0.093596384 -0.099770926 0.3335312 -0.021143535 -0.037047684 -0.282613 -0.09544392 -0.14468089 -0.6567488 0.19356872 -0.7708175 -0.4954196 -0.5925869 -0.17523597 0.36855108 0.5469503 0.4028366 0.303762 -0.040198646 0.4964656 0.21616355 -0.092002854 0.10349182 0.36039987 -0.2656167 0.14647986 0.029311385 -0.45297515 0.13489775 -0.44195774 0.032632705 -0.016126093 -0.10591327 -0.024516143 -0.20121305 -0.17510305 0.09499637 0.15266748 -0.43037 -0.1579834 0.56931275 -0.46608406 0.2805218 0.011900552 0.032106295 -0.4503388 -0.3495446 0.026182262 -0.17010352 -0.4828626 0.13137081 -0.038715202 0.69050354 0.50933135 0.5819658 0.2746461 -0.04933753 0.4852759 -0.008749855 0.4845021 0.012189107 0.08575535 0.24890958 0.06989965
64 0.032364044 -0.76779294 0.16350865 0.060807567 0.39615852 -0.25498286 -0.7567236 0.14924805 -0.37327394 -0.16066329 -0.035942048 -0.50550246 -0.38277572 -0.048481908 -0.26397017 -0.11025408 -0.41631162 0.37869468 -0.19678317 0.18246827 0.55341154 0.7589723 0.3855216 -0.2447451 -0.019221818 0.672558 0.0107967025 -0.38750967 0.03701756 -0.014652096 -0.17623587 0.0024941864 0.16379908 0.5111609 0.33635905 0.1174813 -0.046582967 -0.25921312 0.23298094 0.43027303 0.17657478 -0.007172607 -0.51303566 -0.611121 0.1660532 -0.315227 0.3824972 -0.05689152 0.27520725 -0.17940581 0.3713966 0.022918502 0.4638752 0.66332245 0.19768378 0.0846055 -0.03432507 -0.42675495 -0.15294664 0.5735584 0.35712105 0.27897248 0.51680696 0.05902015
76 0.17017967 -0.03164234 0.31172466 -0.06528314 -0.040921986 -0.51736164 0.016656665 0.006107106 -0.839686 0.39738113 -0.69991446 -0.5312078 -0.86454886 0.016490638 0.33304593 0.35551444 0.43219963 0.36199138 -0.16989188 0.49661195 0.18541718 0.112749204 0.17293963 0.48198527 -0.30077562 -0.012629875 0.17149307 -0.34095502 0.3013634 -0.47928104 0.22328833 -0.022517914 -0.05767795 -0.03517101 -0.059703596 -0.28901377 0.33003277 0.19967169 -0.37175542 0.027627384 0.4167915 -0.34589007 0.2110364 0.00018118732 -0.16086379 -0.49563494 -0.25485685 -0.030631777 -0.13969909 -0.3495353 0.23567837 0.04873744 0.5971817 0.44470307 0.56038415 0.5386805 -0.10348086 0.6896033 -0.23488486 0.45302832 0.04719667 -0.019785415 0.36677065 0.08674935
43 0.08157243 -0.091694914 0.4180543 0.012767371 -0.110065654 -0.31274992 -0.1350653 -0.038303748 -0.5980256 0.20966636 -0.7030974 -0.4748168 -0.70925 -0.19434226 0.39069942 0.4990073 0.44530907 0.24456537 -0.05723753 0.53314245 0.2294969 -0.013443035 0.22836372 0.3223212 -0.34149092 0.06855804 0.0055728112 -0.35205603 0.28390265 -0.5437107 0.044867806 -0.030212663 -0.2341178 -0.0038712074 -0.22565398 -0.30622196 0.34894317 0.11057142 -0.4778849 -0.05861971 0.5391938 -0.49886715 0.2942384 0.020623334 -0.023906803 -0.50192 -0.3216845 -0.025540903 -0.16426994 -0.55846435 0.102363326 0.10807678 0.60827416 0.5498281 0.58115214 0.41806456 -0.055917177 0.44456398 -0.07127962 0.6013991 0.058778398 -0.016865874 0.37571105 -0.04577579
63 0.22411142 -0.26795962 0.1558333 -0.1490302 0.055242922 -0.2558998 0.04910017 0.2333968 -0.5217857 -0.031923126 -0.43988395 -0.39992777 -0.4886276 0.15625696 0.3994208 0.7012133 0.21516332 0.46350777 -0.004268243 0.47519797 0.10401695 -0.35234237 -0.020435743 0.5973041 -0.18503393 0.0015049141 0.1279565 -0.5271199 0.14017418 -0.34913296 0.12604007 0.0969699 0.023373837 0.22487552 -0.19170472 0.08974717 0.17767148 0.2587911 -0.31479645 -0.17079797 0.8070995 -0.63287526 0.26822895 -0.086354665 0.18578579 -0.4358344 -0.01848469 0.031382944 -0.1771802 -0.36038134 0.11175694 -0.084958695 0.64517754 0.31937057 0.5449106 0.2916885 0.07065011 0.31256634 0.07173526 0.32560837 0.08728749 0.13879693 0.2230602 0.06817703
30 0.0857906 -0.71031934 -0.1354494 -0.09982903 0.23937352 -0.27452588 -0.608987 0.14161208 -0.57122874 -0.2383604 -0.09760403 -0.34255168 -0.3158576 -0.12716445 0.0057382025 -0.044002853 -0.38122785 0.23788042 -0.39693505 0.42175686 0.70914924 1.0004516 0.3475097 -0.30581197 0.044687126 0.4751154 0.025670812 -0.39907324 0.22870192 0.11372174 -0.18667252 -0.12684795 0.11104189 0.45863855 0.42755517 0.025645277 -0.08094949 -0.33774674 0.11761177 0.6070498 0.18283333 0.007968283 -0.56908727 -0.4974723 -0.046921708 -0.2898624 0.2949645 -0.12987466 0.31694058 -0.27834556 0.4713116 -0.029142624 0.40707806 0.4280398 0.03741088 0.1274744 0.038300797 -0.28579655 -0.3288527 0.75702506 0.11290599 0.33832023 0.60266274 -0.03665641
131 0.19144776 -0.10908342 0.1746758 0.08565408 0.068338096 -0.23439528 -0.007606093 0.06883972 -0.43321165 0.23962353 -0.46178627 -0.27161023 -0.61974585 0.1532087 0.49497563 0.69817764 0.38835976 0.3965881 0.043510757 0.6988573 0.13974163 -0.27891067 0.10503401 0.29472986 -0.3442527 0.2408219 0.17176528 -0.7700092 0.23833025 -0.4322795 0.08248666 0.09059869 -0.12880869 0.19470453 -0.28392926 -0.18252891 0.26002195 0.10936105 -0.19081874 -0.08659596 0.6707648 -0.5312991 0.26960996 -0.1308375 0.13896666 -0.55986583 -0.055674825 -0.16585146 -0.21846293 -0.4803984 0.16277009 -0.04240623 0.6301936 0.5880409 0.4773069 0.36822164 -0.07020254 0.39080134 0.28283933 0.42267397 0.11869058 0.120607816 0.16521727 0.027056012
158 0.0482806 -0.23667558 0.2296185 0.007426518 0.115644 -0.20830739 0.05924446 -0.014612879 -0.45118108 0.10774448 -0.40871137 -0.26701042 -0.5380997 0.09482516 0.5053676 0.7974615 0.3031996 0.33501193 0.040407527 0.624398 0.15894742 -0.42963964 0.06670583 0.2895871 -0.283452 0.112253025 0.10196212 -0.7010933 0.3308972 -0.4009045 0.033120226 0.1688048 -0.10620754 0.13836017 -0.20349726 -0.16333006 0.11192915 0.1160682 -0.23418823 -0.13731112 0.7678801 -0.5506609 0.17205499 -0.21455877 0.17446578 -0.57808656 -0.12851855 -0.10349624 -0.22129418 -0.5205687 0.16566515 -0.07007135 0.64077234 0.5072275 0.54807246 0.4417909 0.002527409 0.28569102 0.33470848 0.3950506 0.12520926 0.14223962 0.1573005 0.04709425
177 0.07385833 -0.52126926 0.31002972 0.13411999 -0.682071 0.14474048 -0.22718252 0.3371411 -0.40699488 -0.026284656 0.10578057 -0.38104773 -0.64168555 0.0027434016 0.12531082 0.31560427 -0.16413558 0.22859395 -0.15933199 0.19268408 0.45434985 0.39719802 0.56198645 -0.39644644 -0.15597183 0.06545546 0.19191335 -0.34283942 -0.21549903 -0.048095684 0.1767948 0.07451323 0.059191965 0.24349326 -0.16862921 0.1805072 0.4605464 -0.24851763 0.08980475 -0.32088062 0.17138673 0.2672213 -0.59352386 -0.327434 0.45585227 -0.37835366 0.06412504 0.08995034 0.51903963 -0.32306933 0.13466802 -0.06917851 -0.38362417 0.46263802 -0.62067056 0.025423411 -0.112046406 -0.32659677 -0.15811348 0.47573853 -0.24801677 0.35604304 0.74710745 0.29613155
160 0.11076637 -0.72380686 -0.37863013 0.046010017 0.35218218 0.16575144 -0.21082178 -0.2250673 -0.42438996 -0.09000183 -0.20023629 -0.39198625 -0.5490534 0.07319162 0.20464298 0.46737298 -0.5136062 0.5136187 0.39216208 -0.08259051 0.116950214 0.7827547 -0.18680699 -0.5296725 -0.13967703 -0.26529127 0.19307743 -0.29763284 -0.05088008 0.08380232 -0.662539 0.08803062 0.30539402 -0.10717283 0.115314394 -0.22114326 -0.3218784 0.15198563 -0.16944319 -0.103653185 0.123658985 -0.093247615 -0.3919606 -0.36585072 0.3926725 0.46234643 0.038912725 0.07719448 0.14404021 -0.20362404 0.07033601 -0.14057434 0.66122246 0.26892832 0.13276337 0.67387015 -0.31649277 0.1427701 -0.23833045 0.7342636 0.0830103 0.25608158 0.6974743 0.3887834
141 0.1863308 -0.24502231 -0.22048149 -0.06622152 -0.037062492 -0.1550148 0.0905196 0.42525053 -0.62377244 -0.02054132 -0.5718195 -0.26115254 -0.5770984 0.11159221 0.453945 0.5185148 0.31568292 0.3032498 0.12627673 0.2612806 -0.18335249 -0.20154357 -0.46548495 0.4707743 -0.074746326 -0.14198242 0.3560617 -0.41314185 0.2801541 -0.1259629 0.060153563 0.29269958 0.20617487 0.27306163 -0.2787884 0.08672951 0.011202866 0.200878 -0.076089494 0.08695464 0.4643138 -0.50439847 0.13089184 0.23000222 0.3623059 -0.063140385 -0.1645705 0.19616324 -0.21148255 -0.20449288 -0.0274102 0.008690713 0.7859068 0.30449343 0.42324966 0.2464338 0.14029285 0.5096758 0.09895859 0.33283553 0.05269181 0.24865156 0.24114425 0.31198376
139 0.031055087 -0.6380828 0.1458948 -0.10730233 -0.519023 -0.047062606 -0.42581242 0.5135526 -0.35130152 0.06563079 0.093227684 -0.4871409 -0.08865801 -0.14492035 0.34679562 0.08659775 0.07053487 0.29045472 -0.032853756 -0.108784154 0.58465666 0.2551012 0.42320454 -0.14608598 0.266156 0.09205283 0.26781583 -0.58948183 0.20048104 -0.20885833 0.11691051 0.1893663 -0.18342061 0.32966897 0.05239542 0.6236792 0.2176127 -0.24570163 0.1259565 0.11505407 -0.012047667 0.24059121 -0.5745401 -0.1459924 0.16732082 -0.41486487 -0.17229953 -0.13589066 0.6323298 0.25123608 0.22124378 0.102806665 0.23328727 0.5837383 -0.2760434 0.008603941 -0.11679811 -0.21975659 -0.17955641 0.519758 0.008573708 0.5576774 0.437758 -0.17033306
26 0.40715382 -1.157927 0.36276484 0.037171215 -0.40241483 -0.29280263 -0.3247032 0.49108505 -1.3823873 0.0833279 -0.6296125 -1.0858552 -1.311903 -0.02457188 0.76775646 1.0484911 0.19958684 0.863896 0.08375099 0.83075154 0.68896973 0.58742356 0.75280505 0.017062824 -0.09359484 0.04393185 0.4413163 -0.9822762 0.45209503 -0.5732291 0.00150687 0.29355153 0.10347562 0.2306228 -0.6607142 0.08240591 0.4886287 -0.012195526 -0.3390119 -0.23157589 0.8747544 -0.19031681 -0.46104673 -0.535503 0.68986404 -0.60252744 -0.22649631 0.18040846 0.26233456 -0.43953034 0.15443216 0.11413246 1.0242085 1.2172402 0.50370294 0.61103046 0.071755424 -0.17023125 -0.011682203 1.2034525 0.14086917 0.9411428 0.8692759 0.6980919
129 -0.047743205 -1.1281123 -0.12735057 0.07481979 -0.51405895 -0.14683817 -0.3458754 0.50601786 -0.40290475 0.03152678 0.18699189 -0.5308247 -0.22333221 -0.36592096 0.3945736 -0.049687322 -0.05683824 0.25554472 -0.026752844 0.31224194 0.21344319 0.3532563 0.34386626 0.095321625 0.16328585 0.17210883 0.15078962 -0.45670936 0.18426187 -0.33446488 -0.13577588 -0.08996166 0.22567077 0.30149937 -0.15247655 0.34980989 0.19051395 -0.54788715 0.407838 0.21791165 -0.2405018 0.18188524 -0.52065766 -0.14972842 0.10141358 -0.44307724 -0.08664738 0.12390471 0.36905316 0.16650198 -0.008269527 -0.27700102 0.3656919 0.34751758 -0.10825959 -0.03926714 -0.11265104 -0.52957547 0.068270974 0.51555353 0.041728638 0.40261263 0.251601 0.11568638
1 -0.031474657 -0.6086622 0.20396797 0.06206755 -0.67320585 0.1971598 -0.33110738 0.2847119 -0.35325348 -0.06569781 0.022820355 -0.46863917 -0.627584 -0.16361736 0.11869936 0.0810602 -0.19620277 0.15180999 -0.19308704 0.16813928 0.53271174 0.39110982 0.6264113 -0.24609534 0.041638784 0.08581307 0.2541802 -0.2571071 -0.22294404 0.034065105 0.32429284 0.1713914 0.06088563 0.08692867 -0.16907382 0.30296102 0.4819511 -0.21856853 0.16967958 -0.34368417 0.14741673 0.337215 -0.47855654 -0.23697075 0.27760482 -0.36205626 0.025378106 0.05836774 0.39476126 -0.40229887 0.13609298 0.0343308 -0.1244052 0.48269418 -0.45056552 0.06566524 -0.18325856 -0.43586335 -0.12528431 0.5073909 -0.18860312 0.5017733 0.5794164 0.22592308
72 0.046755362 -0.27768457 -0.20060112 -0.0576668 0.014785559 -0.12398881 0.18264651 0.37067747 -0.5356389 0.03682223 -0.37870142 -0.25361857 -0.45197135 0.13449904 0.5918047 0.4856097 0.22647126 0.31892654 0.2867646 0.019452468 -0.22573406 -0.25640538 -0.44385254 0.3247912 0.0574923 -0.21710955 0.22030506 -0.44054565 0.12914425 -0.19922975 -0.22343653 0.36679065 0.029986797 0.5064878 -0.28409383 0.23313512 0.07233892 0.26374847 -0.038387462 -0.010773287 0.56932193 -0.49533626 0.31828073 0.3219991 0.44992355 -0.057826534 -0.2120311 0.27111298 -0.06113676 -0.17146516 -0.07383046 0.023186108 0.8287322 0.19633612 0.18856105 0.3117031 0.0790314 0.35995662 0.08793633 0.3383373 0.15846835 0.34229589 0.24726136 0.33387035
109 -0.18089843 -1.2445743 -0.30371913 -0.05752948 -0.7731378 -0.27060935 -0.29147232 0.61155987 -0.6496854 -0.015978565 0.21621287 -0.571538 -0.22371696 -0.38096341 0.4711003 0.078824274 -0.11652909 0.11020089 0.07372252 0.36980575 0.026450044 0.28450885 0.1775209 0.06762644 0.28500777 -0.14112379 0.20532627 -0.3812449 0.17156427 -0.28397605 -0.078051195 -0.14160998 0.22843799 0.38128772 -0.52130014 0.16067219 0.356214 -0.54975027 0.1544496 0.3350263 0.006163472 0.2679154 -0.5598841 -0.49804178 0.40263456 -0.38952085 0.03838337 0.022637304 0.32890636 0.19948924 0.30782875 -0.43780762 0.39619595 0.16777073 0.009815696 -0.37257865 0.015243831 -0.31222728 0.0031365599 0.2237222 0.40301013 0.17298944 -0.1231225 0.2816261
180 0.28988206 -0.11800175 0.38689965 0.06462804 0.10433427 -0.17893788 0.1323966 -0.04330191 -0.38106638 -0.20445603 -0.3954148 -0.45420703 -0.61470807 -0.13199642 0.346266 0.9452879 0.17876516 0.37211925 0.26609874 0.8834841 0.056160267 -0.074338496 0.5696831 0.14584464 -0.70487255 0.19619113 0.25606418 -0.7086609 0.4173903 -0.49681586 0.116682604 0.26341635 -0.15094568 -0.10484389 -0.43003103 0.033777654 0.25217238 0.1207675 -0.20050026 0.062075995 0.8002225 -0.6224974 0.46967894 -0.31615952 0.36742008 -0.30009833 -0.22640063 -0.29208967 -0.3914004 -0.544728 0.1942724 0.3307863 0.44084507 0.86531556 0.3762962 0.6305019 0.532186 0.30925912 0.7104494 0.025548108 0.11092299 0.5279084 0.19941491 0.6965865
22 0.022234019 -0.40878728 -0.11055483 0.10952207 0.092039116 0.3137067 -0.20072743 0.064131096 -0.7301158 0.054457795 -0.16593945 -0.04548111 -0.6533724 0.113238044 0.2849028 0.5726884 -0.35665056 0.4890336 0.21992391 -0.19406617 -0.024391731 0.14954546 -0.58333963 -0.01789339 -0.16670428 -0.51088893 0.48527455 -0.37378433 0.6112573 -0.38050696 -0.119339444 0.3870187 0.39916337 -0.019783026 0.113825046 -0.2960331 -0.36988184 0.43462342 -0.13330299 -0.030119602 0.48611268 -0.22206192 -0.38865945 -0.24815382 0.4052852 0.36645028 -0.26873237 0.3375939 -0.058563463 0.109478965 -0.007809397 -0.16757648 0.6104517 -0.090277985 0.44279888 0.62924105 -0.023898993 0.21544091 -0.55610615 0.8470194 0.15231122 0.41063386 0.5409621 0.41545385
86 0.16935693 -0.18944766 0.17828134 -0.023989411 0.050272826 -0.17824338 -0.11486046 -0.0791703 -0.4521202 0.01865881 -0.2907329 -0.5239483 -0.5117835 -0.19117783 0.41424826 0.72164756 0.37111005 0.29833287 0.2872895 0.8551299 0.13352469 -0.35440648 0.297612 0.12270721 -0.59090066 0.21315865 -0.03295159 -0.7540281 0.2870146 -0.34267545 -0.15784937 0.2876795 -0.209167 0.10274989 -0.16936937 -0.21927568 0.16714264 0.05980314 -0.24413966 0.029759308 0.7528699 -0.5510519 0.22234665 -0.36924812 0.4278759 -0.40984067 -0.27138433 -0.17518802 -0.39241046 -0.5966136 0.19512472 0.24702856 0.620883 0.58119047 0.30771306 0.47417974 0.26135388 0.31029162 0.58538 0.054550402 0.11034421 0.28058764 0.1701916 0.31448182
137 0.32280076 -0.19518624 0.1849492 -0.0015523431 -0.12360782 -0.38576877 0.060013097 0.17375131 -0.7538842 0.2615922 -0.5115529 -0.37302354 -0.72849864 0.07538815 0.3797302 0.2387315 0.2480337 0.2832665 0.023176251 0.55369574 0.07584559 0.08402274 -0.21388403 0.65785223 -0.19056161 -0.22970335 0.25247872 -0.38773018 0.38667876 -0.3131814 0.15890735 0.12093607 0.14957571 0.08350386 -0.10135026 -0.05683306 0.16461813 0.2333149 -0.14792344 0.07516738 0.5009803 -0.44096765 0.3908766 0.11521695 0.0630174 -0.28634447 -0.21573982 0.16794106 -0.085669935 -0.10852821 -0.08491445 0.02320733 0.64201313 0.3379248 0.5728197 0.5503654 0.07753393 0.4798161 -0.2192274 0.2894633 -0.097915895 0.1635614 0.25869393 0.11444098
159 0.09206853 -0.6791527 -0.3749877 -0.11700927 0.25182155 0.15043041 -0.20124207 -0.26846778 -0.40728718 -0.1524008 -0.4031066 -0.4105641 -0.6168048 0.11831248 0.30208468 0.4726029 -0.46403804 0.42645252 0.27163476 -0.074603125 0.100654274 0.618222 -0.13292298 -0.38498622 -0.030298287 -0.24414587 0.1914914 -0.19169214 -0.08785266 0.035115816 -0.5714318 0.1020201 0.43568945 -0.032467496 -0.018459719 -0.31701362 -0.5241953 0.25284907 -0.14380293 -0.14820445 0.26469776 -0.09152935 -0.47224784 -0.32983643 0.4142508 0.54198563 -0.009632148 0.09637906 0.15756519 -0.18398465 -0.072737545 -0.15192047 0.7488188 0.2291258 0.21351866 0.7565777 -0.29296163 0.2619834 -0.48183432 0.6767308 -0.0006706073 0.21197146 0.6723751 0.490653
128 0.27215108 -0.59504056 -0.33694425 -0.16883017 0.3366044 -0.17178217 -0.080359995 0.052898567 -0.5588728 -0.13675597 -0.4121525 -0.09138659 -0.53532773 -0.17103386 0.42442182 0.5980725 -0.26015845 0.32218707 0.53981006 -0.2240776 0.017220953 0.5907674 -0.1911301 -0.43388763 -0.11795094 -0.20448928 0.2755459 -0.3286449 0.20944859 0.052809052 -0.4013265 0.16802329 0.39250934 -0.16699934 -0.028926391 -0.26881874 -0.3848731 0.3670864 0.047196556 -0.28248087 0.34506452 -0.32539788 -0.44228485 -0.40548632 0.5222906 0.5820851 -0.09606607 -0.16713606 0.112875514 -0.24063887 -0.42587927 0.11712468 0.78366345 0.21753463 0.18460146 0.5754875 -0.53575504 -0.046130665 -0.2225873 0.7655291 0.40658087 0.27071446 0.43434212 0.16477643
73 0.1762715 -0.085350625 -0.0658076 -0.06296093 -0.2533708 -0.31090996 0.15509795 0.27569368 -0.94386077 -0.12248411 -0.567455 -0.36679554 -0.87976235 -0.16678482 0.6681215 0.16243157 0.4047849 0.103969544 0.11845412 0.4343757 -0.36188 0.03288137 -0.4337124 0.5125176 -0.058292255 -0.3408361 0.3985164 -0.2752719 0.5700753 -0.31230655 0.038783144 0.0605351 0.08576764 -0.0806412 -0.12508312 -0.06698873 0.19671397 0.15839496 -0.31711176 0.27113602 0.29361078 -0.36653224 -0.008966244 0.14189722 0.26336363 0.0830934 -0.5156721 0.14380634 0.23913707 -0.061924588 0.08316222 -0.011849719 0.577133 -0.030032018 0.29672122 0.5833873 -0.24362907 0.31333932 -0.39467704 0.55716544 0.014815974 0.13077343 0.16664578 -0.05427837
107 0.017863091 -0.74438584 0.09950263 0.106324986 -0.49668506 0.10525199 -0.4668309 0.3789401 -0.12591618 -0.12333475 -0.072627984 -0.20465262 -0.6218298 0.07160317 0.23489104 0.5745857 -0.15165906 0.20287935 -0.40421668 0.13261577 0.43183178 -0.010011469 0.60832846 0.13692084 -0.08208716 -0.10442282 0.5291087 -0.6068542 -0.124500655 0.1585762 0.19472907 0.32198936 0.16268235 0.45344022 -0.33926466 0.022750465 0.42358083 -0.33513406 -0.041874953 -0.27755097 0.36855605 0.5439671 -0.25712302 -0.4609964 0.4684254 -0.30809498 0.22673503 0.07728095 0.6374197 -0.3348749 -0.12082126 -0.15139727 -0.27886432 0.28352422 -0.6604392 -0.20651035 0.064332604 -0.548777 -0.10426355 0.5847211 -0.29158455 0.2781796 0.66754276 0.3230123
155 0.094946995 -0.5991368 -0.4114083 -0.12003256 0.29236624 0.061970923 -0.10714685 -0.25048065 -0.4453942 -0.1963688 -0.36419898 -0.34328267 -0.43518895 -0.10782467 0.42027047 0.54866683 -0.5569133 0.40220216 0.31760922 -0.14000024 0.08279237 0.64200926 -0.095028386 -0.24886695 -0.027059292 -0.2866006 0.26128888 -0.25856873 0.12129207 -0.13450028 -0.39168772 0.14118367 0.5632548 -0.13047141 -0.07874205 -0.29373682 -0.51561093 0.3473624 -0.06586464 -0.21511474 0.32935387 -0.2430672 -0.5034864 -0.38161746 0.35417065 0.54514134 0.008167721 0.089004375 0.18820019 -0.14971426 -0.118305475 0.04984829 0.70271224 0.18112634 0.18012238 0.65699255 -0.25182992 0.12059825 -0.43094137 0.72547066 0.2277613 0.28230044 0.6724724 0.29957953
7 0.19164751 -0.5416201 0.3225472 0.10138646 -0.7346364 0.16822214 -0.28589594 0.32725304 -0.4374507 0.032114502 -0.032493576 -0.40683973 -0.60215014 0.039683238 0.13782215 0.59828544 -0.003322517 0.2335631 -0.058779564 0.19081323 0.41514263 0.43306163 0.42090988 -0.41980723 0.012276881 0.13061935 0.1524479 -0.22320355 -0.22025552 -0.067211166 0.25661182 0.15326305 0.17364118 0.30794546 -0.035701808 0.010227474 0.43620533 -0.075323194 -0.060758755 -0.23282255 -0.005743469 0.350104 -0.6192507 -0.2813514 0.3835774 -0.46401012 0.19425479 0.25063825 0.4709848 -0.09307395 0.080627605 -0.20452708 -0.3908471 0.40062702 -0.4567493 -0.16294089 0.0019703757 -0.5356464 -0.0030570326 0.41460422 -0.22440802 0.38484767 0.7353149 0.32964683
120 0.16621485 -0.5312823 0.0048688753 -0.27374202 -0.52896327 -0.27161846 -0.37866393 0.80929905 -0.41794455 -0.019948766 0.032787364 -0.43617013 0.0003493509 -0.14439346 0.63720477 0.00021115835 0.31514832 0.32824486 -0.08096427 -0.19821584 0.5377828 0.18859792 0.5762378 0.07052156 0.41997448 0.34249863 0.21766143 -0.67853034 0.32257828 -0.41517943 -0.28830308 0.36833277 -0.31284964 0.25401086 0.031647515 0.5456837 0.3014928 -0.34323323 0.17555682 0.13356982 0.085125625 0.23633476 -0.64909244 -0.09392179 0.21794635 -0.36102784 -0.3045703 -0.04150763 0.52312696 0.24265793 0.16961096 0.15275332 0.18855375 0.7331526 -0.15428966 -0.03607026 0.18864398 -0.21040754 -0.3104079 0.72229713 0.011207872 0.51866037 0.4705954 -0.13543032
187 0.111183144 -0.75084007 -0.3378857 -0.01883739 0.3225782 0.21809676 -0.3120361 -0.3195074 -0.3974803 0.008249325 -0.30086258 -0.38877317 -0.51831806 0.037782155 0.18445437 0.5070081 -0.49514753 0.44904637 0.40674844 -0.09380051 0.13997817 0.7552386 -0.19112904 -0.46263957 -0.15265243 -0.19431338 0.14556383 -0.2995591 -0.098729625 -0.0382892 -0.63167745 0.015902668 0.35445592 -0.04805608 0.08731056 -0.20830062 -0.45556334 0.216871 -0.18857083 -0.119495 0.15614194 -0.13339595 -0.48352045 -0.3707974 0.30721143 0.4543415 -0.041985355 0.05846875 0.02108689 -0.13479581 0.028185338 -0.046911534 0.67638344 0.26843244 0.1638451 0.65124255 -0.28083953 0.05453952 -0.31369373 0.73570055 0.084914744 0.30823153 0.62720084 0.3913079
163 0.11463936 -0.63469446 -0.3860751 -0.036736283 0.24986815 0.1441388 -0.19232064 -0.16509081 -0.49624082 -0.1632942 -0.37275243 -0.39005658 -0.5452492 0.031055624 0.30262956 0.48651662 -0.41349334 0.4128288 0.40641993 -0.05917155 0.09252587 0.70115376 -0.12540844 -0.41283396 -0.09431835 -0.36155346 0.2144699 -0.25402784 -0.1166749 0.041933462 -0.66007036 0.092028365 0.3801664 -0.14805113 -0.019784348 -0.29850715 -0.38460487 0.24140258 -0.09213804 -0.18568215 0.2380235 -0.15083893 -0.494615 -0.34469295 0.36764812 0.4852673 0.007281443 0.08477621 0.091826126 -0.24730231 -0.07522414 -0.0141851455 0.68223363 0.17803691 0.15972592 0.6882362 -0.35674652 0.23556197 -0.40633342 0.720688 0.13713996 0.23329073 0.6682767 0.3415725
154 0.1832516 -0.60705096 -0.30068567 -0.13152796 0.38488328 -0.10095525 -0.26068643 -0.10294541 -0.5776361 -0.11571639 -0.38852632 -0.15304907 -0.5662412 0.0010783669 0.3781925 0.48468396 -0.4259717 0.3344363 0.5622646 -0.09592088 0.015360964 0.53669155 -0.11182253 -0.31339508 -0.13823995 -0.20185758 0.19834664 -0.3825621 0.13388483 0.00912528 -0.48982617 0.21597391 0.45272818 -0.12253247 0.056210514 -0.22417274 -0.3902206 0.48491824 0.054042872 -0.28489348 0.24865974 -0.15760654 -0.4219734 -0.34665468 0.35574245 0.46798506 0.06790649 -0.12563096 0.08267091 -0.15762128 -0.20568548 0.051788595 0.5871731 0.28386322 0.20760494 0.59189814 -0.3977345 0.06437826 -0.45229945 0.8215622 0.23797336 0.35301584 0.45027626 0.17733246
95 0.013829473 -0.5487755 -0.062137373 -0.17808397 -0.51336986 -0.16181596 -0.29084232 0.8109623 -0.40918517 -0.019556263 0.039087195 -0.4514808 -0.12300763 -0.24246335 0.5162763 -0.08843723 0.28626955 0.18821321 -0.17639288 -0.00233779 0.52397305 0.29582682 0.23409908 0.07878971 0.58381486 0.32456523 0.20441893 -0.7058099 0.32664767 -0.3139261 -0.024386616 0.16476099 -0.12335295 0.32277444 0.024926601 0.5495035 0.42202008 -0.26358548 0.1918118 0.034866735 -0.13781938 0.27860197 -0.50184464 -0.023703171 0.24870743 -0.22193736 -0.17737162 0.029762542 0.6288747 0.26844463 0.25497037 0.2149611 0.40786725 0.7491697 -0.106675886 0.10787266 0.05913528 -0.22115654 -0.41726348 0.67470163 -0.08017901 0.49396744 0.34020445 -0.073018424
172 0.1331016 -0.1964159 0.19761519 -0.04910764 0.07988109 -0.26232114 -0.04992166 -0.105241485 -0.5473748 0.06963075 -0.28712466 -0.5285195 -0.5793527 -0.1864309 0.4758896 0.7784623 0.42760628 0.15844499 0.31262282 0.8604762 0.037275005 -0.2898659 0.32196054 0.19248067 -0.6810595 0.14733179 -0.017555794 -0.6374551 0.3456868 -0.34273127 -0.044762548 0.23198944 -0.08867223 0.20387535 -0.22591525 -0.21805036 0.19807231 -0.016965734 -0.2440851 0.042708233 0.67400503 -0.58834255 0.37030566 -0.2728421 0.38205662 -0.37570885 -0.33685565 -0.051596623 -0.39458323 -0.56161624 0.18697123 0.21372424 0.5946682 0.5953565 0.4129638 0.46581787 0.21239665 0.2345905 0.629803 0.12251054 0.28386253 0.3087496 0.24349195 0.32208487
113 0.18562846 -0.21285579 -0.28492868 -0.002810365 0.06096146 -0.11799483 0.18231802 0.41389513 -0.5988073 0.015899468 -0.5723087 -0.16728123 -0.5001812 0.19208013 0.4704203 0.4650006 0.2693846 0.22454216 0.15967122 0.23627304 0.030220667 -0.24529953 -0.55132616 0.34051713 -0.0017053755 -0.12566243 0.25978717 -0.45034447 0.25080156 -0.09709297 -0.09085918 0.2871523 0.064724475 0.25379986 -0.3188747 0.20926711 -0.07852006 0.14816688 0.06339041 0.066228524 0.31770378 -0.45689878 0.15375163 0.36960718 0.3593716 -0.107612155 -0.37415138 0.26845908 -0.18899938 -0.1409822 -0.054406032 0.13702236 0.9292987 0.3384423 0.30398658 0.25631616 0.074925594 0.37339225 0.1948086 0.32915616 0.104396015 0.42104355 0.21327241 0.47477812
162 0.23056653 -0.6750039 -0.36810333 -0.14906068 0.4415084 -0.044867437 -0.16148533 -0.117129646 -0.6348681 -0.15466754 -0.38263968 -0.14864883 -0.531159 -0.15652858 0.34324744 0.6274089 -0.5115228 0.30654326 0.51633847 -0.07814904 -0.02487743 0.6210716 -0.057361268 -0.35244673 -0.08334583 -0.08361416 0.04874286 -0.31286645 0.006315651 0.062984824 -0.60744935 0.1460846 0.36272803 -0.19214167 0.07407999 -0.24591093 -0.33182082 0.33762297 0.032106645 -0.28758767 0.3456034 -0.23856075 -0.46332857 -0.39381438 0.3276426 0.49778497 0.05403896 -0.10025769 0.1609858 -0.17808156 -0.14662008 0.05300787 0.5971944 0.2501279 0.28050783 0.61401904 -0.39114583 -0.058519486 -0.42662904 0.8459668 0.23343223 0.37225774 0.44429088 0.19056875
28 0.115371704 -0.44470257 0.35859594 0.06268974 -0.74620116 0.12902638 -0.2879622 0.3290531 -0.4071838 0.031692974 0.009380406 -0.51089704 -0.5757928 -0.035858933 0.14821298 0.46946985 -0.1398058 0.3366273 -0.027797822 0.12734964 0.4506555 0.39757088 0.5322938 -0.48929343 0.007673261 0.1765866 0.1640685 -0.28351802 -0.3170797 -0.030791735 0.21998926 0.18943472 -0.027667416 0.24425209 -0.1627203 0.09957107 0.3069149 -0.21618657 0.04858617 -0.2119085 -0.0057536582 0.3246514 -0.5601927 -0.2781907 0.3926955 -0.40508816 0.071733914 0.13274129 0.4493693 -0.32109803 0.12434904 -0.0908127 -0.31440598 0.46472967 -0.5975634 -0.06070212 -0.13597646 -0.37769437 -0.05178605 0.42920607 -0.285156 0.47269154 0.74440575 0.26272365
198 0.23586294 -0.59410566 -0.24233943 -0.09049783 0.34192747 -0.16618754 -0.13430104 -0.033087984 -0.46925485 -0.189641 -0.38154534 -0.064691685 -0.53172857 -0.07686093 0.42103812 0.4525726 -0.41609406 0.38869983 0.5429143 -0.18305455 0.07234615 0.56272995 -0.14322904 -0.3638077 -0.01076126 -0.26394126 0.26684818 -0.3910576 0.1352801 0.076708004 -0.45963353 0.19752574 0.42427477 -0.13541305 -0.034917764 -0.22455072 -0.33133182 0.42643255 0.0115493545 -0.27821165 0.35511437 -0.29539147 -0.42198455 -0.32805416 0.5565065 0.5404067 -0.037948795 -0.08731784 0.04521193 -0.1786352 -0.44930425 0.17950554 0.75129306 0.20699152 0.27363113 0.70062584 -0.40127116 0.07255812 -0.26955977 0.7356251 0.26116806 0.35874036 0.3573059 0.26565444
188 0.1896293 -0.65340155 -0.42413366 -0.23283039 0.4781831 0.10125112 -0.33352298 -0.12937625 -0.62143576 -0.1903376 -0.33625972 -0.35135156 -0.41260925 -0.050274603 0.3788496 0.56652546 -0.40278015 0.3447618 0.57962644 -0.14152838 -0.020017073 0.6954326 0.05468051 -0.4805956 -0.12666234 -0.016322209 0.052178863 -0.2803911 0.15972786 -0.05486842 -0.5703891 0.19757003 0.3732244 -0.17737786 0.033534598 -0.26440746 -0.35093462 0.37716123 -0.069739446 -0.25457248 0.38980144 -0.11367111 -0.51543695 -0.2867558 0.39016142 0.5471698 0.013066978 -0.14870788 0.22348315 -0.17892446 0.006280683 0.13298887 0.6788615 0.20009398 0.12831782 0.57290953 -0.35933506 0.05625411 -0.20111275 0.72550213 0.14975975 0.3669732 0.47925252 0.14387651
49 0.0062143933 -1.2095294 -0.17203386 0.19770388 -0.48325965 -0.008059185 -0.34452593 0.19389987 -0.39332387 0.1853334 0.38866773 -0.27349547 -0.24302796 -0.42791626 0.3840563 -0.1220525 -0.21073043 0.19048814 -0.022361776 0.30650952 0.3221541 0.5403294 0.38059694 0.20340182 0.2885789 0.2313403 0.025125392 -0.26093623 0.10349109 -0.22465712 -0.0597113 -0.0115095945 0.4956992 0.3014402 -0.09214926 0.34805253 0.20760839 -0.34184012 0.30271927 0.22288708 0.010220259 -0.0394483 -0.5773741 -0.17893277 0.19090277 -0.42259887 -0.071424134 0.23203498 0.19385588 -0.0489956 0.14815621 -0.49855578 0.48452738 0.11183072 0.067796126 -0.13341616 -0.28050995 -0.7102399 0.30848962 0.41113773 0.12511598 0.44963858 0.28784946 0.15500098
97 0.19558528 -0.5834456 -0.26787713 0.007447929 0.3933125 -0.14552191 -0.16039133 -0.04541652 -0.6149605 -0.15504146 -0.34913814 -0.074823886 -0.6413964 0.045707155 0.4276772 0.49611592 -0.37223217 0.27657303 0.48732728 -0.16412339 0.16229737 0.41663003 -0.32742053 -0.20170835 -0.07878262 -0.33874163 0.35630354 -0.3785935 0.33099353 0.11376311 -0.3440495 0.33089787 0.43321413 -0.13630186 -0.0076568844 -0.17904434 -0.32747275 0.5513348 0.0021002812 -0.29623005 0.32028326 -0.31930187 -0.41254765 -0.39477512 0.49000928 0.4582602 0.027527 -0.107510485 -0.011481548 -0.19219515 -0.4315139 0.084644794 0.5809105 0.1881228 0.23855639 0.6972851 -0.39211035 -0.018602746 -0.2745564 0.7433037 0.34200296 0.29391107 0.27044263 0.2296608
69 0.16637145 -0.28880167 -0.08359376 -0.11788523 0.07100577 -0.2923359 0.108228005 0.35796937 -0.587046 -0.015073762 -0.4576209 -0.30272898 -0.41728827 0.07836764 0.3806321 0.5691125 0.33206233 0.3669022 0.14425065 0.39850613 -0.11325548 -0.15833206 -0.31894025 0.47089836 -0.04577075 -0.12611197 0.41724396 -0.4252782 0.14630201 -0.27753928 0.081906274 0.45506418 0.23157682 0.29027167 -0.25296584 0.03557475 0.0002518598 0.1504741 0.049028486 -0.094091356 0.58510166 -0.68171173 0.120829955 0.16139601 0.5555846 -0.31886402 -0.0303724 0.081368364 -0.29523736 -0.1955866 0.040184487 0.0031581325 0.66717494 0.41023985 0.4902694 0.33451575 0.005728137 0.5003377 0.101356894 0.18926305 0.13123351 0.1231809 0.103215046 0.46449628
47 0.08141514 -0.25749555 -0.06975304 -0.08219662 -0.038782917 -0.24279557 0.13442539 0.38746578 -0.68556297 -0.09057154 -0.5203953 -0.41532046 -0.5644336 0.15080942 0.41266668 0.67156327 0.37482503 0.4013722 0.083303936 0.5145221 -0.056546822 -0.16666085 -0.2804241 0.5862198 -0.14298423 -0.11186741 0.29380748 -0.37491772 0.2373062 -0.36726257 0.10053117 0.36746657 0.24691632 0.2708883 -0.26185727 0.04420382 0.13801792 0.2983801 -0.14106642 -0.059365306 0.5483061 -0.62237614 0.2850455 0.24819435 0.4350835 -0.17411335 -0.05650475 0.2852211 -0.16178809 -0.37334013 0.11321575 -0.052682772 0.5894797 0.2960853 0.45840964 0.2547137 0.019333048 0.43067047 -0.041688483 0.24392995 0.07219036 0.12295191 0.22266069 0.36722922
130 0.14206107 -0.038480725 0.29394925 -0.10894476 -0.063897304 -0.4371325 -0.019967463 -0.07527159 -0.7338672 0.33267647 -0.5814368 -0.5658001 -0.906794 -0.039487205 0.22328001 0.47586542 0.42944244 0.20450811 -0.23172279 0.53115666 0.12383364 -0.08731746 0.25076237 0.18102726 -0.3590141 0.0983802 0.1256568 -0.49380553 0.255649 -0.41967833 0.22282368 -0.027324969 -0.20412505 -0.027504882 -0.1299141 -0.42658693 0.18166551 -0.054255538 -0.49148953 -0.08856422 0.46073386 -0.34069967 0.15619457 0.015532973 0.08986939 -0.36010435 -0.35562137 0.03297842 -0.10623461 -0.62726724 0.29699314 0.060268715 0.52590066 0.6002172 0.55347204 0.543472 0.03328124 0.48945794 0.072355606 0.57236886 -0.06595541 -0.053588104 0.30785552 -0.080293216
164 0.16705415 -0.11096172 0.014358874 -0.13454434 -0.17256911 -0.26737732 0.23712485 0.23378669 -0.91353714 0.11941602 -0.55953586 -0.33394775 -0.8114513 -0.04328466 0.45157114 0.21888451 0.17576893 0.24112178 0.20550512 0.5585619 -0.20901084 0.07727299 -0.28111592 0.53540707 -0.2861098 -0.3360597 0.2917888 -0.3754974 0.3648418 -0.28448743 0.10680705 0.19767609 0.14326918 0.019231062 -0.21202037 -0.06426194 0.09857542 0.23781277 -0.119551495 0.21418256 0.39904416 -0.4311805 0.20336993 0.28895858 0.36624324 0.08652077 -0.30556116 0.32547235 0.002781753 -0.11770773 -0.070580885 -0.043642625 0.64430565 0.018896814 0.39020273 0.46268076 0.0015199537 0.35844955 -0.25458172 0.46778518 -0.0584807 0.22932743 0.25156075 0.10594658
25 -0.011154344 -0.6178894 -0.14402421 -0.27507553 -0.44429693 -0.0991327 -0.3133826 0.7987107 -0.5403213 -0.07885366 0.085707076 -0.37405455 -0.024657272 -0.1900832 0.4632848 0.048042465 0.32315537 0.30776733 -0.14206767 -0.09588698 0.52038246 0.23336016 0.54444855 -0.027726574 0.54663783 0.2574198 0.06014427 -0.6618634 0.34890375 -0.37548503 -0.20198086 0.22442435 -0.32345358 0.3550334 0.14521979 0.6165095 0.30091485 -0.2233877 0.064221755 -0.010482356 0.1191823 0.22233167 -0.56031466 -0.021454576 0.30005038 -0.38419986 -0.09522795 0.033459097 0.6111747 0.3512027 0.14918163 0.09945629 0.21148257 0.8073127 -0.16683795 -0.05562409 0.21148181 -0.21774754 -0.26211953 0.7319088 -0.037205126 0.2678591 0.44927976 -0.060505144
174 -0.13071422 -0.59743035 -0.35358122 0.009326579 0.14188376 0.14091013 -0.40291703 -0.20537981 -0.20235275 -0.14481929 -0.40227962 -0.6366854 -0.37832752 0.07580528 -0.31178933 -0.1968158 -0.12091078 0.42675632 -0.15573312 0.3101975 0.4481628 1.0162266 0.42035827 -0.7510101 0.31808278 0.5774142 0.3026812 -0.5752236 0.3157121 0.04578045 -0.13373123 0.020307593 0.1947249 0.37300962 0.16293193 -0.31907135 0.19640893 -0.21950902 -0.35454032 0.30012655 0.13942276 -0.15126762 -0.39083436 -0.2932654 0.06988488 -0.3044858 0.10582628 -0.57658976 0.5471479 -0.40167463 0.04549245 -0.016431574 0.91067594 0.34257385 -0.35686573 0.5118097 -0.5033027 -0.41659632 0.27601027 0.6992732 0.0355876 0.28058332 0.4092023 0.31093165
6 -0.15367131 -0.7010017 -0.39123636 -0.050290387 0.22846805 0.1844914 -0.29981732 -0.2214225 -0.42501646 -0.3635535 -0.12223351 -0.6164954 -0.37752202 -0.10196829 -0.039792545 -0.19031362 -0.49137118 0.12496905 -0.086981386 0.29630092 0.5565102 0.9457919 0.3639369 -0.69054747 0.09099219 0.59111077 0.33943057 -0.24937415 0.41523 0.030316096 -0.22063507 -0.1018121 0.40077254 0.20730986 0.11426633 -0.2580454 -0.10757942 -0.14368543 -0.04849632 0.13408 0.24602737 -0.09509674 -0.34529558 -0.23668474 0.15173268 -0.15298522 0.06868766 -0.4946149 0.5156148 -0.20464209 0.020886663 -0.10088102 0.84743035 0.23877464 0.11588841 0.5852177 -0.44234353 -0.38910326 0.1960392 0.73590267 0.33651817 0.4313694 0.44365326 0.35432857
20 -0.029865561 -0.35681885 -0.23832013 0.07408828 0.16718924 0.26471743 -0.16058218 -0.049809292 -0.71634877 0.14719287 -0.16282022 0.07969647 -0.5603347 0.24338302 0.21514323 0.5669051 -0.27864078 0.40810654 0.2446595 -0.06326895 -0.038952548 0.17752382 -0.57118684 -0.023851553 -0.23787135 -0.48443383 0.48214257 -0.25621286 0.71678203 -0.41638234 -0.19262457 0.29720286 0.3296681 -0.099956594 0.09665111 -0.21435909 -0.26997852 0.39950413 -0.20639028 -0.09553151 0.47527727 -0.2458399 -0.39349818 -0.23391269 0.39151776 0.27077642 -0.40114424 0.2557116 0.047456946 -0.05108978 0.07851058 -0.10737376 0.51660717 0.0410204 0.3463842 0.777582 -0.17878771 0.09421992 -0.53235644 0.93325156 0.15720977 0.45465773 0.41818032 0.4217561
12 -0.005442316 -0.8179846 -0.3642931 0.019467562 0.34314 0.25393808 -0.34373283 -0.21265182 -0.3723986 -0.081308454 -0.19556488 -0.43338063 -0.45110244 -0.012644365 0.13165958 0.38011917 -0.3963562 0.45317262 0.45485502 -0.01641888 0.14394848 0.8853687 -0.3062672 -0.5215797 -0.12496642 -0.14413607 0.11363421 -0.26857334 -0.04773595 -0.06177445 -0.6343554 -0.034799103 0.33260426 0.024448317 0.20814124 -0.21587569 -0.3076879 0.17333658 -0.17957231 -0.06407129 -0.015075176 -0.055135995 -0.2646249 -0.30505237 0.20501283 0.2513058 0.02328929 0.052340865 0.15620118 -0.14392908 0.17777671 -0.03920502 0.7523366 0.28793848 0.13629957 0.66709036 -0.26585212 0.023108734 -0.2012054 0.734805 0.22133307 0.4638464 0.71994543 0.34040663
123 -0.034486197 -0.7144098 0.30520666 -0.01004067 -0.83581924 0.17877218 -0.30008444 0.33116513 -0.24521446 -0.016981598 -0.016337102 -0.40982822 -0.5401003 -0.057472795 0.15719764 -0.012240902 -0.09198103 0.17533645 -0.110643424 0.20593548 0.6072388 0.46424654 0.51748955 -0.38044655 0.0097203925 0.06650102 0.32909846 -0.37763345 -0.08125917 0.064696796 0.09106052 0.15626016 -0.0065786554 0.16002458 -0.13216314 0.3208564 0.50376564 -0.23392472 0.1102544 -0.1545892 0.27585745 0.302076 -0.5177379 -0.31075826 0.28305525 -0.3280749 -0.0638071 -0.1148969 0.48704022 -0.27521542 0.17440714 0.12899852 -0.14517543 0.4445537 -0.639994 0.20925549 -0.08367331 -0.34706044 -0.27151555 0.38671204 -0.17071296 0.44654948 0.6303509 0.14390963
112 -0.3979441 -0.9194003 -0.542632 -0.26564205 -0.6025988 0.13028286 -0.30809796 0.198705 -0.5440388 0.02434659 0.46107718 -0.95500195 -0.36167818 -0.7625854 0.5438872 0.11703628 -0.07701174 0.581305 0.28106663 0.80467576 0.27704668 0.35207713 0.2799332 0.081977054 0.347269 -0.019913591 -0.019096456 -0.9544752 0.18092228 -0.037349388 -0.03696312 -0.102002144 -0.011144992 0.44897833 -0.9299104 0.4009177 -0.20235246 -0.45547718 0.5643688 0.18122068 0.10708993 0.074191846 -0.010454428 -0.26239368 0.46181366 -0.14909321 -0.5028954 0.5167539 0.34882066 0.34793845 0.4670893 -0.3987548 0.5187881 0.9263171 -0.07710664 -0.433097 0.2188991 -0.14261211 -0.046713937 0.7193461 0.17043439 0.47368082 -0.05822091 -0.15188245
197 0.15162036 -0.2258609 0.34242758 -0.12804057 0.04796757 -0.4232056 -0.10827553 -0.02554198 -0.5729198 0.23844337 -0.6330266 -0.4347681 -0.67331386 -0.022444129 0.43064773 0.683087 0.41660076 0.28674892 -0.15827744 0.7622258 0.10438744 -0.41220507 0.24831864 0.39261013 -0.39481476 0.048522163 0.024818297 -0.4931912 0.20531166 -0.31942037 0.12570518 -0.17656443 -0.061386153 0.22088653 -0.19094266 -0.21514611 0.3102051 0.021050416 -0.38964257 -0.31133854 0.53213906 -0.2859817 0.08719704 -0.09735413 0.08176237 -0.35580924 -0.1232336 -0.055371944 -0.20801277 -0.70498705 0.26249453 0.1524412 0.6175651 0.52958924 0.4818204 0.4796774 0.03327035 0.47093698 0.15717411 0.60668963 -0.0873701 0.07998764 0.33404985 -0.058842838
171 0.1884495 -0.585741 0.54794145 0.06869412 -0.8294005 -0.12665303 -0.12654628 0.46493542 -0.37188455 0.42697966 0.027271697 -0.25915435 -0.6184029 -0.04632185 0.33268863 0.4123062 0.11558087 0.62244487 0.21572277 0.35692587 0.2396401 0.07324934 0.93695575 -0.16240662 0.48352072 -0.4611532 -0.045955192 -0.0066835843 0.14602692 0.4516367 0.18393579 0.28325227 0.24094422 0.29373395 -0.24664262 -0.016812706 0.54120946 -0.03791427 0.04179774 -0.1798141 0.14310604 0.37108722 -0.52043796 -0.32914466 0.5346802 0.07526772 -0.16228865 0.1537478 0.42019618 0.14837328 -0.21300729 0.059102263 0.06731851 0.6964668 -0.2906908 -0.2360772 -0.04617624 -0.5300604 0.1836971 0.35119694 -0.15426892 0.44866762 0.52708197 0.38205346
179 0.30021015 -0.97775215 0.09966842 0.30299038 -0.5154515 0.14807886 0.3475423 -0.36122984 -0.6193035 -0.025032213 -0.035498124 -0.14112936 -0.70705247 0.1200751 0.18576844 0.3944765 0.83710593 0.37231788 -0.016965454 -0.15474814 0.48092216 0.7117153 0.74491954 -0.38433892 0.48008156 -0.809707 0.14663655 0.37077925 -0.028648607 -0.12739617 -0.41780043 -0.052029822 -0.12659478 -0.45629197 -0.4532721 -0.32514372 0.80844474 -0.16810973 -0.64205426 0.034760796 0.14226162 0.75315225 -0.18540853 -0.62987965 0.08532504 -0.5595376 0.28373805 0.257206 0.6198646 -0.36170745 0.30326557 0.07503243 0.1637312 1.057569 -0.2196525 -0.9061499 -0.114043236 -0.32225677 0.031501543 0.70596236 0.28360838 1.0221857 0.31462687 0.052800264
166 -0.13378814 -0.5596185 0.13718158 0.08102325 0.14787656 -0.12776105 -0.8056072 -0.0512116 -0.36947316 -0.054130107 -0.010522422 -0.53588635 -0.36680895 0.02944026 -0.01517095 -0.15829507 -0.3595713 0.14779703 0.00872458 -0.017837139 0.63510156 0.74910253 0.31990948 -0.39058977 0.15907794 0.35456863 -0.03770906 -0.23858683 0.1070448 0.15845583 -0.29510012 -0.010365253 0.18146473 0.42736018 0.05804889 0.012614373 0.09151122 -0.17756847 0.19069947 0.3110712 0.29987937 0.1275694 -0.40843186 -0.25949442 0.1628999 -0.12544627 0.42305574 -0.18169518 0.21919556 -0.45276785 0.043509413 -0.14475682 0.5444015 0.45808855 0.05019979 -0.0778406 -0.29636556 -0.40152478 -0.04930562 0.8044555 0.13295059 0.2785807 0.5267712 0.15943004
161 0.23523691 -0.6702873 -0.37888366 -0.18233204 0.51458216 0.14125988 -0.28596812 -0.16376297 -0.56359977 -0.062601164 -0.35798126 -0.34135327 -0.37065125 0.012630445 0.2874254 0.46318662 -0.5145002 0.40385783 0.63619244 -0.15232517 -0.021522664 0.5570304 -0.022595022 -0.4956848 -0.11443084 -0.0048702722 0.07955196 -0.45273292 0.13099286 0.09719762 -0.6459253 0.23391388 0.31806752 -0.11375413 0.063859016 -0.17763163 -0.2674532 0.29548573 -0.044470314 -0.15694799 0.46083447 -0.1701589 -0.47910726 -0.38162312 0.35514623 0.46586064 0.021102576 -0.13843894 0.19338109 -0.24934126 -0.03179224 0.033881526 0.646677 0.24051344 0.14842318 0.67861503 -0.3914655 0.06068942 -0.08414429 0.72263116 0.15002337 0.3874735 0.426407 0.13904975
93 -0.18552804 -0.6383564 -0.33754143 0.13331647 0.2018138 0.18986402 -0.50882506 -0.21886751 -0.39575166 -0.38808393 -0.12683272 -0.7568848 -0.43190458 -0.10828294 -0.018383985 -0.058982853 -0.48469454 0.13772325 0.03552627 0.15509686 0.47863483 0.83078337 0.18919416 -0.6792574 -0.0017703882 0.47784743 0.19505174 -0.34231833 0.28743538 -0.027532905 -0.29955325 -0.24886344 0.35426897 0.1866574 -0.14233468 -0.17718405 -0.10618997 -0.11895132 0.0562081 0.0016644559 0.060281098 0.039418377 -0.3347477 -0.27878633 0.1707565 -0.007458846 0.119798705 -0.52629507 0.31429708 -0.13439448 -0.0085931085 -0.013440475 0.7885434 0.30812338 0.12949525 0.36981836 -0.46817628 -0.4310081 -0.12001662 0.8350917 0.36619312 0.40026587 0.39833075 0.20388255
16 -0.16052994 -0.5898684 -0.04860563 0.016154902 0.22302735 -0.06926978 -0.742845 0.0013682235 -0.35995734 -0.13587168 -0.073596135 -0.5404079 -0.23226434 -0.10480116 -0.064981155 -0.11055759 -0.3197361 0.15221757 -0.0013823778 -0.039695032 0.65456545 0.8696295 0.34802064 -0.42318684 0.15638167 0.21790646 0.10589124 -0.22917053 0.19644183 0.13169429 -0.36927456 -0.058150254 0.272063 0.36349997 0.09051375 -0.016522545 0.037525333 -0.135036 0.16359664 0.13521346 0.29337254 -0.03460483 -0.44026208 -0.31668657 0.040258147 -0.14923295 0.30881986 -0.32190132 0.23338987 -0.3668453 0.029808624 -0.0615494 0.5273335 0.40424842 0.0650019 0.17442353 -0.31245533 -0.34320766 -0.03249896 0.82244796 0.17325875 0.2537013 0.47027975 0.22039336
46 0.4343358 -0.6940735 0.7185325 -0.107414775 -0.823319 0.18176307 -0.37291318 0.16711569 0.18462779 0.03776938 -0.13791756 -0.1212362 -0.47743514 -0.6112437 0.120021164 0.76555026 -0.27225336 0.6944271 0.09451423 0.26860422 0.2426799 0.50295466 0.96378326 -0.7667802 0.51819134 0.31272048 -0.2361526 -0.9744188 0.86066556 -0.25306195 0.47531623 0.2748319 0.010143097 0.13254724 -0.92728764 -0.053699832 0.42841846 -0.0054361923 -0.36189905 -0.3014386 -0.030035717 0.3998867 -0.45812505 -0.46313363 0.6397286 -0.09577431 0.37842396 0.22834267 -0.20357515 -0.09400327 -0.37780797 -0.18451467 0.11370789 0.3871227 0.51441103 0.61305875 0.20597504 -0.4720752 -0.18509124 0.56919247 -0.061871152 0.392724 0.3468696 0.34668723
124 -0.06591849 -0.5881281 -0.13285008 0.04207157 0.07806843 -0.112436056 -0.3855303 0.10847174 -0.24784946 -0.22887671 -0.3483675 -0.4972116 -0.21574514 0.3552849 -0.23747803 -0.17331442 -0.22831933 0.43091077 -0.427002 0.046451405 0.6900956 1.0647621 0.6535875 -0.6265772 0.523828 0.43999732 0.31459367 -0.4730942 0.31467083 0.20019752 -0.3324945 0.006606331 0.20295607 0.47034705 0.15260614 -0.24925077 0.050405968 -0.40320703 -0.2456098 0.3765318 0.34386158 -0.07276891 -0.23199971 -0.43123144 0.075079605 -0.29985252 -0.056903042 -0.33773166 0.4796085 -0.28416523 0.25601703 -0.27380273 0.9372741 0.42073894 -0.031666677 0.38594177 -0.49803975 -0.3691188 0.5016397 0.5654158 0.060270473 0.16623172 0.5113706 0.22855595
157 0.17401455 -0.6588014 -0.24158254 -0.104516216 0.46872532 -0.042517785 -0.21526875 -0.14263086 -0.5533564 -0.14409554 -0.42951575 -0.16066338 -0.50224185 -0.029747527 0.43799853 0.5236609 -0.4038249 0.38242823 0.612526 -0.11978594 0.023630178 0.5163656 0.043946862 -0.38174576 0.022915004 -0.08063917 -0.023395015 -0.32732168 0.035398625 0.025125453 -0.7697664 0.104455635 0.41196185 -0.16015315 0.05586184 -0.25802615 -0.38540092 0.36041948 0.009351458 -0.30685455 0.34325743 -0.12468191 -0.4733453 -0.30840614 0.4111319 0.5378141 0.11479304 -0.12483153 0.1463918 -0.16021796 -0.28226027 0.025367225 0.7643133 0.2646793 0.2432342 0.6550236 -0.45482972 -0.007730354 -0.28571248 0.8323276 0.23335062 0.40348774 0.5337792 0.26451185
201 0.04864894 -0.7114059 0.028316725 -0.08299 -0.4365619 0.038995635 -0.3721825 0.43559197 -0.099572204 -0.3053084 0.06104189 -0.24219531 -0.68179435 0.28638127 0.23749126 0.7095422 -0.15620664 0.026759272 -0.28222147 0.00093421544 0.26745367 0.04010537 0.72624975 0.1037877 -0.11000528 -0.051548496 0.40412837 -0.49771434 -0.2191687 0.09269267 0.14766459 0.28593487 0.21048072 0.4854981 -0.3966414 0.111851275 0.5622856 -0.25712755 -0.22213878 -0.20756045 0.36872533 0.46250156 -0.11329229 -0.5958389 0.63990295 -0.37211138 0.25217712 0.078408524 0.5448223 -0.1274853 -0.039875306 -0.2333471 -0.2518096 0.32201374 -0.4984079 -0.21129395 0.08482379 -0.58937925 -0.21153425 0.45232084 -0.34971154 0.5032264 0.7479751 0.23676953
206 0.16047932 -0.50135064 -0.440831 -0.11634933 0.19689189 0.028826054 -0.14898416 -0.182336 -0.40832642 -0.17404467 -0.39501178 -0.18582956 -0.4966369 -0.04383373 0.18391828 0.49969095 -0.5070584 0.5094139 0.28600508 -0.18259066 0.07481045 0.64789826 -0.2693776 -0.36210486 -0.04888117 -0.3271176 0.32974255 -0.28237355 0.120454006 -0.019590955 -0.38792342 0.091823734 0.58119637 -0.0051518204 -0.12878443 -0.36263052 -0.29155576 0.35099632 0.019219624 -0.2885044 0.35698935 -0.3348445 -0.4381583 -0.31447282 0.44000724 0.43180802 -0.074694864 0.2922039 0.10623924 -0.19823791 -0.046344183 0.08134455 0.6397286 0.19744898 0.3353249 0.72083163 -0.31610128 0.164906 -0.57752436 0.845406 0.19473529 0.29454628 0.6104864 0.3941195
19 0.118264794 -0.40736517 -0.2644066 -0.16068742 0.38348705 -0.12234321 -0.010379221 -0.0017316458 -0.75879884 0.0084434105 -0.37680182 -0.21671827 -0.50455904 0.17460516 0.4055513 0.48307785 -0.19602384 0.57656556 0.3020892 -0.16746385 -0.034433674 0.14871766 -0.41736004 0.11466847 -0.2409784 -0.38231263 0.3512605 -0.31659895 0.5934279 -0.32443672 -0.1004681 0.5634925 0.23943384 -0.10529145 -0.030133044 -0.08184885 -0.15421103 0.6041671 -0.14747186 -0.3553881 0.33155826 -0.24854118 -0.48132458 -0.042425014 0.224299 0.43323252 -0.16190828 0.1960057 0.00968148 -0.0025495111 -0.17402968 0.33746433 0.5705619 0.12501606 0.16445796 0.74224234 -0.14228702 0.06237435 -0.28004703 0.61071086 0.37010947 0.37737352 0.26589414 0.40015996
75 0.16214801 -0.2954439 0.054313503 -0.10602325 0.051084355 -0.16029477 0.08520501 0.21184905 -0.5740406 0.031236578 -0.5154173 -0.3411839 -0.31980544 0.10688252 0.4648821 0.7996767 0.23438111 0.38198516 0.12031194 0.5472019 0.055222396 -0.24466382 -0.18623406 0.51090723 -0.08632532 -0.016831791 0.17954385 -0.47728053 0.24722035 -0.3706931 0.054559246 0.33091974 0.17179447 0.3231535 -0.348085 0.17590249 0.084207445 0.28357795 -0.13642631 -0.21366337 0.6707979 -0.7637942 0.28802055 0.11793723 0.4011638 -0.31835613 -0.045868255 0.10908593 -0.2190791 -0.34269157 0.07483427 -0.0546364 0.62890947 0.38420552 0.5406949 0.09660734 0.023776645 0.3184902 0.1419202 0.21729837 0.117023565 0.22157316 0.106111206 0.17834629
41 0.2165994 -0.13294002 0.32715383 -0.09776947 0.09929945 -0.41225496 -0.17404298 0.077547595 -0.5254094 0.23421529 -0.7059859 -0.54045135 -0.62990534 -0.09075577 0.354004 0.7140272 0.41616797 0.30703914 -0.21791813 0.6574821 0.07942061 -0.40362003 0.21356815 0.35581905 -0.28422803 0.049707834 0.035792667 -0.5107407 -0.014709725 -0.3462269 0.04907281 -0.18044893 -0.12940918 0.406554 -0.25265348 -0.26371303 0.29986408 -0.04340528 -0.38751185 -0.25605446 0.46351624 -0.293235 0.15825325 0.05091997 0.10906586 -0.35368884 -0.06885558 0.056697432 -0.25544107 -0.648844 0.25514674 0.10016871 0.62844247 0.46542504 0.4695752 0.32901978 0.0782037 0.50191545 0.04264274 0.6688869 -0.12707987 0.082382366 0.38662168 0.033784013
2 0.043907635 -0.78540677 0.24086334 0.12129794 -0.6784243 0.30311376 -0.44469237 0.2863994 -0.34674668 0.23055013 0.02283077 -0.19152759 -0.40961936 -0.10822707 0.16652203 -0.061388295 -0.16371813 0.20920093 -0.034627058 0.20815629 0.5341674 0.36919177 0.71359354 -0.059442453 0.22595812 0.23073035 0.24801934 -0.049983524 -0.05438446 -0.11753978 0.312339 0.087388344 0.45550936 0.039938048 -0.23392354 0.46140993 0.58722544 -0.01582574 0.056710582 -0.3675117 0.22732204 0.19582088 -0.5868478 -0.21220113 0.3435684 -0.49123374 -0.03467749 0.19002874 0.28088674 -0.1689064 0.16104807 -0.3168837 0.07832971 0.6231833 -0.0056968126 -0.19063798 -0.0551901 -0.46600905 0.30416527 0.50537544 0.016815893 0.67440826 0.47838184 0.33134237
127 0.07084658 -0.6247331 -0.42139766 -0.06864548 0.19579731 0.048210654 -0.21005149 -0.22968088 -0.3567903 -0.32649913 -0.43003702 -0.2716525 -0.5750433 -0.04677782 0.18830562 0.5031826 -0.48847094 0.5298928 0.22452523 -0.17756914 0.07460261 0.6434064 -0.20735474 -0.38246593 -0.06370239 -0.32829162 0.3910564 -0.20021285 0.072772786 -0.11802755 -0.3954097 0.023783563 0.5942285 -0.09374709 -0.087410465 -0.498293 -0.34583393 0.33270034 0.03498309 -0.29435 0.36740622 -0.34679213 -0.41679424 -0.3284868 0.4180113 0.44576398 -0.09656544 0.25964504 0.23106226 -0.10799911 -0.1387292 -0.08446777 0.6378035 0.1135048 0.31758353 0.6410227 -0.38952753 0.10941518 -0.5530044 0.78780985 0.21662323 0.23510146 0.70280534 0.46306887
190 0.1266579 -0.17119272 -0.31282628 -0.07823866 0.1280236 -0.17385423 0.074877806 0.4450739 -0.6402162 -0.4093219 -0.30191877 -0.20766689 -0.58044857 0.035153665 0.5197884 0.39820832 0.20779397 0.5178312 0.43696716 0.05157912 -0.03886959 -0.3749569 -0.45108345 0.45856988 0.051395226 -0.09546016 0.1182753 -0.3895578 0.114816345 -0.2393816 -0.21648283 0.13602805 0.07071351 0.3164612 -0.31547585 0.22160394 0.08581656 0.24149638 0.019498633 -0.085075475 0.5152154 -0.5058235 0.21961623 0.15072078 0.48369893 -0.15113278 -0.28221184 0.26331097 -0.21132149 -0.03429611 -0.07681327 0.0822809 0.70529974 0.15821512 0.44016445 0.37666902 0.06810455 0.45134276 0.0094441185 0.57370496 0.21694234 0.22476234 0.14033392 0.2260841
48 0.065964095 -0.77044636 -0.12542993 -0.10010699 0.23840594 -0.28860664 -0.7229934 -0.0558113 -0.46741515 -0.2918956 -0.1844865 -0.74034506 -0.24212693 -0.21662974 -0.09559216 -0.07442876 -0.5088173 0.27895635 0.120388165 0.44909668 0.6328096 0.88055325 0.23665012 -0.15350479 -0.16241518 0.32707176 0.1259483 -0.60129946 0.01912419 0.013010748 -0.23130387 -0.079442315 -0.018238828 0.4266125 0.23885772 0.1728033 -0.05271705 -0.16003017 0.042293623 0.21796905 0.018814776 -0.082081914 -0.5368409 -0.2505822 -0.08347101 -0.022979401 0.571238 -0.29298073 0.2559447 -0.030235188 0.06304397 0.21251315 0.36004132 0.29054278 -0.1236173 0.030475713 -0.051342767 -0.4118708 -0.28080535 0.714792 0.34987903 0.24801372 0.56859857 0.044491548
15 -0.07185586 -0.3863294 -0.1667897 0.042455062 0.15793183 0.1403459 -0.70363206 -0.17956737 -0.46449947 -0.120981656 -0.08592774 -0.674918 -0.4491825 0.023249075 0.016342293 -0.039719053 -0.60623133 0.20077094 0.10270069 -0.060851827 0.40863428 0.8879899 0.21331762 -0.69447094 -0.2122694 0.29625574 0.062801585 -0.3187264 0.17151466 -0.13361731 -0.3524175 -0.16093947 0.4773001 0.22465697 -0.044151753 -0.104398884 -0.08890321 0.080734506 0.07801013 0.07071976 -0.031996515 -0.015675513 -0.47124684 -0.12298474 0.1306655 0.15097928 0.004795237 -0.35534847 0.3500057 -0.30169523 0.007950035 -0.06820448 0.58997995 0.13490312 0.20927468 0.5577603 -0.41985807 -0.1928138 -0.28400236 0.78955024 0.26385334 0.5270186 0.52226114 0.39396906
91 -0.20528278 -0.6119864 -0.14956944 0.12854345 0.16665894 0.081703186 -0.554239 -0.2524017 -0.38527474 -0.2937365 -0.18414511 -0.59630895 -0.31096756 0.04103365 -0.06575528 0.039163962 -0.58678627 0.18834159 0.12706402 0.120950446 0.7078021 0.9343901 0.26234853 -0.6116642 -0.10963995 0.2813011 0.24682197 -0.40712067 0.15301071 -0.16083732 -0.22422728 -0.07721369 0.354526 0.21570557 0.0010386802 -0.07996153 -0.1926326 -0.043030243 -0.061885513 0.02914666 -0.05962796 -0.017717322 -0.3609088 -0.04658377 0.12562788 -0.12834121 0.33459428 -0.5160285 0.3519729 -0.17201813 -0.074151136 0.06163531 0.812473 0.25909248 0.1004158 0.28497127 -0.521092 -0.4397042 0.15833256 0.7616195 0.20387481 0.38763577 0.41129643 0.21676114
196 -0.09067374 -0.60534877 0.098190755 0.10065005 0.07651051 -0.13189365 -0.79781216 -0.021583851 -0.35927987 -0.091913566 -0.11317794 -0.58829236 -0.21865484 0.028387694 0.09632891 -0.15744498 -0.30004933 0.089317776 -0.02101933 0.0038324445 0.7988497 0.8230077 0.21579094 -0.4208971 0.27333936 0.2258735 0.08074724 -0.24186577 0.15218258 0.18012023 -0.32593372 -0.11984082 0.25874746 0.38617772 0.075289905 0.10987811 0.04902424 -0.11608491 0.24718213 0.23319358 0.3101299 -0.01394628 -0.55758834 -0.30971214 0.12319993 -0.11022672 0.3207478 -0.082334734 0.3285566 -0.48431203 0.038775355 -0.18455987 0.35984105 0.4261384 0.08350299 0.0150016835 -0.31684 -0.35679674 0.006018737 0.77445495 0.16884762 0.19669577 0.43649387 0.23989943
85 0.25870055 -0.69605696 0.2707807 0.35134315 -0.74283093 0.16953641 0.03142897 0.25390518 -0.48406973 0.13396944 0.089778244 -0.18899149 -0.5044103 -0.05033317 0.16272172 0.020703305 -0.31380236 0.23100983 -0.025864514 0.34248215 0.41976434 0.4466394 0.66640574 -0.09236251 0.25203407 0.1137784 0.20480755 -0.27092004 0.09235778 -0.13262652 0.41536513 0.29319504 0.35657057 -0.015309103 -0.43276897 0.30397803 0.72049874 -0.06328342 0.11421137 -0.4239975 0.14073008 0.27767798 -0.47413674 -0.22199121 0.35831922 -0.31418705 0.029791834 0.29186746 0.45499587 -0.15704119 -0.111783184 -0.18685302 -0.011606401 0.6392782 -0.22258942 -0.10333963 0.10701108 -0.5305612 0.284429 0.57439446 0.00891022 0.48565277 0.45431963 0.3659016
149 0.9658478 -0.004621471 0.050084405 -0.09265362 -0.1689947 -0.09215837 -0.3613797 0.49866349 -0.7870655 -0.71544874 -1.0293387 -0.42022824 -1.0449378 -0.17597064 0.056236584 1.0819714 -0.051039763 0.5995322 -0.23466572 0.21101952 -0.44082996 0.491455 -0.30553564 0.041113652 0.8254591 -0.045151222 0.49734604 -0.124979764 0.4156054 -0.07108216 0.28116158 0.6010671 -0.2314433 0.56818044 -0.11008523 0.22367051 0.19311906 0.10800322 -0.30329254 0.37343046 0.5411756 -0.4059477 -0.1944929 -0.13269168 0.080433495 -0.12218867 -0.8217188 -0.2277063 0.042627614 0.24510515 0.45578152 -0.48849684 0.4534935 0.3810708 1.0038385 0.79416674 0.04414957 -0.36548078 -0.72890204 0.3090215 -0.40225235 1.0344598 0.2361117 0.9280549
193 0.08309705 -0.64006233 -0.31256133 0.078037664 0.27334535 0.09497142 -0.48370978 -0.22238171 -0.28578082 -0.010097425 -0.21618308 -0.47365835 -0.39649 0.044056915 0.09675072 0.33001417 -0.5330941 0.4490906 0.4691494 -0.11777624 0.2499197 0.99335307 -0.16340764 -0.42600358 -0.13902053 -0.096423134 0.12842698 -0.2190128 0.015749905 -0.11352744 -0.60739297 -0.14000012 0.4593165 0.047333248 0.09594264 -0.14936022 -0.2948558 0.25236765 -0.14436947 -0.09991917 -0.01762162 -0.017658986 -0.33127853 -0.3149297 0.14065038 0.17372249 0.00045491086 0.029285435 0.07169418 -0.20959374 0.1852443 -0.0047684037 0.727545 0.2997176 0.076722704 0.66341525 -0.3531854 -0.12707223 -0.15500057 0.8358306 0.21259491 0.5131149 0.6651545 0.34601545
52 0.40299445 -0.12147037 0.21933174 -0.12603618 -0.1817779 -0.53440464 0.2555869 0.16891275 -1.012975 0.10338226 -0.615256 -0.40065193 -0.88602144 0.07153742 0.35002783 0.28505293 0.18714835 0.23324776 0.13210043 0.37149993 -0.13044208 0.18222867 -0.21537639 0.4104955 -0.35061422 -0.22386009 0.3062264 -0.37838104 0.42497617 -0.3708471 0.24248971 0.11792551 -0.0636995 -0.07430156 -0.20913161 -0.21634057 0.21706073 0.15001336 -0.2539239 0.32215384 0.47286516 -0.44925386 0.245844 0.12635465 0.36467683 -0.088049844 -0.21303152 0.28658658 -0.06221384 -0.06445961 -0.08116376 0.08845799 0.52166516 0.08260752 0.5377893 0.55590016 0.052466948 0.55096996 -0.38762876 0.4074999 -0.09439361 0.12002975 0.20656613 -0.08689445
204 0.05238984 -0.30777296 0.56423795 0.23630908 0.17756593 -0.13100998 -0.1836161 0.11711453 -0.88819927 0.31381056 -0.82842594 -0.6038986 -0.56824857 0.1479952 0.37889966 0.7787819 0.027035449 0.106915966 0.07125228 0.4798767 0.31414345 -0.48796085 0.12453235 0.1734183 0.04881108 -0.10419995 0.13318136 -0.40307018 0.050860316 -0.37399223 0.00025524013 0.07715044 -0.18060634 -0.07492295 -0.19601624 -0.18400227 0.026854353 0.098448336 -0.33931905 -0.2371233 0.50423706 -0.52738833 0.3408912 -0.14930722 0.2415057 -0.6533682 -0.030090924 0.31458905 -0.3240027 -0.58371305 0.4346744 0.0038956187 0.57905304 0.3683583 0.5094643 0.37277415 -0.11879219 0.39980134 0.51850855 0.38228053 -0.10419054 -0.035236463 0.3887494 -0.09861564
27 0.18403871 -0.69538176 0.33402193 0.21516348 -0.7311961 0.07059536 -0.04407367 0.28701466 -0.46412072 0.2539583 0.24163139 -0.23096065 -0.47739303 -0.11037498 0.2741305 0.029289067 -0.27003908 0.2954155 -0.14306988 0.19409966 0.523843 0.27015495 0.8906927 0.090439394 0.25307178 0.06745582 0.19768289 -0.19504914 -0.042885907 -0.14284924 0.51125187 0.30926964 0.42625847 0.028182967 -0.40527785 0.37790287 0.56241536 -0.0066354973 0.0154419 -0.5756953 0.13621478 0.19462536 -0.51790404 -0.22989757 0.3242196 -0.38397002 -0.104355454 0.36677185 0.4304201 -0.08131921 0.046854638 -0.16911475 -0.02933928 0.76314974 -0.06623628 -0.08436447 0.12355599 -0.4524666 0.33671686 0.59484667 -0.016887754 0.5877406 0.5624803 0.29760027
125 0.053153224 -0.5244494 -0.09010942 -0.103787586 -0.5507864 0.005106991 -0.395962 0.8572015 -0.35973305 0.0051945164 0.07867869 -0.46524462 -0.07139043 -0.29465282 0.58653176 0.121269144 0.19216357 0.26780662 -0.31956276 -0.1544191 0.6975311 0.27304122 0.055706523 0.13692991 0.7410859 0.26640356 0.2002431 -0.72808284 0.39552388 -0.21767761 0.01233741 0.30922303 -0.2124033 0.37172887 -0.0906465 0.5284988 0.20804536 -0.078704745 0.25697005 -0.0368537 0.024654048 0.3233262 -0.33764338 0.037768375 0.20065792 -0.08579565 -0.2563335 0.07243055 0.7656615 0.2376374 0.18722653 0.17102982 0.37961763 0.8184067 -0.13832335 -0.024839548 0.21966098 -0.1717694 -0.4452901 0.9650138 -0.0008308288 0.57001334 0.38823652 -0.1667708
80 0.23695858 -0.75464475 -0.28425932 -0.29703698 0.62489873 -0.03743363 -0.50935733 -0.17091505 -0.5955079 -0.2021565 -0.2484731 -0.43855417 -0.42791256 -0.0037574198 0.2904938 0.47305077 -0.38977176 0.45962927 0.62071013 -0.13708293 0.10136517 0.6946502 -0.1352595 -0.6553285 -0.15606153 0.06436531 0.04676704 -0.28770906 0.2958435 0.07288353 -0.5390222 0.12867932 0.30371702 -0.06416818 0.20064585 -0.1250213 -0.22894324 0.32976174 -0.024858452 -0.18944936 0.23575398 -0.040863067 -0.5298501 -0.31514806 0.29186505 0.40305427 0.072287835 -0.2168449 0.24853337 -0.27759805 0.14784533 0.13160163 0.6943321 0.14764309 0.14602333 0.59582967 -0.37480938 -0.019344272 -0.20252047 0.6912166 0.3482881 0.5228111 0.5447577 0.10233481
101 -0.12404185 -0.57720745 0.17253143 0.12657599 -0.12296904 -0.10393074 -0.6447039 0.002048639 -0.2450583 0.10384282 0.26679078 -0.7662836 -0.1898181 0.03615239 0.13095956 -0.042887773 -0.11248605 0.23360635 -0.04192437 -0.19576384 0.6482608 0.6646985 0.39660135 -0.25822878 0.23093638 0.2301582 -0.062064756 -0.13082515 -0.13625942 0.0068952343 -0.19738956 0.025338193 0.2551918 0.43301603 0.017891573 0.14547569 0.15054835 -0.2695648 0.13508038 0.18731488 0.13097323 0.037730083 -0.49203685 -0.38584644 0.25430387 -0.3008438 0.18944204 -0.029958652 0.49002713 -0.09942063 0.11822513 -0.18388636 0.41365814 0.37643516 -0.10727934 0.04401301 -0.21187484 -0.34790802 -0.106484406 0.6771309 0.29563454 0.3069457 0.5746866 0.016033622
184 0.14053772 -0.5745189 0.37564915 0.13731533 -0.7636638 0.51199615 -0.4500502 0.40523967 -0.21588685 0.17346378 0.04060651 -0.2000252 -0.64193326 -0.13395245 0.11330344 0.19549204 -0.21032478 0.37785414 -0.03866362 0.22178929 0.48523661 0.2653653 0.85918325 -0.36503643 0.2510288 0.07596712 0.46552205 -0.4046803 -0.29496017 -0.11077399 0.10271867 0.1746799 0.039763182 0.00786908 -0.08788776 0.6370353 0.6410384 -0.36805603 0.42850772 -0.31482992 0.10763156 0.34688836 -0.64094263 -0.18531696 0.19153754 -0.60519433 -0.10440163 0.1121951 0.1358351 -0.35312986 0.2613173 0.03716551 0.15543582 0.49744657 -0.04815857 -0.12276752 -0.25281435 0.033693433 -0.09448018 0.32366705 0.038872864 0.70382816 0.7147857 0.3730336
168 0.09248152 -0.8259355 0.28558055 0.06411835 -0.77876025 -0.13027038 -0.028571757 0.52903277 -0.56937224 0.16646285 0.16357385 -0.5071356 -0.51699704 0.3146586 0.45265535 0.48556465 0.12352276 0.48611772 0.19794859 0.38988578 0.12195015 -0.06593695 0.7271104 -0.07409977 0.49501103 -0.48041758 -0.08336421 -0.12548392 0.29602134 0.22834514 0.120279886 0.18135843 0.11145711 0.15825836 -0.5683299 0.22404863 0.25026402 -0.24891484 -0.20768544 -0.10976836 -0.04673814 0.605934 -0.33980864 -0.16796921 0.4619767 0.03262843 0.0493488 0.20668016 0.2602106 0.260677 0.018570812 0.061432898 0.30872336 0.43383864 -0.26758575 -0.5126769 0.08768074 -0.54477763 -0.009815877 0.4384149 -0.19681218 0.6183799 0.57679343 0.36243927
202 0.13327526 -0.8401868 0.5475993 0.20747736 0.25321317 -0.14901808 -0.27870926 0.8355776 -0.28141117 0.2468025 0.31611925 -0.35056227 -0.85078764 0.026154159 -0.118913665 0.623444 0.5348637 1.1478763 -0.52868015 -0.14707331 0.5021456 0.10355352 1.2094761 0.2669228 0.14367592 -0.9610469 -0.016070148 0.34172943 0.22071521 0.1353937 -0.5659241 -0.2681237 0.46483943 -0.11811133 -0.58225036 -0.23800498 0.36159587 -0.34667066 -0.016699877 -0.6423822 0.3924328 0.8400867 -0.2040714 -0.73122483 0.6639212 -0.158474 -0.24494946 -0.102816865 0.6327808 0.5786269 0.029366037 0.40879467 0.2553682 1.0214537 0.18557103 -0.46598795 0.34606528 -0.54323995 0.050261494 0.43279448 -0.41034603 0.4783377 0.3473173 0.4916661
9 0.11912193 -0.45470494 0.38354138 0.13208538 -0.1403503 -0.23975646 -0.24591653 -0.20078392 -0.6785884 0.015132377 -0.8391155 -0.36760265 -0.51320714 0.05700402 0.5082897 0.6136523 0.25551075 0.2953193 0.07322768 0.6318368 0.3221633 -0.008187243 -0.020270132 0.27746847 -0.15119413 0.32988784 -0.08923084 -0.037157852 0.16564651 -0.41410267 -0.093883924 -0.22592184 -0.34904835 -0.19525889 -0.18649074 0.11430792 0.31074774 0.11560609 -0.5501231 -0.110472515 0.8980875 -0.79044247 0.2800348 -0.11652568 0.37163398 -0.3549491 -0.15821385 0.06680829 -0.05941188 -0.7251898 0.17937699 0.1389537 0.65141857 0.5241342 0.46995768 0.16223606 -0.005913242 0.36744758 -0.023847682 0.336902 -0.19266473 -0.23748069 0.10014878 0.0795227
79 0.23194097 -0.72645456 0.21316464 0.21351811 -0.7543141 0.1825025 -0.13992056 0.4196062 -0.43312955 0.33997044 0.17210147 -0.17767332 -0.42189762 -0.23583107 0.23666328 -0.06465702 -0.2168227 0.3868116 -0.054028105 0.20482673 0.3742953 0.19751605 0.812807 0.008381912 0.29469484 0.14124215 0.15416904 -0.13170014 -0.023021435 -0.1815173 0.44949317 0.19256291 0.40706885 -0.054935873 -0.3381174 0.4553723 0.6484214 0.008790062 0.027515937 -0.64056456 0.07302228 0.13865788 -0.60598993 -0.20321281 0.2757418 -0.49172556 -0.10857968 0.19667004 0.30884993 -0.16368002 0.13469985 -0.3359985 0.076937705 0.7533561 0.040048826 -0.04124172 0.03904443 -0.4611191 0.40153494 0.66165024 -0.0031592164 0.8079905 0.401491 0.35592762
29 0.10788271 -0.66693956 -0.0025766864 -0.09155963 0.32308552 -0.41389924 -0.8433738 0.0256568 -0.52096665 -0.33035222 -0.38936564 -0.6243702 -0.06874993 -0.11586107 -0.21360227 0.04943502 -0.49482247 0.31284553 -0.09829969 0.2917343 0.755357 1.0675908 0.29964283 -0.23733102 0.059094384 0.40596718 0.06304216 -0.43047008 0.011546814 0.105924025 -0.32014808 -0.015758084 -0.051265452 0.42045468 0.15336113 0.20079157 0.06649021 -0.2750391 0.017113617 0.268947 0.29663613 -0.14890365 -0.48970723 -0.38170385 -0.048541177 -0.26918456 0.52383137 -0.21844856 0.058297727 -0.23253016 0.25728303 0.07639776 0.37159148 0.36649275 0.055991966 -0.024930883 0.01126014 -0.45508057 -0.16311868 0.64749944 0.3724366 0.17005068 0.74324775 0.1174301
133 -0.13289791 -0.663963 0.15704902 0.19114058 -0.24124576 0.1125201 -0.5653104 0.18090396 0.0024609326 0.071372986 0.28935927 -0.67478234 -0.13071123 0.04334124 0.19614202 0.0589453 0.07557164 0.2198988 -0.036300797 0.0303072 0.67303306 0.53749 0.55099237 -0.38757858 0.23553778 0.053751785 0.028560426 -0.15013607 -0.22600247 0.014861652 -0.23175801 -0.18422082 0.16418016 0.45330182 -0.0980597 0.17889576 0.11971505 -0.3257564 0.32706463 0.20403743 0.1283289 0.010949444 -0.54942554 -0.27948847 0.37656406 -0.4230326 0.1513329 0.114250496 0.5386149 -0.16935089 -0.0004393229 -0.26897883 0.22673304 0.1805444 0.002296 0.15239425 -0.24789493 -0.23229466 -0.0005573188 0.5419002 0.3248075 0.4737843 0.6648435 0.3600146
13 -0.021894818 -0.8158609 -0.14541267 0.21443628 -0.49393338 -0.278625 -0.012124593 0.41844872 -0.7521368 0.24604082 0.14045103 -0.5066464 -0.3992875 -0.18324587 0.6282162 0.119353585 0.27585873 0.17166826 -0.25080207 0.34293666 0.19786446 0.047295224 -0.021089802 0.50569856 0.401909 -0.23056501 0.19812386 -0.57344 0.20622726 -0.06519541 0.13273366 0.17835909 -0.087390505 0.4501811 -0.6831255 0.31994897 0.10651648 -0.21973383 0.42876968 0.10406959 0.11801384 0.23660916 -2.4549146e-05 -0.07928562 0.45143452 -0.29047376 -0.07855892 0.5547797 0.5428394 0.23246488 -0.12803997 0.019960377 0.39304566 0.08981126 0.06407505 -0.035855882 -0.117210746 -0.42362252 -0.17584056 0.3372142 0.3841364 0.53755295 -0.09565932 0.14630526
144 -0.1478085 -0.2972711 -0.14317065 0.18163544 0.38021603 0.23761791 -0.75900984 -0.19425713 -0.45111933 -0.15191615 -0.036586683 -0.69041586 -0.4371312 -0.06815404 0.10113255 -0.026429111 -0.46499366 0.226308 0.084372446 0.012944211 0.5018064 0.92835087 0.15700291 -0.5447344 -0.16557474 0.22980118 0.09226977 -0.39614585 0.21664055 -0.17629333 -0.29576075 -0.15966135 0.40450126 0.28969622 -0.14382456 0.0074974657 -0.17057846 0.091080174 0.07022424 0.046667088 -0.007506416 -0.010674261 -0.36125526 -0.21088888 0.15624686 0.13868415 0.12535654 -0.31967786 0.20446339 -0.25002918 0.0919468 -0.13720621 0.63565534 0.20870385 0.18388201 0.46635002 -0.4512472 -0.2221443 -0.015394141 0.72490424 0.41206306 0.4984086 0.6005815 0.3760923
191 0.0780228 -0.62208164 -0.3277804 -0.017226739 0.28436157 0.058581192 -0.6523561 -0.20747294 -0.28837043 -0.03643945 -0.28301704 -0.49944285 -0.2935378 0.061374806 0.06586351 0.17466955 -0.52566147 0.34196 0.42542621 -0.2237155 0.29592505 0.8917837 -0.03649049 -0.52390754 -0.30913815 -0.039043806 0.14671418 -0.3709115 0.052535564 -0.10651805 -0.43955418 -0.13389392 0.52883255 0.23711245 0.026666583 -0.13841376 -0.28010306 0.21309434 -0.141311 -0.035480175 0.00051341613 -0.005144903 -0.33596006 -0.513637 0.10937017 0.09641072 0.024120882 -0.044191927 0.22876847 -0.30270857 0.17536925 -0.0014512237 0.73251295 0.27287728 0.11860484 0.5646649 -0.458388 -0.24010721 -0.07953466 0.70282495 0.2878766 0.560977 0.5771785 0.13395186
136 -0.082573615 -0.6484056 -0.36683595 0.0717887 0.39675844 0.104627185 -0.70267063 -0.14564615 -0.40135798 -0.3285423 -0.05106713 -0.4114196 -0.29591018 -0.0386355 -0.121500455 0.1986734 -0.591002 0.089664176 0.3052003 0.20220028 0.63660794 0.8116544 -0.014494754 -0.7063024 -0.26923025 0.20749944 0.23485905 -0.61722475 0.39828634 -0.06366666 -0.28645194 -0.17457198 0.31411204 0.32830268 -0.04391631 -0.12720352 -0.30542746 0.044342354 -0.21029115 -0.043165185 0.029019825 -0.118922375 -0.41123822 -0.1687423 0.20228572 -0.25219518 0.299379 -0.650122 0.1026912 -0.27517003 -0.017961068 0.15490285 0.68423045 0.09748083 0.22881564 0.5088181 -0.33657697 -0.21285541 -0.11662911 0.75921494 0.3287597 0.6038411 0.6515849 0.15977211
96 -0.042950325 -0.4089067 -0.47091264 -0.0124859605 0.1841199 0.22306272 -0.112722374 -0.093101546 -0.49726528 -0.12801501 -0.20679653 0.07090423 -0.4628284 0.109167874 0.15177001 0.5068535 -0.37975708 0.41095546 0.1267179 0.06401943 0.0017113929 0.60288286 -0.3501003 -0.25850543 0.00032336963 -0.424783 0.31390417 -0.23153366 0.3178168 -0.35099128 -0.2793098 0.17427562 0.58187705 0.021035641 -0.027435424 -0.44901764 -0.24400315 0.3738245 0.010135086 -0.04545992 0.35619864 -0.35530365 -0.22862351 -0.07554926 0.41258606 0.3281093 -0.111740954 0.23307353 0.11013751 -0.10827804 0.054735288 -0.091243066 0.6149913 0.17784002 0.3661149 0.68846524 -0.2100357 0.2681236 -0.70828736 0.83283 0.13885128 0.38159704 0.59617263 0.5963763
78 -0.010943141 -0.914211 0.12813531 0.13204226 -0.8681561 0.3020814 -0.31421015 0.2823909 -0.4108452 0.18691435 0.09837159 -0.1383948 -0.41971424 -0.28264764 0.25508615 -0.12255291 -0.023768852 0.28381655 -0.06606163 0.23008424 0.48415062 0.2805495 0.7119309 0.0027206917 0.2810346 0.35135025 0.32114354 -0.31624466 0.0016389117 -0.24008553 0.25256407 0.079410836 0.36658925 -0.11190825 -0.30632472 0.5821023 0.5600395 -0.054536164 0.14208862 -0.22895157 0.32336304 0.025291463 -0.59585005 -0.040892247 0.33323264 -0.55200475 -0.089084715 0.19342346 0.3095878 -0.1216646 0.111312814 -0.289292 0.018792348 0.5042207 -0.031875543 -0.17587912 -0.021021176 -0.56215566 0.34323153 0.46946543 0.034466635 0.72870797 0.42557204 0.40468082
33 -0.18885382 -0.3222788 -0.1247187 0.14395964 0.27738935 0.089847624 -0.67993563 -0.18872221 -0.4079752 -0.17069884 -0.22731213 -0.63322514 -0.3889721 0.027223062 0.107982434 -0.10902493 -0.4661426 0.2180222 0.09126084 -0.13818976 0.5380665 0.9264339 0.16410112 -0.62259287 -0.19521323 0.248119 0.12375069 -0.25104162 0.1139507 -0.1441258 -0.3635223 -0.22574946 0.46660128 0.253496 -0.15882173 -0.101828456 -0.04882814 0.07783747 0.03461356 0.0011381756 0.009230983 -0.03888521 -0.35146725 -0.2913634 0.07786764 0.08516384 0.035296172 -0.22965695 0.30765134 -0.24120952 -0.00060905534 -0.19269814 0.6768447 0.2528238 0.15492572 0.36530685 -0.4420384 -0.26180717 -0.14443898 0.72742975 0.40680775 0.47520444 0.5869608 0.24595329
169 0.034396753 -0.7990442 0.25763303 0.07345949 -0.75618446 -0.2986687 0.06353362 0.44129074 -0.6287987 0.122472614 0.15900193 -0.3693756 -0.5080827 0.23167762 0.39435464 0.33954084 0.06308247 0.43240547 0.18521586 0.52258754 0.11683739 -0.0032924244 0.6927038 -0.06745396 0.6025786 -0.48730472 -0.10329569 -0.053021353 0.24571268 0.16099665 0.2464147 0.15550247 0.29182762 0.25712958 -0.52768356 0.15025367 0.027900472 -0.27932617 -0.081761695 -0.11561638 -0.10888787 0.58371884 -0.3720813 -0.18453749 0.42563754 0.15277745 0.15191318 0.16808547 0.11042147 0.15988939 0.088548 0.09643769 0.5713621 0.52312475 -0.13344038 -0.60567605 0.1986991 -0.577595 -0.06820006 0.50169575 -0.1761984 0.43531638 0.41024607 0.50187767
175 0.11971766 -0.48583427 -0.15401326 -0.16064727 0.3306382 -0.15458122 0.19803767 -0.047438614 -0.78518534 0.083440386 -0.31042263 0.031772166 -0.42581838 0.05034812 0.4655318 0.525562 0.17297913 0.27447155 0.2543269 -0.18445195 -0.012104094 -0.05653802 -0.5367103 0.14281873 -0.06698675 -0.4067155 0.21097846 -0.278038 0.65859056 -0.35202217 -0.07220821 0.57268244 0.09449253 -0.30660692 -0.0063377162 0.15194584 -0.18852013 0.42398956 -0.14211832 -0.34213203 0.28226122 -0.083285324 -0.2850183 -0.11356022 0.21838774 0.3125388 -0.33851427 0.24901807 0.23289394 -0.022468982 0.010857047 0.3539045 0.4781752 0.2855472 0.078072906 0.7236682 0.041201796 0.01570254 -0.36744186 0.55755913 0.24919155 0.32923302 0.1334906 0.16605006
68 -0.0066747637 -0.2469946 -0.15187 -0.008402448 0.07452202 0.24733965 0.019914316 0.008285024 -0.6677083 0.19160351 -0.33802196 -0.019121403 -0.48515734 0.2757706 0.25571224 0.61832327 -0.0737282 0.47967252 0.11906863 -0.14757782 -0.0745125 0.12159349 -0.55877966 0.10719836 -0.15752265 -0.48223746 0.4172481 -0.25631264 0.5639263 -0.4794136 -0.22968094 0.394465 0.3227743 0.12887007 0.09719719 -0.14577508 -0.24256197 0.3357509 -0.2401992 -0.04471676 0.3833377 -0.20812331 -0.30741626 -0.104954876 0.2636953 0.39000037 -0.28662363 0.38415128 -0.01432612 -0.09227901 0.132401 -0.11648896 0.5979583 0.025424 0.31254348 0.6043928 -0.04913992 0.15332869 -0.3715827 0.8088803 0.1487797 0.42111132 0.59490865 0.40588754
135 -0.11248852 -0.55505633 0.22192368 0.10903259 -0.57666254 0.18333636 -0.44586277 0.37167582 -0.2805118 -0.059463575 0.22568385 -0.4051794 -0.5004774 -0.07471456 0.17190428 0.03156124 -0.1003342 0.35812503 -0.20561843 0.15482824 0.5977329 0.4803136 0.71725017 -0.41424412 0.14748472 0.04109434 0.23948137 -0.40216675 -0.16815123 -0.014686622 0.023068305 0.19939806 -0.007786046 0.28597125 0.030602071 0.36511335 0.21716146 -0.30863187 0.3442399 0.17316876 0.04337165 0.26134995 -0.46291476 -0.22808585 0.19489436 -0.36037952 -0.12018485 0.047865894 0.31138033 -0.39747867 0.34564131 0.009889485 0.039144907 0.2370982 -0.2936449 0.10870947 -0.28918645 -0.33374718 -0.08076983 0.3590265 0.05532247 0.59432817 0.5696263 0.22603808
98 -0.01837077 -0.16623566 -0.12501538 0.12119372 0.0430038 0.27539122 -0.05433195 0.008485767 -0.71598583 -0.044678297 -0.29827002 0.1482818 -0.6259597 0.25331506 0.33437198 0.47250953 -0.2739762 0.624135 0.16831778 -0.029374637 0.08107431 0.1724557 -0.427621 0.12566976 -0.112022765 -0.6348387 0.45498404 -0.26368234 0.5833486 -0.342241 -0.21803747 0.33944744 0.51352924 -0.07246819 0.21029857 -0.22097073 -0.2881996 0.47518602 -0.24204376 -0.003329038 0.45453164 -0.21668795 -0.40411454 -0.14285043 0.2960419 0.38573614 -0.2832451 0.42939574 -0.0054762266 -0.11854913 0.22634563 -0.16763291 0.591821 -0.038448337 0.4498908 0.7563668 0.031037368 0.17405395 -0.48515236 0.73854923 0.030458575 0.41916952 0.74641573 0.46275604
31 0.37541887 -0.12743606 -0.26863655 0.07783156 -0.26411754 -0.0434007 -0.3718624 -0.10694274 -0.90950185 -0.14475836 -1.2115519 0.10249005 -0.8732136 0.06741019 0.17716128 0.7889966 0.27279463 0.68812203 -0.25248232 -0.117233686 -0.27525982 0.08651981 -0.2923437 0.16827813 0.40517053 -0.45747367 0.76147014 -0.31493598 0.13386112 -0.021793693 0.15755774 0.31537715 -0.28765216 0.7214877 -0.039506525 0.0940338 0.013095936 0.2646355 -0.26258048 0.45082617 0.7408208 -0.3483 -0.21408533 -0.06262487 0.35968474 -0.24033615 -0.5009623 -0.0344326 -0.015755348 0.04539035 0.24581645 -0.37708074 0.57855755 -0.03654838 1.0351071 0.5419711 0.14960586 -0.34872866 -0.6136659 0.514963 -0.454703 0.5082243 0.2929398 0.7177107
173 0.0800736 -0.6805895 0.54267424 0.16844137 -0.75594497 0.032665186 0.16544873 0.4602936 -0.5967706 0.42486924 0.20538889 -0.39581302 -0.5883976 0.12835641 0.3229657 0.56769264 -0.028990988 0.5346741 0.27892578 0.38343415 0.16561826 0.00035883312 0.8060391 -0.20921265 0.7548564 -0.42044267 -0.18734051 -0.122177415 0.31293085 0.40665433 0.32144898 0.30389124 0.16919054 0.051884048 -0.42114857 0.021408258 0.37700567 -0.14172979 -0.007921757 -0.13440183 0.06113036 0.3206003 -0.46885046 -0.08169517 0.49042287 0.07750447 -0.04740144 0.28424728 0.3811248 0.25095654 -0.15049578 0.017200785 0.22092755 0.6764505 -0.25111696 -0.41398585 -0.09904669 -0.50025564 0.22826904 0.316773 -0.10073373 0.48960784 0.66827786 0.45512882
138 -0.4118476 -0.5661496 -0.004693084 0.18820316 0.16046575 0.10622896 -0.9724536 -0.15175109 -0.38021448 -0.16596606 -0.20780565 -0.66994673 -0.18228823 -0.012394851 0.101460576 -0.08278332 -0.3030619 0.1640053 0.0029374422 -0.16468926 0.8323848 0.7813498 0.3304997 -0.34391752 0.10170247 0.15013355 0.07541337 -0.13927823 0.03310131 0.00305524 -0.49785197 -0.13977449 0.4206853 0.20726092 -0.0020333487 0.05850059 -0.007125882 0.04990848 0.24581526 0.019753922 0.16408592 0.072405815 -0.423226 -0.25194895 0.08237096 0.011083813 0.24014577 -0.25989005 0.1565799 -0.33990476 -0.0077918903 -0.23681949 0.38877916 0.51099366 0.2065062 0.14853226 -0.28501078 -0.38936082 -0.2562974 0.93378913 0.07529612 0.2378389 0.51556295 0.31026778
57 0.44097254 -0.59861726 -0.034768287 -0.20592946 0.32080096 -0.25030342 0.13094744 -0.1573414 -0.80013144 0.13434519 -0.21833138 -0.16818635 -0.61007255 0.37968472 0.16055706 0.64218265 -0.11938281 0.35263067 0.22589669 -0.28870463 0.1560552 0.058856018 -0.6661899 -0.114820674 -0.19860289 -0.20029348 0.24866559 -0.14831884 0.57129306 -0.24422508 0.10073021 0.45277545 0.11018865 -0.17582004 0.14872539 -0.2089025 0.018590806 0.5165131 -0.22259116 -0.40271023 0.33069602 -0.4604762 -0.21358864 -0.17775694 0.56098825 0.4166348 -0.42316604 0.30459535 0.15874128 0.040321097 -0.14894438 0.26436418 0.37641892 0.162971 0.25193724 0.8913792 -0.19328465 -0.012717183 -0.2005203 0.6727656 0.40258414 0.5496265 0.15919393 0.3702708
110 0.12472101 -0.7793585 -0.017456885 0.09411863 -0.4127628 0.017569471 -0.44097608 0.26580447 -0.11740395 -0.29503214 -0.058300205 -0.31112647 -0.68424267 0.082576446 0.32594267 0.5104391 -0.08101987 0.049664643 -0.28022656 0.026679425 0.27487415 0.040150095 0.59185624 0.19373187 0.2019539 -0.050695524 0.3850707 -0.6848621 -0.025138779 -0.023770262 0.22901517 0.33653897 0.2506484 0.48595873 -0.54317427 0.10857941 0.6296033 -0.20685129 -0.2143321 -0.264619 0.12467934 0.44259658 -0.108225234 -0.40754128 0.6155556 -0.41404608 0.2835603 0.35002506 0.45246294 -0.13435335 -0.3365093 -0.22482044 -0.22274259 0.15265246 -0.40893704 -0.41575676 0.25001958 -0.41624925 -0.14340915 0.54339004 -0.10820955 0.5055291 0.46103907 0.08621295
165 -0.18214244 -1.0489085 -0.72644186 -0.046165492 0.08203632 -0.17138799 -0.7752977 -0.36886492 -0.17805685 -0.22186536 -0.6208349 -0.7799056 -0.19211663 0.12060065 -0.2240824 -0.13632034 0.014174123 0.4485181 -0.12207091 0.36911458 0.5360443 0.9898528 0.35122654 -0.5741743 0.50822484 0.1334703 0.43162438 -1.0243019 0.43734172 -0.070608325 -0.35554364 -0.029221712 0.117526695 0.4007421 0.13860053 -0.53442746 0.19342418 -0.3293561 -0.48779836 0.82545894 0.21877678 -0.3149841 -0.5105386 -0.40389615 -0.089418575 -0.33039302 0.084907256 -0.57324106 0.6240006 -0.6027494 0.27350062 0.11217077 0.7484973 0.30578834 -0.4380074 0.43473983 -0.26233622 -0.17807111 0.018442178 0.66068757 -0.23497865 0.21379736 0.37659845 0.2078122
103 -0.10830376 -0.15754616 -0.10883039 0.05024903 -0.011399381 0.3023016 -0.12555608 -0.029063135 -0.7319537 0.16679007 -0.3319422 0.07881544 -0.48463696 0.25756407 0.29293108 0.60406494 -0.19040148 0.49177304 0.20104943 -0.121045806 -0.07773301 0.122096725 -0.44063163 0.16279736 -0.13395333 -0.6654108 0.39749986 -0.15616421 0.52515775 -0.40331632 -0.15760095 0.37212974 0.30733448 0.014862125 0.09043627 -0.053541657 -0.37179285 0.3737093 -0.2791309 0.0041937353 0.545642 -0.21056697 -0.2246383 -0.06679583 0.23489374 0.2713693 -0.29862675 0.27846554 -0.014199651 -0.093171515 0.12935972 -0.23947869 0.6523559 -0.040610235 0.4601709 0.62025166 -0.019107975 0.057542823 -0.5320941 0.73332477 0.10481816 0.46726862 0.68552446 0.44764
4 -0.02829961 -0.46408015 -0.29643357 0.032612618 0.3283542 0.13210303 -0.5769396 -0.26129222 -0.37553096 -0.0586407 -0.20422207 -0.6357513 -0.34028214 0.10838797 0.19045037 0.23553398 -0.4452448 0.24338055 0.30525914 -0.19918244 0.313196 0.9089863 0.060489863 -0.5648734 -0.3541076 -0.051592518 0.27455446 -0.26040226 0.10979799 -0.18136455 -0.43854538 -0.139046 0.47666937 0.20719953 -0.06770938 -0.09755955 -0.25770664 0.1387821 0.011109151 0.002407337 -0.04923878 0.05677396 -0.35670388 -0.41863522 0.033542834 0.20565465 -0.011529841 -0.16909741 0.21126714 -0.33402577 0.23974925 -0.030455446 0.66834974 0.26442832 0.121943526 0.4648522 -0.43670624 -0.1649193 -0.085276514 0.66333467 0.33665586 0.53892624 0.59724766 0.272686
192 -0.028643483 -0.7752174 -0.3902898 -0.043659046 0.66532856 0.0031664672 -0.65880334 -0.33565307 -0.5846533 -0.15688753 -0.1487344 -0.49982297 -0.35779068 -0.03782351 0.24780005 0.36865625 -0.4419432 0.29388046 0.36218205 0.007605679 0.37960148 0.8714054 -0.046209626 -0.6702477 -0.1256159 0.013139654 0.122147165 -0.27180243 0.3544262 0.07226998 -0.35372707 -0.015377258 0.36824644 0.12797913 0.13617289 -0.07094502 -0.28189215 0.2710077 -0.11843104 -0.16723701 0.05542101 -0.013516753 -0.42153168 -0.36138672 0.17166497 0.1608365 0.14519536 -0.29388872 0.25350103 -0.2520202 0.17592432 0.20217055 0.7284232 0.22279352 0.07825903 0.47453293 -0.2734834 -0.109430425 -0.051449776 0.62321645 0.28491893 0.43168634 0.5760237 0.02695329
39 0.2600307 -0.4443549 -0.19303119 -0.2247315 0.3453461 -0.10526256 0.08679496 0.003567209 -0.87802905 0.11076722 -0.5499958 0.0110015515 -0.55669665 0.15664296 0.24025385 0.5346431 -0.064709686 0.4766718 0.29215297 -0.18552673 -0.02843365 0.123336084 -0.45645502 -0.0062551904 -0.09522207 -0.21823955 0.34863392 -0.36673507 0.5444589 -0.30014116 -0.14283662 0.6172345 0.18225864 -0.13360603 0.08717584 -0.05354236 -0.031630374 0.58937466 -0.17957292 -0.4481816 0.2805267 -0.28532627 -0.5649175 -0.08822842 0.24722108 0.46205577 -0.19357367 0.07948852 -0.073600665 0.028603489 -0.09356895 0.37509766 0.3679463 0.13564555 0.12928212 0.83238286 -0.14871308 0.042331308 -0.28994167 0.55973923 0.45881006 0.4496865 0.25195146 0.3011877
195 0.21206439 -0.8291494 -0.3602432 -0.3059647 0.6007647 -0.016871229 -0.661979 -0.051043235 -0.43836817 -0.3037984 -0.1993087 -0.44755358 -0.34365112 -0.060842406 0.29724157 0.5143458 -0.3929418 0.3872048 0.6179519 -0.081503406 0.089747116 0.5681535 -0.119891696 -0.5150259 -0.06420116 -0.14558485 0.034811195 -0.25480068 0.2731938 0.067403786 -0.55454886 0.042800687 0.32518083 -0.12138521 0.14615886 -0.15385269 -0.19980365 0.29333895 -0.06764106 -0.29665184 0.21102342 -0.037988197 -0.3947038 -0.39060056 0.19021295 0.42235747 -0.020497866 -0.29438 0.29349 -0.28482294 0.13703136 0.0906798 0.770623 0.14464623 0.14118294 0.53942394 -0.4757572 -0.041841622 -0.13211958 0.62930363 0.28694648 0.52931494 0.59190935 0.08186715
35 0.601351 -1.1405281 0.33209327 0.06942661 -1.0145307 0.16809848 -0.1195853 -0.18356866 -0.4323278 0.49053666 -0.8131474 -0.3287924 -0.90715075 -0.47476292 0.5416565 1.1537695 -0.34808016 0.75700057 0.2538966 0.3719211 0.06485694 0.8648222 0.9389135 -0.8251108 0.3581487 0.2522486 0.030226234 -0.22313055 0.3820461 0.12508331 0.3126965 0.5552015 0.028739428 -0.09178354 -0.39024246 -0.56403047 0.6507485 0.418066 -0.58113456 -0.60752875 -0.17101246 0.23627578 -0.29040077 -0.46097365 -0.0778284 -0.07016067 0.1865972 0.22720884 -0.40049943 -0.08744273 0.09607033 -0.6970724 -0.049961224 0.5693953 0.22356865 0.37381765 0.055050716 -0.042006116 0.25466943 0.29371476 -0.15860453 0.6302588 0.116127655 0.14351353
77 -0.0022417791 -0.26239884 0.21342753 0.1271453 0.010284439 -0.20790453 -0.019314572 -0.18714815 -0.7708091 0.16666518 -0.6835009 -0.5116238 -0.70006883 -0.009521925 0.2873928 0.5393998 0.18428634 0.19527449 -0.0738369 0.54951465 0.16785154 -0.055756316 0.18776998 0.10377833 -0.15628773 0.27950045 0.16015168 -0.4304209 0.24516228 -0.39726007 0.18253398 -0.0017599807 -0.30366564 -0.14771946 -0.3167801 -0.10344359 -0.027390294 -0.0534733 -0.5556825 -0.09674554 0.7024706 -0.45601064 0.28370544 -0.017567163 0.2817844 -0.41852242 -0.3003518 0.074645974 -0.06842459 -0.62446296 0.3729021 -0.026876243 0.5785042 0.6105911 0.50115156 0.31317106 0.083699 0.48827618 0.18185128 0.28190163 -0.08740435 -0.15707843 0.1977758 0.04992134
17 0.1067041 -0.76117754 -0.3961632 -0.17116417 0.67846316 0.10926226 -0.5987118 -0.18229504 -0.58368057 -0.24415676 -0.18339053 -0.53307235 -0.36248824 -0.001623023 0.3886772 0.41588974 -0.43029347 0.30283558 0.519335 -0.10674714 0.28008902 0.7294377 -0.0989682 -0.63732064 -0.08900869 0.064942844 0.10163416 -0.3034388 0.37055346 0.14919299 -0.5002781 0.042511884 0.40696663 -0.00688298 0.09805693 -0.080894664 -0.22729824 0.32483393 -0.14156237 -0.35220793 0.2344481 -0.0063198903 -0.38703528 -0.39967787 0.24297354 0.30562493 0.028431825 -0.26904488 0.24251895 -0.30988666 0.121819586 0.115187675 0.7807449 0.17931506 0.1306874 0.5120665 -0.29038888 -0.07429161 0.058084235 0.599491 0.25212458 0.455251 0.5211102 -0.038725406
89 0.076956674 -0.6433308 0.21428026 -0.11669943 0.04749769 -0.20862412 -0.17844518 0.10107843 -0.77952 0.4601069 -0.9538997 -0.66587216 -0.5637021 0.03349942 0.37121916 0.9288107 0.06278562 0.09598046 -0.1921022 0.5983788 0.025001967 -0.21286115 0.30147925 -0.006902594 0.03632051 0.44902423 0.09678626 -0.5835557 0.20664364 -0.3337111 0.14625433 -0.33826888 0.07007919 -0.027159486 -0.25389335 -0.020437857 -0.1571353 -0.09331165 -0.45297518 -0.4325353 0.7432496 -0.60897714 0.27702314 0.27653953 0.44691062 -0.39266795 -0.2025026 -0.06122525 -0.19121854 -0.58363026 0.39720187 -0.0053594704 0.4701526 0.49938014 0.4020364 0.061041057 -0.15456215 0.63487506 0.25117204 0.28137892 -0.27115527 -0.063111536 0.27840924 -0.037035123
194 -0.20295872 -0.73005617 -0.39029294 -0.362983 -0.56292975 0.057105467 -0.28679797 0.2000286 -0.5606048 0.025102496 0.26070702 -0.8340494 -0.021805648 -0.6291576 0.45264885 0.33844456 0.097953804 0.5268959 0.39241585 0.6399382 0.106712975 0.16072896 0.25362948 0.026978651 0.35266578 -0.1677151 0.14219692 -0.90897757 0.27876422 0.015707413 -0.07364953 0.3150393 0.004917316 0.27022803 -0.81070685 0.3195339 -0.17797619 -0.48780942 0.48894763 0.2665132 0.2952772 -0.03117153 -0.2517099 -0.28772813 0.5448392 -0.49151218 -0.48431265 0.46680444 0.45673332 0.35163072 0.16911033 -0.25666308 0.24497567 0.5287491 -0.011380553 -0.66068393 0.19637334 -0.15555462 -0.07351836 0.55687517 0.28774235 0.4607916 -0.02219604 -0.20534956
32 -0.11019027 -0.33020282 -0.3622305 0.12879634 0.1351529 0.3477149 -0.07089263 -0.016362194 -0.66664714 -0.021735681 -0.10388444 0.11572954 -0.6169718 0.3143768 0.14624806 0.5756205 -0.30362403 0.4983055 0.08736038 -0.09482246 0.06941249 0.30201852 -0.4818959 -0.14673978 -0.017011417 -0.50452226 0.3903861 -0.19887199 0.5093312 -0.29593447 -0.34140396 0.29200327 0.42559245 0.058933195 0.0645354 -0.29318786 -0.28179798 0.3633738 -0.07971089 -0.067988664 0.47989184 -0.32444715 -0.25394645 -0.13143913 0.47994557 0.28095374 -0.32634383 0.3457994 0.043905634 -0.14635257 0.14048117 -0.25396627 0.6552712 0.0028586278 0.46664453 0.68908507 -0.17047738 0.1881635 -0.5947571 0.9715776 0.14160259 0.3785249 0.47134176 0.49495476
132 0.37657294 -0.735189 0.23402543 0.30830613 -0.54342675 0.099325754 -0.11079452 0.22829641 -0.48054856 0.22389439 0.03322533 -0.023168402 -0.72645587 -0.06833517 0.19826128 0.07623664 -0.2442409 0.294615 -0.13516346 0.29458553 0.29549578 0.25789124 0.86134887 0.17383923 0.41480774 0.16935498 0.20193225 -0.33242127 0.077458814 -0.21782495 0.491278 0.30007035 0.4820195 0.033718277 -0.35707608 0.3357869 0.62033314 0.12430582 0.048602257 -0.5324442 -0.0488179 0.32188264 -0.4666938 -0.23838715 0.20257589 -0.19834705 -0.16844949 0.47799626 0.25204563 0.034776583 -0.12071995 -0.14408034 0.06414284 0.8530168 -0.09510632 -0.2580068 0.1277222 -0.8048097 0.3260316 0.597997 -0.18271612 0.7287799 0.29618174 0.40323254
186 0.4910293 -0.9132581 0.03325498 -0.10889294 0.14387196 -0.21693297 -0.64515287 0.46846032 -0.9574636 0.64306945 -0.9621172 -0.925809 -0.50556314 0.21430561 0.53454673 1.3419122 -0.22028135 0.35673204 -0.053782973 0.7510997 0.21440065 -0.1630591 0.42250335 0.033579096 0.17193408 0.54951656 -0.16386689 -0.78685683 0.06331395 -0.39412504 0.22155699 -0.38239634 0.04867027 -0.11963019 -0.45347673 0.27251452 -0.029476045 0.26553398 -0.6577329 -0.88050014 0.6048883 -0.5283643 0.09220066 0.046139628 0.2513985 -0.44368896 -0.26086196 -0.015015896 -0.09440414 -0.630991 0.35273013 0.028423512 0.46442583 0.7537496 0.64189273 0.18303275 -0.10890569 0.75100607 0.2514545 0.16169149 -0.48043883 0.036992826 0.08479522 -0.5498351
92 0.46705294 -0.81665015 0.6495971 -0.13861987 -0.99269193 -0.0055165994 -0.33549792 0.18563049 0.32404426 0.10103251 -0.057530925 -0.07338756 -0.3939727 -0.6667272 0.25364926 0.64587134 -0.035583563 0.68124944 -0.018715354 0.31577322 0.41556853 0.56111336 0.9308533 -0.50160354 0.57145286 0.29886395 -0.23607773 -1.0897163 0.69568485 -0.27323145 0.32538447 0.18757144 0.08258954 0.23619413 -0.67264783 -0.037738238 0.58308583 -0.08544943 -0.266283 -0.2288123 -0.26829427 0.5191933 -0.58374304 -0.5321425 0.58031046 -0.050828367 0.23889971 0.35356653 -0.022709696 -0.17904326 -0.25984716 -0.15988635 0.112604134 0.43576097 0.3755559 0.5592028 0.09500584 -0.6852933 -0.14015955 0.5362429 -0.12243115 0.36837015 0.27515206 0.31535223
189 0.5463051 -0.92970353 0.624505 -0.09654502 -0.7280638 -0.100654624 -0.400069 -0.29422525 0.070597336 0.5797733 -0.4470202 -0.16209482 -0.30953777 -0.56847066 0.40975976 1.0691658 -0.1447782 0.8761596 0.032631293 0.51080644 0.34667838 0.6441947 0.903042 -0.75030094 0.68719447 0.17172334 -0.29728258 -0.74769527 0.9834173 -0.07693424 0.41809878 0.2972748 -0.17718767 0.24617538 -0.5985307 -0.49938968 0.46884874 0.22758237 -0.7111222 -0.5470241 -0.06318674 0.50554454 -0.547436 -0.47156385 0.56889457 -0.28222552 0.47170195 0.2204599 -0.110964075 -0.14193319 -0.024454871 -0.33476472 0.1500545 0.6465672 0.5821005 0.46108657 0.18227078 -0.20817988 -0.16181421 0.6119439 -0.3114686 0.60577494 0.46998814 0.27714893
58 0.11472231 -0.75296426 -0.06807645 0.19930603 -0.4632093 0.007833685 -0.053875286 0.58123624 -0.51815295 0.042613354 -0.2254469 -0.18818791 -0.45722494 0.31528285 0.74254954 0.16426204 0.26611078 0.032549817 -0.111612596 0.5162785 0.62360275 0.22246669 -0.1518233 0.47030467 0.15351416 -0.07342667 0.15399437 -0.6950322 0.3250724 -0.10351565 0.07013238 0.15581319 0.36324418 0.6571844 -0.47524345 0.5659599 0.77289444 -0.2751599 0.22052373 0.22550723 -0.13587841 0.3364279 -0.180225 -0.16381249 0.28045374 -0.21267998 -0.0699928 0.6350795 0.36666033 0.27514583 -0.18247485 0.21207695 0.6234937 0.19823493 -0.17720142 -0.04823206 0.06380865 -0.59681416 0.06726206 0.3954825 0.38122067 0.27270004 -0.06303881 0.055462874
34 0.106836684 -0.7873046 0.22757384 -0.05376083 0.17302953 -0.080566026 -0.3348291 0.33488098 -0.8226744 0.6218211 -0.89210415 -0.70354295 -0.38057494 0.1506229 0.504932 1.0644603 -0.07970231 0.09976172 -0.23852566 0.47309902 0.021445377 -0.2770807 0.3214757 0.026639119 0.14488345 0.5768617 0.18305178 -0.6646916 0.23696251 -0.325137 0.21793573 -0.3006993 0.11337337 -0.06939338 -0.2267941 0.22091672 -0.15554808 -0.019269103 -0.4256431 -0.6393894 0.6737451 -0.4841696 0.12457604 0.20567422 0.5038112 -0.36146426 -0.19125211 -0.065459765 -0.2563552 -0.7247444 0.48256698 0.038107015 0.4804433 0.5786311 0.44580182 0.15538378 -0.16561152 0.6703007 0.29356894 0.23472194 -0.31937876 -0.095934026 0.3662589 -0.1692024
143 -0.09232729 -0.6071111 -0.028762093 0.2145466 -0.3838494 -0.25189343 0.052036945 0.54114944 -0.61874497 0.25485933 -0.21931335 -0.36674783 -0.49951506 0.05456472 0.73790574 0.09754396 0.53400344 0.27784434 -0.45753118 0.2342374 0.43119812 0.027401002 -0.2123899 0.71502066 0.33402115 -0.2026244 0.32014617 -0.6095144 0.35963148 -0.2635341 0.17227395 0.26257548 0.13120404 0.6890373 -0.584572 0.35219675 0.32483777 -0.119404964 0.51099896 0.24411835 0.0975221 0.16198197 -0.059638955 0.039603367 0.320792 -0.17320585 0.008334187 0.3911673 0.35771167 0.0463171 -0.22791657 -0.08673569 0.51164335 0.07469959 -0.09456754 -0.007273259 0.02967971 -0.46535954 -0.18975775 0.30481955 0.4155698 0.43722045 -0.16583046 0.21845016
38 0.03690303 -0.6812272 -0.30828094 -0.13562955 0.31666833 -0.18488495 -0.73288476 -0.111871555 -0.4180762 -0.27716085 -0.22877347 -0.6464118 -0.2728479 -0.19381496 -0.039641097 -0.019003687 -0.69715554 0.113260575 0.2912096 0.39590162 0.5975039 0.8061941 0.12805174 -0.41873607 -0.13134344 0.25578216 0.26396984 -0.6289737 0.15746085 0.08126554 -0.3578226 -0.19553235 0.03223465 0.40649644 0.202053 0.12741914 -0.09525964 -0.2079221 0.034665264 0.12979953 0.13804594 0.008657745 -0.53210735 -0.19707514 0.05158603 -0.13403541 0.5304475 -0.42988536 0.36668372 -0.2599949 -0.06996488 0.3332492 0.5197985 0.31940195 0.03623689 0.17474318 -0.14413904 -0.3049223 -0.21564889 0.720974 0.35799482 0.17176053 0.5553879 0.30309257
