108 64
54 -0.2102753 0.37751195 0.16377212 0.20092517 0.36791623 0.044070773 0.6135595 -0.671997 0.1835944 -0.2667311 -0.081752285 0.24589969 0.25437638 -0.28494588 -0.10257487 -0.37487337 -0.019458218 0.07024281 0.059863206 0.97964436 -0.39204222 0.4021339 -0.11026848 0.33784288 -0.23541331 -0.09066714 -0.29011327 0.31410575 -0.016177053 0.37302274 0.49345046 -0.31337613 -0.41694164 0.13980208 0.13849188 -0.117134556 0.4995144 -0.2156882 -0.3730799 -0.29756194 0.20225427 0.012444091 0.028310133 0.23841812 0.07883323 0.3527451 0.28944752 -0.070781834 -0.087757446 -0.26878703 0.1443158 -0.10834167 0.292254 0.384792 0.29242992 0.1531995 0.084025554 -0.3189603 0.18830448 0.0988807 -0.69887245 0.1659018 0.08621607 -0.12326447
55 -0.17056668 0.22421367 0.2785328 0.23413154 0.42957106 0.111118585 0.34761548 -0.3889748 0.34617054 -0.19476546 -0.20223486 0.2293331 0.21355386 -0.44436115 -0.11096522 -0.13623093 0.1285045 -0.071391135 0.024593277 0.61227816 -0.25095886 0.23657547 -0.22705899 0.27201816 -0.081876576 -0.1108628 -0.3705282 0.41669336 0.07292966 0.3360401 0.324994 -0.12158629 -0.24074356 0.16868068 -0.18861501 -0.1485544 0.46161357 -0.12254475 -0.30281186 -0.16772358 0.16563742 -0.06415197 0.008097867 0.20760106 0.101124056 0.25762948 0.35551307 -0.07650098 0.06802461 -0.17421626 0.22855407 0.008469728 0.30199212 0.11481965 0.3032043 0.17572986 0.096109025 -0.5760111 -0.058871645 -0.12554796 -0.34645844 0.02453825 -0.075764455 -0.106568255
32 -0.28911635 -0.18009642 0.0910393 -0.052851655 0.42881498 -0.07134282 0.12671053 -0.190283 -0.18873127 0.10686626 0.033790123 0.28652623 -0.31382906 0.023831138 -0.13991934 0.4963917 0.21402963 -0.3128684 0.20935619 0.44762823 -0.28253603 0.031517774 0.21866721 -0.24657126 -0.17182285 0.17646319 0.27613634 0.025709743 -0.21580851 -0.17849438 0.15854964 -0.15024328 -0.20400615 -0.5013974 -0.29108334 -0.096168816 -0.35468146 -0.16434734 -0.42202014 0.19102706 -0.048479814 0.39540026 -0.029120125 -0.32529983 -0.0150774345 0.20838994 0.15252498 -0.4468882 -0.30942082 0.54429436 0.25515354 0.10347895 0.18714397 -0.2349843 -0.046737146 0.03441391 0.03799091 -0.097651415 -0.3477367 0.11003538 -0.34281197 0.05151565 0.404082 0.50266045
31 -0.44164854 -0.325925 0.16470613 -0.12613492 0.535288 0.0080008665 0.27961665 -0.2725284 -0.11406241 -0.16175127 0.012987981 0.1702744 -0.25353408 0.092965685 -0.3471991 0.8113397 0.17536192 -0.19202149 0.13656816 0.5028493 -0.13161474 0.07906471 0.090453066 -0.16062278 -0.146943 0.3216852 0.24867016 0.13689975 -0.56312054 -0.23043442 0.2591701 0.19093736 -0.2614549 -0.47455254 -0.21042812 -0.16386965 -0.5061776 -0.37659118 -0.5463409 0.31353095 -0.20607713 0.23607203 -0.21169586 -0.41566122 -0.037024416 0.16888686 0.021459892 -0.5399598 -0.16329011 0.32465678 0.13544612 0.09377319 0.34433264 -0.48124382 -0.19010004 0.13419603 0.18047002 -0.14204517 -0.15780799 0.12192356 -0.54166067 0.052402552 0.2678749 0.51513666
49 0.21872734 0.04147118 0.15114905 0.11624341 0.23373927 -0.13238482 -0.037603855 -0.43538415 0.13157682 -0.074989624 -0.27133188 -0.21069188 0.16926877 -0.40295836 0.030633602 0.20656466 -0.26507837 -0.10441498 0.36747897 -0.060550187 0.34269193 -0.46072793 0.14503327 0.14196934 0.09722294 0.30555135 0.13848965 0.023584062 -0.5402791 -0.15530309 0.5090011 0.043157462 0.17786302 -0.05703534 0.45777753 -0.1255368 -0.021341214 0.2842088 -0.1550524 -0.078468375 0.14141317 -0.18511614 -0.0028611312 0.07478882 -0.24161854 0.07167161 0.3094665 -0.25800276 -0.32871938 0.21040803 -0.08458642 0.01142465 -0.18889037 -0.0043071676 0.06425899 0.39942873 0.041322883 -0.08670171 -0.38828444 0.17321356 -0.0067827585 0.19377565 0.27689856 0.14435828
73 -0.15758587 0.2290558 0.21758533 0.0060777036 0.12913619 -0.11154195 -0.018781472 -0.03320749 0.39186776 -0.26015294 -0.034184877 0.03380234 0.076390624 -0.24255437 0.04728866 -0.105997056 0.23289895 -0.06567672 0.08638984 0.19165494 -0.37591636 0.19767046 -0.052129358 0.30583245 0.00871119 -0.009685289 -0.20063329 0.24555865 -0.090788126 0.11387071 0.32849306 0.036854662 -0.21531287 -0.13880304 0.12762739 0.018896047 0.52749395 -0.021076133 -0.26391664 -0.23059289 0.048919097 0.08071497 0.22135188 -0.1303842 0.23920874 0.18661052 0.4130825 0.0013957354 0.050245404 -0.08557022 0.09029861 -0.32613385 0.28400502 0.032534827 0.015451199 0.2952431 0.1598177 -0.6122429 0.008125984 -0.20418507 -0.22963203 0.13198158 -0.08413042 0.11508826
50 0.27929908 0.058953654 0.11588722 -0.052205212 0.26168817 -0.20576915 0.05838479 -0.110298865 0.45693418 0.19593588 0.021565864 -0.3228868 0.028912345 -0.2436956 -0.14987925 0.2576565 -0.2483721 -0.15706182 0.035724767 -0.26246172 0.042534836 -0.405003 -0.03973181 0.14809026 0.33588946 0.26045048 0.38956413 -0.0445277 -0.38502005 0.16337974 0.33416995 -0.03923519 -0.02426382 -0.017171293 0.28801468 -0.104088984 0.27204505 0.2323548 -0.18960626 -0.00978917 0.12371022 -0.027259294 -0.15627068 0.09059435 -0.23132518 0.26530468 0.17232905 -0.39555347 -0.3700071 0.121884435 -0.14158267 0.17972182 -0.16142443 -0.030453643 0.09459945 0.4121906 0.33984882 0.04759918 -0.5971394 0.33818474 -0.37701613 -0.15732528 -0.0014465291 -0.07478674
64 -0.026795696 -0.1715278 0.278665 -0.122792594 0.13122484 0.20907396 0.4125445 0.18132986 -0.14760038 -0.07576538 -0.12394489 0.08026969 0.14735009 0.22101511 -0.20355356 -0.16858763 -0.57339877 -0.07587963 -0.07327118 0.5866196 -0.10558259 0.2272309 0.4227322 -0.18333761 -0.23927413 0.24906065 -0.056010008 0.20868665 -0.107083045 0.25349867 0.1971809 0.047454637 -0.06666167 -0.3295727 0.1476256 -0.13881522 -0.019172087 0.082148634 0.13480292 -0.35066932 0.07437624 0.05964246 -0.072300546 0.3797762 0.038443554 0.12515485 0.31185612 0.16726482 -0.12972355 0.2023633 -0.4260975 0.0020609943 -0.26957422 -0.25778624 0.20455106 -0.019752953 0.18976972 0.007729384 -0.43151107 0.15828449 -0.57617164 0.044411507 0.082971655 0.28954625
39 -0.07671476 0.13981983 -0.15249628 0.15104504 0.30472904 -0.16574518 -0.041432045 -0.34875706 0.26934826 -0.30081686 0.25439095 -0.20885949 -0.1727248 -0.24477524 -0.09502734 0.29577968 -0.25712907 -0.20305267 -0.04739683 0.2478614 0.20100422 -0.32568923 0.0037790933 0.21228826 0.19642885 -0.058293615 -0.1632652 0.35301965 -0.22954318 -0.15159972 0.16180278 0.11341813 -0.1893071 -0.26488507 0.22429343 -0.27110675 0.41593924 -0.031186739 -0.25614184 0.24158645 -0.23986475 0.02986396 -0.06788238 -0.2821495 0.40057606 0.14696938 0.20894296 -0.6345257 -0.2054527 -0.19545142 -0.43582353 0.07336309 -0.00049133145 -0.059184305 -0.30487576 0.4652121 -0.07775911 -0.28989658 0.09502601 0.15454338 -0.056026638 0.28441224 -0.03648211 0.03618096
69 0.20483993 0.2374021 0.1041744 -0.17875281 0.3861486 0.044567823 -0.0634081 0.008300479 0.4598084 0.044945825 0.10068043 -0.048851706 -0.015123811 0.29014567 -0.28621247 -0.25283483 -0.08219656 -0.022310033 0.03798778 0.12454766 -0.2647421 0.037258804 0.13565935 0.106634274 0.124587774 0.065660074 -0.07241796 0.55390465 -0.22360967 0.111830086 0.07245365 -0.34428966 0.09995864 -0.15857935 0.07203975 0.15918761 -0.029985303 0.22662936 0.26418748 -0.52341646 0.22102721 -0.022027662 -0.28051066 -0.30969745 0.09594513 0.25985932 -0.058155965 0.018099392 0.007745426 0.36431074 -0.47991547 -0.13633694 -0.010124544 -0.30801642 0.42969227 0.48815852 0.3165122 -0.23386763 -0.15455712 0.13605425 -0.24682838 -0.042803723 -0.07260044 0.013324618
70 0.30358005 0.19089851 0.2851998 -0.22330365 0.35460168 0.020984838 0.03129438 -0.17054968 0.79469717 0.12997037 0.0073605864 -0.1276411 0.14730394 0.22848354 -0.3902392 -0.12997621 -0.025939327 -0.16525373 -0.13935879 -0.01886151 -0.38504004 -0.39708266 -0.030578332 0.12875277 0.103971645 0.24843271 0.047957484 0.6871735 -0.53752655 0.13892026 -0.035669755 -0.25582775 -0.03803571 -0.010857059 0.08077532 0.084465906 0.07270673 0.15370794 0.0064261192 -0.48877186 -0.032843392 -0.022243876 -0.09827764 -0.24080826 0.26598313 0.22373152 -0.16228455 0.097416356 -0.31419054 0.4333655 -0.51458955 -0.17417821 -0.14761592 -0.040450003 0.41129667 0.37987137 0.54847777 -0.09447475 -0.35122514 0.58672684 -0.44255197 -0.4131353 -0.23950802 0.010353864
44 0.28042796 0.2964117 0.23442702 0.036379293 0.46866077 -0.2357685 0.080366656 -0.4473188 -0.07080223 -0.13209361 -0.13016059 -0.16908726 0.57848746 -0.3142541 0.2610326 0.33910626 -0.32733184 -0.092158 0.67520064 0.0986234 0.25365877 -0.27888912 0.09918548 0.29514182 0.15456289 0.16875371 -0.0073219864 -0.011298774 -0.2230413 -0.3305399 0.29319832 -0.24581641 0.22911617 -0.03555327 0.44200894 -0.1448539 -0.31105557 0.19213296 0.03803376 0.0056900345 -0.025237177 -0.17336418 -0.09662425 0.2035455 0.03322433 0.085543826 0.296349 -0.2042725 -0.6458459 0.43373924 -0.20770904 -0.06274759 0.028934816 -0.025831375 0.33292523 0.4865414 0.2803698 -0.3943695 -0.49092785 0.39567283 0.16285375 0.3756228 0.02545443 0.11832691
72 -0.3900966 0.06271612 0.06843053 -0.23591097 0.30661887 0.012642905 -0.061076127 -0.04170439 0.2781968 0.19275013 -0.027648538 0.2849873 -0.0889084 -0.13331571 -0.053942457 0.16267641 0.09870463 0.032248646 0.44112107 0.039297685 -0.35607493 0.3186755 -0.025737356 0.48111466 -0.12199851 0.07374718 -0.16854648 0.38414195 -0.12363142 -0.10523599 0.11749838 0.0588539 -0.23648578 -0.53529084 -0.13954674 0.058236573 0.3093406 0.021395015 -0.3294895 -0.03898359 0.040724922 0.15717413 0.2488821 -0.3742606 0.289341 0.12860425 0.20879072 -0.07799897 -0.19197536 0.14633648 -0.06123517 -0.10241577 0.10898738 -0.22803421 0.06934895 0.31755218 0.15859354 -0.0803417 -0.05888798 -0.18732078 0.06653924 0.084494285 0.118410215 -0.08334878
56 0.09247502 -0.055480327 0.16387571 0.025427103 0.096926585 0.081461385 0.08901289 -0.32905436 -0.10218083 0.058850687 -0.06616661 -0.067347914 -0.10946406 -0.17037812 -0.18331243 0.14553171 -0.20266828 -0.015143871 0.18779531 0.40625447 0.248534 -0.12770167 0.15616898 -0.13459139 0.030729534 -0.22781879 0.15617979 0.01952787 -0.06521156 0.27618107 0.24085288 0.15237136 -0.0932265 0.13446917 -0.2061491 -0.12849176 -0.15536423 -0.23511103 -0.0980119 -0.2550179 -0.062025044 -0.205438 0.332249 0.13048607 -0.020479724 0.4045189 0.20371783 -0.381763 -0.04468359 0.26264846 0.15633465 0.025941882 -0.01366095 0.11782768 0.42206678 0.07239024 -0.057700627 -0.2346098 -0.5181807 -0.21189336 -0.5550283 -0.16647223 0.041476794 0.20892629
78 0.0027373554 0.06697628 0.3147429 0.084312655 0.53427875 -0.24136484 0.1776858 -0.07057696 0.13367066 -0.04740686 -0.0017303948 0.18677615 0.23021118 0.2463727 0.045438427 -0.28912565 0.0036235466 0.121337965 0.36444187 0.09556585 0.09114512 -0.051335372 0.15124092 0.119568415 0.15864532 0.05298287 -0.15398972 0.22987862 -0.34693095 -0.09556123 0.061854064 -0.30228817 -0.016663976 -0.30466124 0.14727384 0.038815856 -0.1656835 0.24821718 0.31418222 -0.6264572 0.13351317 -0.032807704 -0.22188193 -0.13277358 0.41389874 0.0904956 0.21410471 0.042237498 -0.22846717 0.20153013 -0.50083935 -0.26755348 -0.039099824 -0.1826871 0.50036454 0.36639813 0.13781099 -0.22158767 -0.08977885 0.031690177 0.1235434 0.17127581 -0.022682598 0.33592403
34 -0.3231047 0.039616007 0.29894006 -0.054608285 0.32988712 0.25941306 0.104520544 -0.09076457 -0.02415379 -0.0032488094 -0.16180705 0.13734846 -0.31568035 0.06732762 -0.28548747 0.3364954 -0.17896187 -0.1386622 0.091195405 0.18209316 0.20707284 0.05324214 0.2020867 -0.35985494 -0.15320978 0.045529373 0.32478842 -0.055892866 0.006294894 0.012899662 0.2526614 0.024912085 -0.09883893 -0.11031106 -0.18008436 -0.05965323 -0.26504743 -0.19467796 -0.2779664 -0.21408406 -0.02564774 0.10749398 -0.037338905 -0.084544465 -0.123328105 0.3331918 0.084610045 -0.523508 -0.14104035 0.4659686 0.16684453 0.09065125 -0.08985876 0.043758545 0.034294527 -0.063811354 0.17548943 -0.04004906 -0.53692496 0.10604379 -0.26067302 0.14690834 0.23488319 0.20892224
33 -0.4678432 0.10131293 0.22339879 -0.050563652 0.22208442 0.2881774 0.12123512 -0.13064015 0.16913576 0.2855471 0.008409253 0.39851022 -0.36739728 -0.1823876 -0.21523617 0.15448123 0.15506762 -0.17975977 0.36551517 0.2589327 -0.16935384 0.30607134 0.06153535 0.1661146 -0.16491805 0.18273473 0.17297052 -0.031207696 -0.11667925 -0.07032951 0.18399926 -0.07040067 -0.09339702 -0.5253837 -0.40415207 -0.19897376 -0.1432133 -0.1372756 -0.37951982 0.03413582 -0.19376914 0.32031924 0.108922735 -0.31218034 0.15851322 0.2820162 -0.008969528 -0.43407592 -0.20052895 0.60747814 0.25378627 0.008238388 0.09722904 -0.37394285 -0.05532848 0.21825652 0.17688672 -0.008041562 -0.0875127 0.20334095 0.038024142 0.08333611 0.28011942 0.24045208
35 -0.5984562 0.07981352 0.093049206 -0.16120483 0.27688238 0.012883521 0.16247192 -0.35222593 0.30057147 0.030643983 0.057158276 0.27910873 -0.23692252 -0.19709085 -0.059277054 0.053078227 0.2241357 -0.32796806 0.40103272 0.25638866 -0.11021102 0.14631565 0.06644563 0.33143365 -0.40902612 -0.024213647 0.23361687 0.22139007 -0.0128234485 -0.053510476 0.051939074 -0.02121941 -0.11380427 -0.59302884 -0.32347515 0.01161561 0.12593834 0.011084792 -0.258006 0.02173788 -0.09594577 0.4212365 -0.010782717 -0.579418 0.23436816 0.095752545 0.035747644 -0.048328202 -0.072746515 0.5143854 0.039532926 0.15846348 0.035383373 -0.16693348 0.009058475 0.36955363 0.34170407 -0.071361005 -0.14217669 -0.18599924 0.09613404 -0.14411262 0.02810184 0.13517767
57 -0.10611287 0.1463043 0.3560117 0.37577525 0.08342439 0.15550719 0.16068545 -0.3176661 0.055155322 -0.08517027 0.11436553 -0.022842504 0.14945087 -0.4728831 -0.14022237 -0.0684255 0.09432592 -0.011877756 0.13728034 0.5477158 -0.27253264 0.30691585 -0.21134827 0.041202538 0.00866535 0.061403852 0.048578802 0.19569422 -0.05011762 0.30139977 0.40350738 -0.08142006 -0.2517601 0.2594899 -0.19387259 -0.08726575 0.15968485 -0.18464561 -0.15431 -0.20691189 -0.006319838 -0.22316906 0.34512845 0.20587063 0.02642785 0.29477578 0.37808946 -0.25392014 0.12320216 -0.14060736 0.3218295 -0.12118381 0.14737889 0.20492621 0.33852085 0.42791933 -0.14480276 -0.5380859 -0.40351123 -0.28473246 -0.4150278 -0.10054902 -0.067271315 0.13142715
68 0.28570664 0.17736183 0.1395851 -0.123871475 0.31832278 0.059401534 -0.11260116 -0.14928132 0.69412833 0.1749161 0.07449387 -0.15713702 0.09326155 0.043937102 -0.2641592 0.10455273 -0.22067684 -0.28842452 -0.20216891 -0.23809525 -0.23295486 -0.29413489 0.040029164 0.16605788 0.47405922 0.33174056 0.20637584 0.4471147 -0.34381968 0.22887197 -0.023137495 -0.49668923 -0.08957086 -0.045240067 0.23252092 -0.007915769 0.08791903 0.30012375 0.08256181 -0.04828085 0.29643527 -0.018919118 -0.13849917 -0.15084143 0.10408162 0.16335501 -0.17020138 -0.24579105 -0.2529884 0.4442417 -0.33043203 -0.1006948 -0.0072417012 0.040875264 0.3480859 0.44252083 0.3876899 -0.104071006 -0.5093835 0.5213863 -0.72037035 -0.25990143 -0.0017508212 -0.018104862
58 0.17158324 -0.11551015 0.32041863 0.42520076 -0.086189486 0.081209265 0.14055732 -0.23636204 0.118494876 0.122415006 -0.051044706 -0.25226697 0.18950857 -0.31911123 -0.3815305 0.17406926 -0.058421183 0.085699864 0.17320508 0.32317674 0.04799646 0.31110334 0.029625377 0.09015121 0.010372123 -0.24908935 0.070095465 0.2471237 0.12888353 0.30928373 0.4552602 0.08688177 -0.2828323 0.009719258 -0.33105287 -0.20335451 -0.084023304 -0.24608491 -0.27335408 -0.36344075 -0.02439373 -0.25700518 0.22269014 0.21296793 -0.26737517 -0.08782155 0.49158752 -0.24700505 -0.13957249 0.030088495 0.29637018 -0.046663422 0.10944098 0.05544691 0.36515117 0.27758077 -0.091963455 -0.42334494 -0.49289027 -0.1426637 -0.61889166 -0.10317059 -0.009535946 -0.016329229
47 0.18273775 0.13482945 0.2722513 0.032784015 0.188355 -0.099602714 0.06255188 -0.4847899 0.20336565 0.06943397 -0.28711793 -0.26117182 -0.12258927 -0.025784515 -0.025506407 0.39040905 -0.25672337 -0.07743443 0.22470087 0.15137127 0.14992169 -0.15518917 0.012468559 -0.29148895 0.12541118 0.1938926 0.40572783 0.030682605 -0.14351949 0.18058378 0.34838063 -0.037761953 -0.11955763 -0.11269609 0.13431233 -0.1569126 0.067589484 -0.018457567 -0.018437322 0.031180216 -0.0355116 -0.12557574 -0.06532658 0.319319 -0.13479416 0.16941582 0.051066883 -0.38439593 -0.43371114 0.41699594 0.19844566 -0.14263889 -0.07472305 -0.017677821 0.08485949 0.15331516 -0.16544995 0.07760155 -0.5401164 -0.011280776 -0.14195906 -0.100727804 -0.04224231 0.08063034
76 -0.00061816355 0.21478 0.23162404 0.07765157 0.45217824 0.18724887 0.031934105 -0.005046872 0.17157002 -0.06057576 0.0041208137 -0.027985405 0.14665565 -0.14965343 0.11751682 -0.17948887 0.107375644 0.15506583 0.09569165 -0.025593186 -0.42054093 0.049427036 -0.03972237 0.116132095 -0.13631201 -0.011885741 -0.1635182 0.19770525 -0.14605059 0.0018167726 0.0072064344 0.015371897 -0.09584226 -0.53283226 -0.07227656 -0.05017463 0.13459449 0.3488491 -0.03905391 -0.33622018 -0.0036808464 -0.15864947 -0.11610622 -0.4601706 0.3368084 0.24786541 0.03265767 0.1242456 -0.17451282 0.04001321 -0.1799728 -0.27697045 0.16707514 -0.112531535 0.50701034 0.4213635 0.35061774 -0.31904182 0.1566162 0.10174315 -0.1274888 -0.015186356 0.035217896 0.17313121
77 -0.014164242 0.1101744 0.39550334 0.24024682 0.60347414 -0.105259195 0.08254425 -0.526116 0.12112042 -0.046149153 -0.10635745 0.044389077 0.52498996 -0.09306796 0.316416 0.09943218 -0.2049186 0.1444087 0.42732683 0.11350048 0.42277455 -0.2988676 0.2083812 0.3251393 0.18996388 0.35172495 0.006206819 -0.07718734 -0.29164243 -0.35856453 0.22977269 -0.29201657 0.07796512 -0.18937159 0.45546272 0.0141513115 -0.33580747 0.14455496 0.11588537 -0.43106174 0.15006235 -0.11932134 0.014014603 -0.07613877 0.094179615 -0.05023459 -0.013360316 0.088410184 -0.50172484 0.22434753 -0.4049301 -0.20624936 -0.10586691 -0.071088895 0.1698378 0.49815342 0.13373722 -0.46308544 -0.31137675 0.32051694 0.095625475 0.30577233 0.11397084 0.27015415
53 -0.20524997 0.41357505 0.32616207 0.09132432 0.20450795 0.061709024 0.9860247 -0.5383771 0.08674705 -0.11253644 -0.14275867 0.23909307 0.2516398 -0.23022889 0.033114783 -0.41115358 -0.090287104 0.028878085 0.051699184 1.2306798 -0.5081118 0.30000168 0.024051026 0.11945616 -0.12921241 -0.35630143 -0.23328462 0.37792492 -0.05074494 0.47526824 0.27100492 -0.33375502 -0.18831846 -0.0027849926 0.10065583 -0.16413315 0.5808709 -0.25588027 -0.35425746 -0.4097417 0.33231568 0.21231046 -0.061917834 0.37840655 0.006999219 0.37249178 0.12976982 -0.012832669 -0.06411381 -0.48074368 -0.053201288 -0.036104985 0.3446782 0.16834001 0.22663838 0.31539533 0.22512558 -0.23968036 -0.12312572 0.16760778 -0.68238145 0.28241393 0.15424824 -0.014021079
29 -0.3086719 -0.40738344 0.036042478 -0.09721223 0.5912413 0.02270369 0.09922322 -0.32921576 -0.09960903 -0.21152027 0.21298367 0.14862792 -0.07600351 0.16496818 -0.32634306 0.80553 0.1372524 -0.2858415 0.14147443 0.37747636 -0.2476862 -0.084519155 -0.0846027 -0.18095613 -0.17111966 0.14072251 0.1869133 0.4769298 -0.6551988 -0.20142768 0.29994386 0.2808841 -0.1529548 -0.63512677 0.09301741 -0.10871127 -0.45338178 -0.73767936 -0.4576915 0.41194364 -0.42106873 0.45075202 -0.21573786 -0.32840863 0.0027711964 0.32459864 0.087652214 -0.78784513 -0.28186163 0.035210423 0.23187155 0.21476912 0.28463027 -0.2923259 -0.19906096 0.37330738 0.06598272 -0.2035621 -0.0978706 0.31070673 -0.46613798 0.37065613 0.22072071 0.44901225
91 0.2660126 0.21663833 0.16449493 0.039037824 0.14108942 -0.048997927 -0.0660122 -0.31069103 0.16497095 0.0024189795 -0.15445915 -0.29355907 0.15008605 -0.13136671 -0.18193643 0.20082454 -0.3357382 -0.1557338 0.13908292 -0.09866084 0.27295098 -0.51693946 0.046579406 0.2239571 0.28606457 0.3327092 0.24612442 0.030523527 -0.29303566 0.0045718807 0.41334578 0.0074315867 -0.014731038 -0.14331155 0.21527268 0.0015290136 0.036449518 0.029642854 -0.27655017 0.22386496 0.16806896 0.031176653 0.04664633 -0.0009460263 0.0003536279 0.2035953 0.4145546 -0.3433633 -0.49513042 0.05656071 0.060460456 -0.02334652 -0.30148175 0.020181736 0.10253789 0.27238137 0.16591117 0.06313096 -0.46603194 0.17718227 -0.13358541 0.071122594 -0.11764924 0.036865544
60 0.33454865 0.090785526 0.4301808 -0.23334144 -0.14382614 -0.041302897 -0.12695087 0.171627 0.44839954 0.19698049 -0.24217077 -0.21571672 0.19817655 -0.29439884 -0.11312333 0.05958743 -0.35279405 0.022873197 0.25601187 0.5352754 -0.1460011 0.18421218 -0.14310242 0.24351214 -0.17734326 0.09737154 0.034595136 -0.06224434 -0.012486845 -0.024432562 0.07257766 0.08188615 -0.28124753 -0.33540386 0.21587227 0.01563625 0.0641376 -0.066652074 -0.24937809 0.19182557 0.21259607 -0.23407385 -0.1730774 0.030220717 0.06743116 -0.104489885 0.596458 -0.048208352 0.16068749 -0.0142597 -0.18387975 0.18992458 -0.4887564 -0.0081196325 0.19903827 0.2981139 0.030423012 -0.18416913 -0.54620486 0.013698386 -0.35863408 0.1623824 0.30657858 0.17207935
38 0.057952955 -0.14670125 0.06746526 0.014778099 0.47173405 -0.29380882 -0.13452299 -0.33242604 0.07886706 -0.3908787 0.443487 -0.13275594 -0.06220196 -0.214684 -0.2255449 0.5818431 -0.23286398 -0.15911317 -0.15025099 0.26304632 0.26096866 -0.26345775 -0.21422899 0.080926664 0.21541223 0.028390123 -0.046881046 0.51753014 -0.54039633 -0.35985216 0.24942723 0.11254896 -0.30249155 -0.40347657 0.3945861 -0.3812532 0.29476684 -0.37429628 -0.39996085 0.33183792 -0.31759113 0.4067309 -0.24218513 -0.18920934 0.30294722 0.09321946 0.2428557 -0.49382347 -0.0058388826 -0.1143628 -0.24552631 0.056758314 0.218397 -0.20738178 -0.2117723 0.48708645 0.1769429 -0.3269663 0.26466838 0.11796235 -0.1886432 0.13952152 0.1264759 0.06515334
41 0.1549466 0.033104114 -0.08230033 -0.012689285 0.1529265 -0.19460952 0.01233207 -0.3511187 0.43053475 0.078878656 0.06511081 -0.18403019 0.021992847 -0.35341364 -0.14075981 0.22941007 -0.5900031 -0.06534494 0.20207725 0.09700527 0.19577654 -0.43303207 -0.32013842 -0.005424152 0.3438048 0.28937823 0.31722096 0.18303771 -0.1584902 -0.24411517 0.27878448 0.1903504 0.0753097 0.016400719 0.3553969 -0.16368787 0.2103476 0.14480247 -0.24620867 0.11475503 -0.00021011781 0.06769495 -0.19288926 -0.084429055 0.24295546 0.14456871 0.26381165 -0.38188145 -0.3114601 0.11955316 -0.16951531 -0.08649586 -0.0029659474 0.17037708 -0.11219477 0.4199686 0.06042513 -0.04767282 -0.107309416 0.12610322 -0.15945947 0.26606807 -0.06358021 0.07001713
63 -0.16195256 -0.008207779 0.3829804 -0.29865044 0.10811178 0.19505823 0.6050686 -0.010176079 -0.42774075 -0.0050083757 -0.3966231 0.26018718 0.1970265 0.1559559 -0.17257677 -0.10746938 -0.5483596 -0.21928719 -0.08003695 0.7559739 -0.20854808 0.16770872 0.19419041 -0.10457414 -0.31248397 0.18524107 -0.14316471 0.11536483 -0.04353254 0.23361391 0.36036104 -0.17223538 -0.011727795 -0.23380145 0.2138005 -0.06834307 0.26563847 -0.24026461 0.06491065 -0.681588 0.121648826 0.21192512 -0.41620234 0.39568433 -0.031719826 0.07564915 0.19912973 0.19448212 -0.28645757 0.016466279 -0.56640774 0.092425734 -0.17557724 -0.14964497 0.36173496 0.15475585 0.06811027 0.1427319 -0.33001915 0.23347835 -0.7152923 0.055044997 0.23740557 0.1472349
51 0.23791932 0.1933631 0.09455175 -0.052844934 0.26167253 -0.10159839 -0.0047975085 -0.27865314 0.67991525 0.06499258 0.13038464 -0.44588125 0.017277483 0.03557672 -0.3101967 0.15261443 -0.2375352 -0.27505523 -0.2733303 -0.15911727 -0.3360506 -0.47897363 -0.12180389 0.22042283 0.57039297 0.4162773 0.37773377 0.24242482 -0.3387722 0.20543401 0.28771818 -0.1288307 0.041794803 -0.18690869 0.3668645 -0.29135337 -0.006772203 0.046935428 -0.059817135 -0.110424 0.30502918 -0.056866426 -0.01732655 -0.043859802 -0.15897752 0.025113435 -0.10298984 -0.43388268 -0.3252192 0.44560224 -0.2541582 -0.022402035 -0.16822745 0.20028967 0.3659773 0.35523346 0.51827013 0.077466354 -0.4845032 0.2618307 -0.49924704 -0.09916553 0.084715925 -0.11424191
75 0.14395192 -0.28733608 0.2972393 -0.20059864 0.37001812 0.058743615 -0.10421189 -0.0438104 0.036521204 -0.15798558 -0.18578485 0.14202099 0.39392197 0.21587132 -0.23527692 -0.39032453 -0.21992229 -0.003907833 -0.013519128 0.26097873 -0.30000815 0.10884399 0.24079897 -0.17014113 -0.06627193 0.04518199 0.061342746 0.087263025 -0.10149423 0.19513744 -0.11207941 -0.09447239 0.1489564 -0.23475699 0.1840047 -0.036822233 0.03432309 0.20388536 0.25266087 -0.60301954 0.1305032 0.06733287 -0.13769431 -0.032760732 0.3199647 0.052559383 0.13678561 -0.04432229 -0.24648845 0.13584703 -0.33840522 -0.2095994 -0.23240495 -0.36238903 0.35175624 0.32940134 0.21975698 -0.16362573 -0.28104365 0.22832802 -0.29269865 0.032119684 0.081355296 0.22115672
79 0.031044114 0.14560114 0.40523145 0.13825278 0.8073235 -0.18279526 0.28970292 -0.22398174 0.017498503 -0.09926219 -0.34264532 0.09447973 0.31822747 -0.14201693 0.04811488 -0.30454525 -0.10654728 0.13865432 0.4018064 0.04253092 0.35619944 -0.115892865 0.031482577 0.11133068 0.13285722 0.16351026 -0.22948614 0.16089071 -0.17016906 -0.19437392 0.18930537 -0.23039685 0.2342692 -0.35869184 0.38323513 0.18309268 -0.29289418 0.14207011 0.17987311 -0.43127775 0.3405279 -0.17380786 -0.14817037 -0.12563817 0.23411618 -0.088720985 -0.07953434 0.08579413 -0.5731182 0.2145617 -0.47232947 -0.33985248 -0.04052357 -0.27133605 0.26970178 0.5901813 0.2301127 -0.47367543 -0.29688713 0.20802218 0.12124395 0.18978056 -0.1106362 0.2955289
105 -0.34374788 0.20201014 0.09090679 0.08264499 0.2859226 0.024580752 -0.11608325 0.09653714 0.34064126 -0.013094684 -0.023347119 -0.009233437 0.12748763 -0.13766772 -0.063395016 -0.28293392 0.07322403 -0.13465337 0.41901672 0.22106774 -0.37569737 0.14347462 -0.12358652 0.4278689 -0.05169203 0.011902231 0.004196974 0.31696215 -0.11696726 -0.12406643 0.076004215 0.20300479 -0.32705918 -0.16168933 0.07785119 -0.11303768 0.46150804 0.08444313 -0.2886179 -0.079586156 0.018012494 0.103194684 0.104376055 -0.3087742 0.2680755 -0.049729478 0.118229635 -0.017743105 -0.064525165 -0.05159379 -0.10420196 0.05242685 0.2589293 -0.24774043 0.2145792 0.2571508 0.115204215 -0.4093482 -0.072203316 -0.047372695 -0.042150367 0.201885 0.0043483246 0.045498632
7 -0.024693407 0.01636767 0.2335669 -0.027966063 0.405387 -0.12055698 0.08390428 0.16279215 0.17927612 0.068943076 -0.014493387 0.25014853 0.25178367 0.0956136 -0.10934804 -0.22857548 0.027032237 -0.08643028 0.15581869 0.20924962 -0.13886091 -0.0061343457 0.06377492 -0.0031166773 0.18925746 -0.06851661 -0.29895338 0.38053995 -0.145861 0.14103161 -0.05683234 -0.07608217 -0.16452317 -0.3313908 0.24114746 -0.021748818 -0.031591676 0.18595195 0.38898617 -0.600015 0.08054798 -0.11959733 -0.10069142 -0.2954232 0.21551186 0.14143816 -0.025210954 0.08852061 -0.060831275 0.45385498 -0.38681623 -0.2567787 -0.19176427 -0.19805937 0.28927642 0.3950062 0.32376578 -0.29592916 -0.08615809 0.25541466 -0.10783703 0.11905034 -0.15111974 0.1374306
43 -0.33621305 -0.22156298 -0.02459008 -0.052070677 0.06067803 -0.17497304 -0.10404875 -0.33286875 0.21281053 -0.1644239 0.46088487 0.37624845 -0.013206651 0.16121112 -0.2785359 0.21411452 -0.26057243 -0.26315665 0.3207907 0.099377744 0.32435596 -0.15711257 0.23583612 -0.22841728 -0.10002341 -0.29816765 -0.09301545 0.1554285 -0.1335347 0.10402069 0.3976657 -0.013014716 0.058368683 -0.4564075 -0.052780233 -0.090747595 0.08818268 0.26911348 -0.21546511 -0.3058173 0.10094697 -0.016161224 -0.15416391 -0.15388651 0.3765312 0.034424182 -0.20200156 -0.45070398 -0.05076918 0.22188456 -0.13268586 0.00017204779 -0.15419433 -0.034708522 0.29092047 0.42512518 0.10515893 -0.13782795 0.032629866 0.056074593 -0.08423925 -0.145582 -0.5857492 0.105617955
42 -0.23437794 0.25958684 -0.020940488 0.16060449 0.20614706 0.10303457 -0.018566389 -0.23037472 0.31379813 0.04330725 0.05571568 0.026518155 -0.17731658 -0.2086688 -0.028250271 0.22704084 -0.18736435 -0.08195116 0.09087703 0.1726639 -0.0877977 -0.05538865 -0.15143622 0.30616555 -0.088950925 -0.03715297 0.06998128 0.25363174 -0.31237853 0.07615049 -0.11678029 0.15086064 -0.39963412 -0.29564336 0.28605238 -0.029352218 0.42090905 -0.010228844 -0.22590303 0.029192762 0.20898522 0.09802117 0.06271261 -0.16974491 0.4359283 0.036510907 0.38471913 -0.17659292 -0.06785726 -0.08230596 -0.029889613 0.07086997 0.15521802 -0.07333864 0.005377336 0.43387496 0.11301127 -0.5575584 0.40802497 0.04063673 0.07684742 0.20512466 -0.054202843 0.0071835537
48 -0.186627 -0.20359407 0.22734496 -0.09960418 0.12858835 0.04594855 0.20965572 -0.0067398767 -0.18360882 -0.20826142 -0.2942426 0.06474325 -0.13531177 0.34854975 -0.10225823 0.17940469 -0.386719 -0.06713979 -0.17900175 0.536023 0.0094030425 -0.021720989 0.20456016 -0.27043694 -0.04128061 0.07052017 0.13236508 0.030042097 -0.07393727 0.12483686 0.2669691 0.1157705 -0.07938145 -0.028597254 -0.3310289 0.054317854 -0.10554215 -0.0021597461 -0.03228114 -0.2700997 0.071284525 -0.16981886 0.09604375 0.2646378 -0.0021762142 0.051550392 0.30013558 -0.11493803 -0.06890053 0.33653527 0.17323011 -0.07607307 -0.13915272 -0.18158928 0.2478361 0.37536415 -0.10568614 0.054246932 -0.5562277 0.3785932 -0.42495656 0.06426856 0.07790766 0.2569475
1 0.016184147 -0.056978326 0.13241546 0.17790651 0.14629023 -0.072284505 0.13586749 -0.15995438 -0.08092067 0.10096176 -0.064903565 0.25117013 -0.17799181 -0.08823973 -0.24568635 0.19397122 -0.30291307 -0.15503456 0.017025597 0.3327226 0.15650123 -0.21233238 0.33803645 -0.30113304 -0.16511132 -0.057892468 0.43694082 -0.02580985 -0.11461809 0.080433905 0.32879132 0.021391423 -0.09150638 0.0023895216 -0.30259094 -0.23004119 -0.24536969 -0.17961067 -0.024048235 -0.05457747 0.041106366 -0.07803538 -0.063816875 0.10941973 -0.1578263 0.3067824 0.20575716 -0.26080754 -0.2680777 0.2829032 0.079730995 -0.1983624 -0.2077357 0.020721745 0.16495602 0.19587006 -0.06825841 -0.17615719 -0.5153352 -0.0051606535 -0.31426954 -0.091628134 0.09580433 -0.0018805912
61 0.08369144 0.07804664 0.4336857 0.09839151 -0.4583549 0.0799791 0.027862862 0.05437577 0.24401319 -0.00686083 -0.20022896 -0.28821394 0.60663915 -0.32142076 -0.21267441 0.14998561 -0.12913838 0.20698942 0.37397635 0.47932374 0.026404584 0.23762417 -0.1975273 0.3875702 -0.19911644 0.075716846 0.027397115 0.037634693 0.0048692534 0.22872363 0.17278463 0.21329525 -0.39901382 -0.23853272 0.0567023 -0.08991927 -0.05066877 0.077068545 -0.10195969 0.11866018 0.13145025 -0.06730256 -0.12345446 -0.041425936 -0.27721652 -0.23295408 0.7513561 -0.3052455 -0.048190095 0.12212985 -0.23458822 0.103588186 -0.16612458 -0.027447505 0.33670524 0.34549648 0.044050574 -0.18259312 -0.59220093 -0.2301271 -0.6629859 -0.056013096 0.17062764 0.14356104
93 -0.20637035 0.49196175 0.4037076 0.20510744 0.20831308 0.19324118 0.87124497 -0.673276 0.21895263 -0.1929388 0.045491874 0.28550175 0.2567956 -0.3464941 0.0012776575 -0.358805 -0.001631646 -0.09391515 0.011314265 1.047423 -0.44405162 0.30867627 -0.04422784 0.38750502 -0.19201083 -0.13967252 -0.23586145 0.3763697 -0.046506055 0.587785 0.52743864 -0.26414847 -0.13409728 -0.028982632 0.04789315 -0.17839372 0.4631958 -0.39872605 -0.38592574 -0.549648 0.39411268 0.014926591 -0.07356438 0.50586563 0.22774795 0.27390745 0.2278945 -0.07548841 -0.08946741 -0.40309387 -0.008045651 -0.12182959 0.4021276 0.14387988 0.29378322 0.1509983 0.19522582 -0.112794705 0.036762387 0.102811 -0.6336704 0.350483 0.21059752 -0.07397332
28 -0.2979554 -0.46307155 0.12008884 0.17033778 0.70199716 -0.06709718 0.09268124 -0.39079183 -0.05774044 -0.2016883 0.111403786 0.05379621 0.11401606 0.19717352 -0.20456181 0.90029967 -0.0019167361 -0.12780431 0.038092073 0.36277112 -0.1347551 -0.20659904 -0.14938374 -0.063430175 -0.053174507 -0.14193566 0.05075996 0.3913474 -0.70775634 -0.3133279 0.46485093 6.8736634e-05 -0.1361317 -0.5278824 0.29060912 -0.36604124 -0.044001948 -0.53020924 -0.45963055 0.5780994 -0.3747269 0.5072944 -0.2885206 -0.51610357 0.22796103 0.17803352 0.24997357 -0.84030426 -0.07306972 0.16879457 0.033533324 0.1968568 0.34358814 -0.40717137 -0.36485383 0.2198495 0.0054733967 -0.29994828 0.14018543 0.35793495 -0.5830367 0.4311793 0.17127217 0.36332437
19 -0.26894954 0.38300037 0.31723756 0.061590347 0.20347805 0.115426965 0.40124437 -0.70351875 0.272859 -0.118119836 -0.06933134 0.11509482 0.2106262 -0.38907176 0.036822755 -0.27537403 0.20703988 0.08173851 0.054998722 0.7814524 -0.47157925 0.1807804 -0.043906353 0.19684958 -0.21965596 -0.18914059 -0.44094634 0.4984064 0.15375987 0.3748032 0.6444977 -0.29591122 -0.3620608 0.32099295 0.10709377 -0.32964882 0.38306606 -0.14813681 -0.33026153 -0.19818464 0.13379218 0.095060475 0.03714772 0.20219795 0.11696341 0.4702742 0.37016416 0.040747143 0.0009647254 -0.16915038 0.25045496 0.06893576 0.27063444 0.15921587 0.49472597 0.27312356 -0.010701439 -0.4138635 0.101762 0.104128055 -0.44451806 0.17169304 0.075882085 -0.1076471
96 -0.17931603 0.21528648 0.3031258 0.36005667 0.3468712 0.005067971 -0.043637007 -0.2633212 0.24319789 -0.11883876 -0.17488511 -0.02810762 0.034280825 -0.35196564 -0.124152936 -0.047178082 0.20651841 0.22758614 0.30409542 0.5356393 -0.39466718 0.14463136 0.027675685 0.24493507 -0.009459155 -0.04916539 -0.1256101 0.404563 -0.12801796 0.32232684 0.3277962 0.107373886 -0.2818483 0.15509687 -0.23458672 -0.17134854 0.40250635 -0.12429935 -0.2630865 -0.11969516 0.13190997 -0.07321661 0.21633834 0.24549825 0.1391851 0.068711236 0.2597747 -0.16488375 0.15804632 -0.31197223 0.15839556 -0.23584309 0.18330687 0.10933982 0.32006574 0.23726764 0.17584994 -0.52976894 0.0738624 -0.15328246 -0.3754803 -0.037441555 -0.08117498 0.106956445
65 0.26934466 0.009748118 0.21401383 -0.19061096 0.04380513 0.15321074 0.042092852 -0.10850932 0.38926405 0.2668236 -0.040262442 -0.37727687 0.15523174 -0.1546994 0.16028135 0.2072462 -0.28958008 -0.017266572 0.11320605 0.17371503 0.18183865 -0.34895635 -0.15339342 0.27664736 0.12731196 0.29340944 0.22504233 0.113133945 -0.18828583 0.034561574 0.311397 0.21006112 -0.029956866 0.03993184 0.2848068 0.096892536 0.07165023 0.26889777 -0.13970461 0.23913379 0.007415988 0.12619711 -0.15146863 0.18095046 -0.21113895 -0.21783747 0.39509493 -0.41262755 -0.5787081 0.20667635 -0.12246053 -0.19068408 -0.29852837 0.016185388 0.26119888 0.34371054 0.14883268 -0.19265418 -0.46951523 0.014437783 -0.23409346 0.097429395 0.33262783 0.016844762
59 -0.05412326 0.11324728 0.026973065 0.12657443 -0.3384687 0.07633492 -0.02839968 -0.12674524 0.39502883 -0.012617111 -0.0347037 -0.48399597 0.57057077 -0.48290184 -0.3162021 0.14647079 -0.063235745 0.16728297 0.27811334 0.47394133 0.0028174438 0.24392357 -0.2167254 0.24672595 -0.111437455 -0.1268232 -0.069696516 -0.028084118 -0.106702514 0.26000166 0.26464754 0.109103605 -0.40986428 -0.17055178 -0.17749907 -0.0060237036 -0.20309496 -0.18329152 -0.24298282 -0.18291898 0.09944926 -0.045226745 -0.06840268 0.35395274 -0.20631456 -0.060260348 0.61890435 -0.16380222 -0.050357677 0.087892696 0.08559331 -0.020310842 -0.19653843 -0.0680902 0.36577287 0.26207885 -0.06901618 -0.36149427 -0.71991813 -0.18576701 -0.64130586 -0.20079537 0.2099748 0.19962561
92 0.3140808 0.1834135 0.14902736 -0.12307856 0.09292265 -0.041902598 0.06212177 -0.30346084 0.6448722 0.03322012 0.063848436 -0.33241066 0.028210273 -0.020479146 -0.36976913 0.18620755 -0.10665304 -0.2908258 -0.22911035 -0.13684654 -0.18791689 -0.34394377 -0.093975 0.1305676 0.6205078 0.26761803 0.43119106 0.27555925 -0.49569488 0.05549733 0.28466678 -0.1802131 0.012653261 0.05086179 0.24518217 0.028391441 0.13865219 0.114149526 -0.10586865 0.02008077 0.34701028 -0.17211388 -0.086952776 -0.083689235 -0.07351324 0.15245885 -0.045887604 -0.3400219 -0.4999487 0.5127361 -0.35123524 0.06073055 -0.24707648 0.04114138 0.33341622 0.29973927 0.46634156 -0.029135741 -0.35217908 0.2993156 -0.5602276 -0.06022592 0.028279934 -0.15918317
6 0.26992244 0.2097845 0.21575204 -0.119008966 0.28167897 0.06331882 0.05004326 -0.16525611 0.63873565 0.053293806 0.14028488 -0.3902542 0.13108648 -0.09626078 -0.26472282 0.2668068 -0.09077714 -0.278741 -0.15508766 -0.19438419 -0.12001774 -0.5062414 -0.10359221 0.20626569 0.53179973 0.36619738 0.4448195 0.3780405 -0.4040191 0.10859501 0.19129652 -0.09842419 0.027190557 -0.15718672 0.3276368 -0.10810509 -0.07935338 0.1906025 -0.054383818 -0.089686535 0.28495547 0.015859453 -0.044905405 0.00946057 -0.028500086 0.2076622 -0.058173805 -0.37474382 -0.2305569 0.4529127 -0.2710973 -0.08233759 -0.24785699 -0.012516945 0.27282062 0.29505843 0.15800133 0.007825463 -0.47865814 0.37617457 -0.60303754 -0.08258238 -0.08246432 -0.39547485
71 0.31713745 0.0322625 0.44878972 -0.19886433 0.27690923 0.029475015 0.04607693 -0.2979491 0.77685195 0.34637314 -0.10418346 -0.2550648 0.2327355 0.40780956 -0.4107618 -0.22944893 -0.107401624 -0.21566293 -0.061973922 -0.05455509 -0.48109022 -0.5607179 0.018772412 0.17474078 -0.17424257 0.3136109 0.07500411 0.91879004 -0.51579696 0.37461764 0.18791278 -0.2369179 -0.05535246 -0.083836354 -0.00954282 0.25680816 0.004337903 0.19027497 0.070526764 -0.45399925 0.036366273 -0.17846206 -0.015159229 -0.237903 0.41353613 0.34933478 -0.2309859 -0.09466261 -0.29222956 0.4505897 -0.7378036 -0.14914949 0.16011186 0.027602203 0.06930025 0.5290685 0.6904814 -0.07335359 -0.5004876 0.6283587 -0.3713733 -0.41174394 -0.17293867 -0.090563856
30 -0.18339056 -0.36401397 0.0028944423 0.01812663 0.5376362 -0.101439595 0.058644164 -0.37796044 0.042567648 -0.24913871 0.29027084 -0.2355827 -0.123960376 -0.11841729 0.09704181 0.91711646 -0.0021953024 -0.32571477 -0.120303005 0.37492558 -0.081648245 -0.22831513 -0.1625658 0.07266566 0.22475113 -0.03981998 0.16364193 0.609201 -0.50491065 -0.3300791 0.5668277 0.076534644 -0.2161009 -0.41898504 0.32936496 -0.32398483 -0.058119513 -0.5571557 -0.37729627 0.32765064 -0.2214993 0.29399103 -0.34901863 -0.4700798 0.25521243 0.18499848 0.2332484 -0.70041156 -0.1529505 -0.14571482 -0.2422176 0.26904303 0.28718638 -0.39222333 -0.30052608 0.31613922 0.17754951 -0.30292833 0.22223759 0.15319642 -0.22462906 0.42655963 0.051555432 0.31411108
83 -0.27670154 -0.4225547 0.24048916 -0.1995737 0.47456092 0.13236989 0.20246246 -0.2460979 -0.17191578 -0.12149246 -0.05445647 0.34638467 -0.23914206 0.008159343 -0.32514405 0.68598264 0.36794305 -0.2787458 0.16819753 0.39902228 -0.2066503 -0.095310874 0.22434412 0.07057191 -0.10313609 0.33399954 0.36729002 0.093912385 -0.27083126 -0.13002178 0.14109005 -0.013514498 -0.4091204 -0.5426264 -0.21089137 -0.10386672 -0.46866393 -0.24751836 -0.49353364 0.25850135 -0.18999521 0.28335705 -0.40332094 -0.2147736 0.06716239 0.251296 -0.005340156 -0.6326348 -0.14108986 0.38296482 0.22389297 0.027078515 0.3095668 -0.39178038 -0.18759848 0.012087811 0.14337556 -0.0760045 -0.42216447 0.118471555 -0.39228752 0.14976585 0.22332779 0.51263225
2 -0.13547212 0.15968163 0.09357721 0.30102295 0.1825468 0.07459571 0.05632915 -0.33966663 0.1903206 0.014785725 -0.10733934 -0.04656088 0.1758623 -0.2852877 -0.11448911 0.013869292 0.30578163 0.05682256 0.13018064 0.5829428 -0.17919743 0.41209885 -0.1285085 0.22688994 0.09608524 -0.10367694 -0.09642012 0.38884035 -0.13155161 0.37405992 0.40769413 0.045638777 -0.23058173 0.1464085 -0.16405518 -0.29463518 0.48796588 -0.08279881 -0.24353205 -0.13401794 0.15992694 -0.12494715 0.13156453 -0.07148563 0.30527043 0.23493426 0.3328709 0.09820083 0.009287156 -0.21999902 0.20128576 -0.15505594 0.31534624 0.23182136 0.30129266 0.15778393 0.06112524 -0.6246099 -0.1992032 0.0004207266 -0.23140475 0.0108195 -0.022861453 0.10438435
0 -0.71813136 0.12848647 0.19886023 -0.19339684 0.37543762 0.11437468 0.05811619 -0.1894169 0.21884352 0.19769876 0.028877677 0.27383465 -0.14385566 -0.21861699 -0.21792561 -0.068522096 0.19661704 -0.24648365 0.44194627 0.116309084 -0.41720843 0.14243022 0.15568358 0.17855437 -0.14571062 0.10819355 0.24517411 0.1604819 -0.004856958 0.020787047 0.056363564 0.04910584 -0.14462782 -0.6471404 -0.13676748 0.15571724 0.06163504 -0.0073263505 -0.36715847 0.074429184 -0.13657893 0.15429983 -0.0152344555 -0.46686044 0.14728005 0.15175268 0.26085642 -0.18170638 -0.08287604 0.45460773 0.08016359 0.059718367 0.29213905 -0.21024564 0.048935186 0.16929543 0.10617936 -0.18167529 -0.009092411 0.023605913 0.14988855 -0.050539937 0.17189246 0.05149067
85 -0.44699177 0.26639813 0.18546127 -0.10666335 0.30644524 0.13628685 -0.010208837 -0.30486184 0.15447839 0.025762357 0.12334688 0.36745855 -0.45220724 -0.06665547 -0.109059796 0.0109471725 0.20941862 -0.065340936 0.5198355 0.10912548 -0.38220093 0.22257529 -0.091359526 0.26515836 -0.32351336 0.098787576 0.16568281 0.08093473 -0.09506697 -0.03408576 0.12578392 0.11622912 -0.2925402 -0.5997113 -0.20585851 -0.053486954 0.04552517 0.02798396 -0.44001356 -0.07581238 -0.12340406 0.27941123 0.02572735 -0.4474869 0.123794384 0.08199046 0.16947366 0.06281559 -0.20065838 0.50000703 0.023446957 0.08634087 0.15314113 -0.31247422 -0.103846245 0.18268247 0.1431448 -0.19824256 -0.14802793 0.11364041 -0.007274119 0.09422674 -0.033027682 0.026001746
67 -0.099744804 0.17792466 0.008195659 -0.056485966 0.12200456 0.22287717 -0.12389047 -0.072161354 0.22703315 0.16743892 -0.0747359 0.004585761 0.17562154 -0.45189485 0.04742487 -0.080358475 0.055335075 0.28633577 0.09674682 0.3884946 -0.4078605 0.19308178 -0.029247645 0.2553353 -0.0035110519 0.24813661 -0.010971745 0.15852308 -0.07667122 0.19054864 -0.022397285 0.017288852 -0.33506864 -0.31686032 -0.013669289 -0.008049759 0.24570829 0.0349536 -0.31333846 -0.1078374 0.0048004943 0.14937125 -0.046080362 -0.35846537 0.1935318 -0.24561693 0.630708 -0.06922695 0.025789922 0.13067964 -0.15825441 0.1619901 0.036318157 -0.027123833 0.05612887 0.41404495 0.25642058 -0.26575807 -0.14453436 -0.11700002 -0.019284284 0.09741906 -0.05351629 -0.11202756
101 -0.012089703 -0.06747996 0.05935396 -0.037318878 0.11016517 0.23792666 0.12683922 0.19515412 -0.049491294 0.09873567 -0.31414858 0.25320575 0.27329668 0.26791036 -0.27392614 -0.010617495 -0.19449186 -0.12889199 -0.097520664 0.3703053 0.0024314725 0.031638116 0.31619287 -0.401606 -0.18995896 0.1610533 0.10054987 0.117928274 -0.123335026 0.10034866 0.2748883 0.035569463 -0.102819584 -0.31895936 0.15105419 0.032233313 -0.026767831 0.015741361 0.08432575 -0.35342565 -0.1273654 -0.031038374 0.0005196242 0.38469645 0.20843172 -0.041220937 0.23532575 0.22416635 -0.043914665 0.11169569 -0.3237474 0.035896 -0.23501375 -0.34432796 0.41603333 0.27872843 0.2670598 -0.09868985 -0.5501465 -0.079955526 -0.6191088 0.19928472 0.102791496 0.18383741
74 -0.40115562 -0.27384728 0.117918886 0.19699724 0.26073268 -0.18654397 -0.10376088 -0.104989514 0.11937971 -0.22761622 0.113785364 0.030836191 -0.0677102 0.17349118 -0.08732485 -0.13618425 -0.07466793 0.014287327 0.05520346 -0.030347504 0.00093801727 -0.091530524 0.0020692637 0.086847454 -0.11427443 -0.20600654 -0.10713079 0.40469727 -0.13099091 -0.057023562 -0.13975854 -0.38026816 0.14974487 -0.28146914 0.30258086 -0.060387395 -0.093914025 0.16346754 0.11239236 -0.51086247 0.10998583 -0.099739164 -0.17221187 -0.27270266 0.47598794 0.19147807 0.045068588 0.016004778 -0.28026074 0.35353604 -0.4692211 -0.30049556 -0.1079342 -0.2648714 0.44909063 0.42614752 0.31040692 -0.15344073 -0.27908477 0.0791406 -0.22062196 -0.09800286 -0.28864428 -0.03505911
102 0.28762588 -0.00092166394 0.19260591 -0.042587645 0.23717277 0.025779514 0.088280894 -0.174076 0.62186885 0.07468034 -0.06234616 -0.04752478 0.14787538 0.20315321 -0.19082591 -0.11098103 -0.10897866 -0.22295927 -0.188309 -0.17950292 -0.47866505 -0.18136594 0.0072708367 0.21907829 0.35955593 0.34131205 0.020315079 0.46085933 -0.35992855 0.14348786 0.09833331 -0.23949002 -0.100071356 -0.101696804 0.14655757 0.09139502 0.123153605 0.13727546 0.088967636 -0.3347662 0.21570684 -0.03026288 -0.2470229 -0.2569934 0.28164527 0.4128817 -0.24022825 -0.14210808 -0.06483143 0.5689757 -0.6161451 -0.223434 -0.3496458 -0.12939414 0.46816906 0.24858445 0.40805444 -0.3129557 -0.32726264 0.5044324 -0.3467789 -0.27313954 -0.042848863 -0.093622744
18 -0.4730391 -0.032920882 0.21154286 -0.058625765 0.37560788 0.1571177 0.25695732 -0.31096134 0.1215124 0.18898344 0.015006438 0.3798558 -0.28094786 0.21482527 -0.18382277 0.3955486 -0.01805943 -0.06672304 0.2509832 0.3324417 -0.22239088 -0.15423495 0.19962907 -0.027511265 -0.05253174 0.10904519 0.44305256 -0.097815506 -0.09176634 -0.07401456 0.12464038 0.05648623 -0.10229613 -0.5625614 -0.29467478 -0.1300318 -0.2096716 -0.19805518 -0.29697937 -0.023793312 -0.17451473 0.12637691 -0.061854284 -0.2129342 -0.15630141 0.40851176 0.11857177 -0.18933158 -0.2754434 0.51327926 0.39905873 0.13870741 0.05421822 -0.28737795 -0.16163483 0.073652126 -0.044777114 -0.058062065 -0.36722052 0.021091286 -0.18946251 -0.014704345 0.32793736 0.28498828
89 0.21200854 0.13925208 0.3433289 0.31241703 0.38688904 -0.2038747 0.21516392 -0.2696652 -0.005190365 -0.24415873 -0.11135893 -0.24254614 0.46942005 -0.169371 0.1185226 0.26521465 -0.25666124 0.15618928 0.618873 0.109251484 0.36953786 -0.5263934 0.18402116 0.20956102 0.27106327 0.30332026 0.11805239 0.05097332 -0.120162785 -0.13358083 0.31359214 -0.18282592 0.15491806 -0.19193767 0.51405823 0.16161235 -0.19399428 0.19718996 -0.16742997 -0.008584166 0.076290324 -0.029228585 -0.08240554 0.15124816 -0.014515625 0.1224452 0.03487764 -0.12780584 -0.5746016 0.28503433 -0.18378928 -0.21172264 -0.1251657 -0.05980437 0.15683459 0.5178764 0.2728227 -0.32100502 -0.41612434 0.25779298 0.1548281 0.3870982 0.18987775 0.26338512
5 0.091519125 0.3454185 0.36684737 0.19477525 0.47032893 -0.26720664 -0.013454887 -0.42038482 -0.05949414 -0.011890376 -0.05712715 0.009730564 0.4315584 -0.3037457 0.2321391 0.1837201 -0.19119203 0.26210836 0.48189387 0.11081222 0.3462749 -0.33119074 0.14341429 0.1872554 0.2816243 0.36290628 0.09470919 0.106324024 -0.23576085 -0.44900903 0.38590944 -0.07300565 0.21112056 -0.19733411 0.6020572 0.11948667 -0.19670431 0.101951204 0.16165426 -0.04963888 0.1304363 -0.08405183 -0.053033408 0.24277087 -0.021188693 0.04396023 0.22564754 -0.3498944 -0.67877233 0.18146035 -0.17395237 -0.030389678 -0.1357898 -0.020839574 0.22144057 0.40845707 0.30314723 -0.2057929 -0.4107537 0.34663934 0.05673666 0.1241147 0.080996476 0.19348568
84 -0.2237784 -0.1492792 0.08154123 0.011991726 0.37550825 0.111449406 0.22628115 -0.19300665 -0.086446844 0.0010506419 -0.14565828 0.3198744 -0.4029086 -0.08813808 -0.21234912 0.33308935 0.011794339 -0.14899188 0.2034106 0.33910096 -0.28756922 0.1460903 0.2086729 0.03552487 -0.20068412 0.07777569 0.45721552 -0.12573212 -0.13283476 -0.05821076 0.29912892 0.23052594 -0.16774476 -0.4924164 -0.23689905 0.13858984 -0.23214932 -0.18063681 -0.3672484 0.1042327 -0.11825558 0.23958836 -0.0068884185 -0.20585153 -0.09069287 0.39410013 0.0521856 -0.33478373 -0.21345584 0.7741515 0.16959916 0.011140426 0.12745206 -0.23912759 0.08188559 0.034568425 -0.008789902 0.053911097 -0.2795025 0.1236377 -0.15995397 0.0609073 0.16605446 0.16008057
106 0.06610707 0.10042426 0.21664223 0.25323236 0.7080601 -0.23333314 0.092702195 -0.3195203 -0.10854477 -0.014629642 -0.14007965 0.009425681 0.40105322 -0.102979414 0.10396777 -0.1318777 0.07804302 0.20902365 0.41379604 0.22002092 0.19917926 -0.12871176 0.16289157 0.09665695 0.008064575 0.09852392 -0.10290663 0.1780573 -0.10738627 -0.3066197 0.17866538 -0.24208742 0.14980155 -0.34671846 0.5026418 0.24398817 -0.1542194 0.23130973 0.1583291 -0.54004914 0.30012205 0.01292491 -0.042936962 -0.054828487 0.1788364 0.047201857 -0.019545736 0.10557489 -0.41128215 0.36123344 -0.49947444 -0.40149584 -0.15492153 -0.061865184 0.39441064 0.44835037 0.19268934 -0.35821047 -0.3114955 0.3706764 0.197284 0.23185295 -0.07480768 0.39243647
36 -0.5507672 -0.24214947 0.07903432 -0.015199777 0.24841595 -0.04075446 0.067052856 -0.6389276 0.3246888 0.10398265 0.41269985 0.43519977 -0.5230631 -0.023915524 0.030347407 -0.082963146 0.0014505393 -0.41085848 0.7078841 0.003056831 0.18794842 0.11784158 0.08555466 0.048639007 -0.25306603 -0.21763293 -0.054706942 0.24457489 0.17464897 0.07908216 0.08511311 -0.11910101 -0.10191413 -0.71340466 -0.2424035 0.07882548 0.078498006 -0.099529915 -0.34282297 -0.02791724 -0.07578582 0.09011121 -0.14230908 -0.40365344 0.19407143 -0.0030304454 0.14798355 -0.290081 0.13183665 0.41828263 -0.15195192 -0.13438009 -0.02859074 -0.2617088 0.19401787 0.33398125 0.38501173 -0.09359741 -0.067912646 0.12803738 -0.0397939 -0.18530838 -0.14979872 0.027956102
9 0.0020301426 -0.0012976422 0.4609248 0.121663004 0.542554 -0.12494485 0.043020885 -0.2379988 -0.004592086 -0.09024475 -0.27539507 0.10996695 0.31976783 -0.12590939 0.031300258 -0.22253317 -0.04934824 0.30670956 0.408673 0.17325816 0.30139983 -0.20870702 0.3077951 0.30473113 0.15228479 0.12441929 -0.1035812 0.16406497 -0.16963695 -0.26735315 0.1372756 -0.24968158 0.24582022 -0.40532202 0.45032695 0.14317016 -0.13151784 0.06927789 0.26302853 -0.4272843 0.15683264 -0.22160551 -0.17625746 0.057253778 0.21239987 0.07265014 -0.06758894 0.10452801 -0.43021417 0.41725594 -0.37231892 -0.2887356 0.05481116 -0.09776324 0.35821357 0.5640034 0.28107408 -0.43861338 -0.123012856 0.31006756 0.15006648 0.22220545 -0.095117114 0.3806552
37 -0.5844366 -0.2581913 0.004617458 -0.04678579 0.070845194 -0.18323557 0.06271062 -0.6689867 -0.0068139844 -0.024627307 0.45680425 0.19828711 -0.48988354 0.010927163 -0.2053155 -0.03939206 -0.1996405 -0.423323 0.4785695 0.14256816 0.29753268 0.079231136 0.05586555 0.14477168 -0.09301097 -0.30588144 0.039306864 0.29351515 -0.0833119 -0.04321512 0.24032103 -0.21489137 0.009332919 -0.7188841 -0.113668546 0.10262168 0.15639824 0.17745218 0.014537694 -0.25251094 -0.15429036 0.107524924 -0.33315417 -0.5287511 0.3045969 0.010125608 -0.08238303 -0.36063835 0.06918094 0.3450952 0.010297141 -0.10601039 -0.39625213 0.04852076 0.23037224 0.41916856 0.20241414 -0.30037457 -0.07449747 0.025184507 -0.11930358 -0.24213347 -0.24365115 -0.005626235
26 -0.090059884 0.18171677 -0.0033817873 0.11171942 0.37587327 0.092448294 -0.3080559 -0.16870987 0.26842704 -0.11784967 0.21768811 -0.079863705 -0.08532357 -0.25448638 0.039275944 0.09757878 -0.35193938 -0.31614336 0.02816607 0.32822263 0.1712082 -0.22106965 -0.09117431 0.29161537 0.3149405 -0.42365682 0.11134681 0.17999735 -0.3659593 -0.11551848 0.37417766 0.041813243 -0.24865462 -0.24939533 0.31842992 -0.14008643 0.31484127 -0.014964717 -0.31564945 0.15321983 -0.10321292 0.06110781 -0.09773408 -0.20003504 0.26289228 0.110043086 0.19076285 -0.44617385 -0.18488428 -0.0060131643 -0.26008427 -0.10837147 0.02709 0.12308794 -0.31728676 0.49670145 0.06832208 -0.06078632 0.06779672 0.049640525 0.07752212 0.09771095 -0.12154247 -0.121735
46 -0.22302674 -0.2792523 0.2384467 0.3113954 0.11719049 -0.021790925 -0.08331847 -0.47095928 -0.03856149 0.059903514 -0.07434352 0.08165195 -0.17673841 0.033575155 -0.26890972 0.20111053 -0.17191575 -0.51696044 0.14789458 0.46833876 0.27685136 -0.05249246 0.013226905 -0.30426815 0.15288645 -0.16065228 0.15323047 0.0024708735 0.065457016 -0.03236189 0.20400856 0.055856448 -0.022505859 -0.22099929 -0.3183167 0.047216754 -0.22842821 0.13031588 -0.017481225 -0.31946042 -0.11865095 0.052867766 0.12295799 0.1943696 -0.12486683 0.32838964 0.19674017 -0.32104677 -0.07319059 0.26623985 0.1145898 0.00030045633 -0.02360854 -0.19907595 0.16718788 0.15712139 0.055038106 0.074528016 -0.27721837 0.04428268 -0.40729797 -0.14714612 -0.1865395 0.10605515
45 0.50628155 0.27258208 0.21056497 0.18168607 0.5459161 -0.11777918 0.27393404 -0.635654 -0.077547476 -0.3012706 -0.13325907 -0.064428695 0.50555354 -0.3167187 0.2970675 0.4627576 -0.46112907 -0.074328884 0.95925194 0.1673716 0.0925266 -0.43579346 0.17582455 0.38157067 0.05308563 0.13450308 0.04925582 0.018739635 -0.26745304 -0.625335 0.2622862 -0.39962754 0.014453714 0.053148083 0.5242741 -0.031645376 -0.42830124 0.38505402 0.1734116 -0.17157333 -0.0027656823 -0.28497484 -0.15243573 0.28009343 0.14042176 -0.017406056 0.30080366 -0.4818952 -0.4635344 0.3554589 0.049663763 -0.2018555 -0.046466853 -0.22474137 0.07704314 0.44578028 0.5957704 -0.38250282 -0.5019789 0.2904901 -0.015428466 0.27871382 0.10516279 -0.023211397
11 0.22684 0.18733867 0.3632719 -0.1623021 0.33730504 -0.002749565 0.17400032 -0.048820578 0.61097246 0.18958607 0.04695303 -0.29445463 0.08711024 0.15428278 -0.33055806 -0.114255376 0.039252624 -0.10900561 -0.11695071 -0.08849752 -0.45661113 -0.42870706 0.036204502 0.03547297 0.33883935 0.14360729 -0.042087846 0.41041142 -0.3382062 0.05293343 0.097476356 -0.4223619 -0.08207645 -0.1273075 0.14414965 0.049610578 0.102787636 0.22776566 0.14544278 -0.3998712 0.21205612 0.009800761 0.010062215 -0.32287407 0.36310428 0.1140918 -0.14151578 -0.07708481 -0.23466612 0.52441216 -0.44620013 -0.023460617 -0.25837886 -0.15256475 0.33187822 0.38345966 0.39432338 -0.22918801 -0.18708567 0.42688975 -0.5682998 -0.34556407 -0.048620086 -0.14004898
97 -0.014749237 0.038065735 0.17928687 0.33811727 0.15962198 0.09716213 0.08391972 -0.24911086 0.20098165 -0.16793068 -0.0994224 -0.102676116 0.060641438 -0.45062053 -0.3774699 0.352611 0.010564919 0.055025987 0.23540066 0.5432476 0.047568023 0.09933325 -0.07673623 -0.089824185 0.02527542 -0.21449704 0.13270244 0.061339594 0.05195847 0.42621237 0.5144839 0.0024688859 -0.10836405 0.15719995 -0.3854299 -0.18633753 -0.052333295 -0.17972879 0.04666644 -0.15570477 0.0012050183 -0.116053835 0.32845098 0.18331267 -0.10082801 0.13244902 0.4062661 -0.14558601 -0.01629168 -0.03666841 0.20803069 -0.27263594 0.12208069 0.17539951 0.3515937 0.1305949 -0.047815148 -0.37804297 -0.51179993 -0.05169114 -0.50896454 -0.17810625 0.02351927 0.066051275
4 -0.036483858 0.1415135 0.19495022 0.4185419 -0.007724142 -0.06636299 0.070872314 -0.39585185 0.23080474 -0.07015868 -0.16898711 -0.03534078 0.10337542 -0.3212932 -0.06560747 0.04961255 -0.0075055687 0.085307404 0.017843746 0.40186554 0.028136192 0.27647644 0.09993136 -0.08090693 0.08750262 -0.231112 0.19195186 0.20650545 -0.08318323 0.18019824 0.4326778 0.16213588 -0.23697472 0.08253278 -0.50974447 -0.22420649 -0.10881795 -0.22130692 -0.02912378 -0.24390163 0.019889105 -0.1756872 0.13622068 0.2805177 -0.08989129 0.16044037 0.42933804 -0.37516975 -0.013490732 0.03785311 0.23588867 -0.0547097 0.044866588 0.24683386 0.31462777 0.109869756 -0.0032114594 -0.4129661 -0.54602087 -0.08641827 -0.51143205 -0.22751428 -0.009084331 0.10881122
52 -0.17935391 0.22514747 0.40219617 -0.21548846 0.20201333 0.22731239 0.79690963 -0.39151362 -0.31043032 -0.041346155 -0.35683325 0.25838035 0.15399514 -0.16963966 0.18864341 -0.4658043 -0.22556417 -0.19305792 0.03825879 1.1799089 -0.31526572 0.180969 0.2720612 0.12611105 -0.2205208 0.09456092 -0.355975 0.26882914 -0.22638384 0.5620039 0.2711554 -0.42672792 -0.13365242 -0.045694083 0.013322808 -0.24684896 0.41894323 -0.3104695 -0.1876246 -0.48466566 0.21465853 0.18792704 -0.5199788 0.45778352 0.12943447 0.31616887 0.22480713 0.14438936 0.04834597 -0.27644837 -0.25677702 -0.19203483 0.109866805 0.08241519 0.26695853 0.14941444 0.11998132 -0.053759854 -0.22482583 0.22934411 -0.9846548 0.5167785 -0.071673706 -0.061982136
94 -0.22759502 0.397827 0.3779578 0.1341877 0.25173345 0.1162334 0.48704064 -0.545921 0.31963527 -0.21720555 -0.060023267 0.24632774 0.25492603 -0.45046723 0.11027792 -0.1968932 0.22520009 0.0980168 0.12067079 0.8148956 -0.18365477 0.38468978 0.030130213 0.23974709 -0.06279927 -0.12533428 -0.11532562 0.51778734 0.028786043 0.42004964 0.39810497 -0.25473595 -0.27831507 0.26360208 0.06804398 -0.037331194 0.49838713 -0.1814403 -0.52474964 -0.30812335 0.15120092 0.03108687 0.013928062 0.19131057 0.19107714 0.39634043 0.30631322 0.0059962124 0.02890281 -0.3085969 0.15838906 0.006376054 0.22942121 0.046710502 0.28411934 0.29234537 -0.08586013 -0.4042352 0.16464992 0.1468591 -0.62483186 -0.10439555 0.06153887 -0.23515084
17 0.18294528 -0.18116328 0.21883407 0.02837449 -0.53245467 0.20431405 0.07278953 0.12125635 0.41580093 -0.13357706 -0.22011398 -0.23650517 0.3415392 -0.36692065 -0.13561372 -0.0036737723 -0.13962884 0.18204702 0.41373342 0.41855872 -0.036341544 0.1695717 -0.18648271 0.18594697 0.021450454 0.08754815 -0.008025231 0.08098866 -0.06454007 0.14493783 0.19435255 0.07445867 -0.5822213 -0.33729038 0.057133827 -0.001417134 -0.06652588 0.00181015 -0.115397304 0.05730188 0.1359446 -0.057716914 0.018656202 0.08453704 -0.2660719 -0.22364692 0.7511496 -0.25203767 -0.16725908 0.03886949 -0.103893496 0.1664625 -0.16850182 0.063409045 0.36333543 0.35235825 0.07062293 -0.3111236 -0.64224625 -0.05950121 -0.5099225 -0.0010245634 0.2519522 0.09048083
62 -0.07267956 0.21296978 0.45354408 -0.19054404 0.07060653 0.33237427 0.6714255 -0.33547682 -0.38910148 -0.09027691 -0.32459456 0.41446158 0.1711768 0.09505466 0.015845349 -0.4215813 -0.24462424 -0.22751296 -0.16493669 1.0844127 -0.17511487 0.1667298 0.35300377 -0.12307605 -0.2648233 0.18403886 -0.34396872 0.38005662 -0.16513313 0.2640315 0.17784706 -0.38958046 -0.029004326 -0.29997894 0.31025773 -0.35815936 0.28579643 -0.1978517 -0.29242867 -0.49967426 0.10470308 0.13665016 -0.3123932 0.4013065 -0.19341376 0.08712008 0.2005814 0.074933685 -0.055183403 -0.038614966 -0.44885194 -0.16456938 -0.12631652 -0.05113651 0.37057498 0.08887277 -0.012381316 0.18854207 -0.39360225 0.26452413 -0.77645916 0.12746513 0.29250476 0.03774228
21 -0.4026349 0.3915952 0.28599072 0.036879867 0.32569012 0.10700815 0.8832532 -0.56103575 0.16595615 -0.1349071 -0.180402 0.24692811 0.3405528 -0.41670913 0.07649726 -0.29619056 -0.072310135 -0.07135073 0.04606888 0.9456118 -0.480922 0.5137048 -0.0075301426 0.4022504 -0.29863474 -0.30808958 -0.22479908 0.35600695 -0.17131162 0.58860993 0.37777773 -0.20304853 -0.18773194 -0.012333713 0.24973826 -0.32377142 0.37860855 -0.36138812 -0.26340196 -0.46231437 0.2925182 0.15476793 0.049710784 0.5012091 0.060715314 0.38421547 0.19678044 -0.1645767 0.14795604 -0.41015428 -0.003528223 -0.14827193 0.39903802 0.33971643 0.29423538 0.3614786 0.06746396 -0.23257712 -0.01584107 0.24353251 -0.6422619 0.19621697 0.11692675 -0.19235703
23 -0.329825 0.391278 0.2958228 0.062156588 0.27388933 0.051433016 0.92036897 -0.4922004 0.15588944 -0.2717889 -0.30109477 0.27814576 0.2873018 -0.36164123 -0.039734807 -0.38532916 0.06516477 0.014293475 0.13661766 0.9237154 -0.50720334 0.3984486 -0.11579434 0.38173088 -0.20756543 -0.27480644 -0.13707194 0.41672674 -0.16996974 0.61541826 0.39451993 -0.36923268 -0.12363727 0.0028213903 0.07384109 -0.37648237 0.39917108 -0.31264898 -0.4178302 -0.50860417 0.1546153 0.054024234 -0.028090397 0.545199 0.039558414 0.40578315 0.26505983 -0.07143762 -0.027641589 -0.3485848 -0.05673898 -0.029451948 0.3579378 0.36193156 0.26500934 0.35961178 0.06395147 -0.2431516 0.06498185 0.30869594 -0.6286905 0.3518607 0.17128417 -0.08795095
95 -0.2548615 0.3969247 0.20781048 0.14973015 0.24414471 0.049778007 0.5305781 -0.45428103 0.29802033 -0.2307815 -0.08802269 0.17684658 0.2671846 -0.5937368 0.012492915 -0.22592716 0.21725833 0.015187957 0.13472718 0.7707832 -0.30927265 0.39374816 0.021374593 0.16164868 -0.12226535 -0.065261446 -0.25509116 0.6582956 -0.032451034 0.39846316 0.47244 -0.22970605 -0.3649849 0.31843153 0.042144515 -0.07507747 0.38967982 -0.22335896 -0.51398367 -0.36036637 0.08777732 0.03679275 -0.0007472964 0.11113283 0.11060571 0.39479625 0.25849408 -0.058163248 -0.045940407 -0.37420508 0.30276087 -0.122987874 0.11682051 0.07200542 0.3771353 0.14388788 0.09260158 -0.40274212 0.1007594 0.20695788 -0.48444527 0.022442836 0.050086576 -0.16922316
88 -0.16207725 -0.032894876 -0.08225863 -0.010015742 0.39848587 -0.14257237 -0.09667918 -0.4180496 -0.011759085 -0.2708643 0.26547724 -0.12849094 0.031703085 -0.19319807 -0.22674628 0.5199154 -0.27239302 -0.24771677 0.018344007 0.11066407 0.09205962 -0.3556747 -0.2998116 0.039063673 0.3206641 -0.18648082 -0.010994454 0.6927718 -0.39278227 -0.19770558 0.23327026 0.19444227 -0.37741038 -0.16049609 0.41850865 -0.36317936 0.29110035 -0.108113274 -0.41211054 0.3712574 -0.18237802 0.14451785 -0.27189335 -0.21105054 0.27965495 0.14507735 0.2986192 -0.42663056 -0.049448572 -0.24451888 -0.3286599 -0.02707562 0.018321421 -0.050435733 -0.33106187 0.5575771 0.13134956 -0.31700006 0.22768931 0.1865448 -0.02043142 0.10077254 0.12012566 0.3524895
14 -0.39825866 -0.60649943 0.059258956 0.03827678 0.6943835 0.10184871 0.13189235 -0.30313858 0.034002524 -0.36253223 0.3264671 -0.17375045 -0.051845293 0.0045286096 -0.25459433 0.7789232 0.07186386 -0.20470797 -0.045359574 0.38208732 -0.096753426 -0.09704296 -0.015167431 -0.04432142 -0.05007204 0.019143809 0.06755697 0.45100766 -0.8243303 -0.4368016 0.38602468 0.031185009 -0.31721696 -0.6141794 0.24532433 -0.30075186 -0.196933 -0.40818095 -0.49537724 0.52803093 -0.33257014 0.37186155 -0.25309327 -0.25999892 0.22519661 0.30322987 0.22491744 -0.6214634 -0.30199 0.13387628 0.120462574 0.22670777 0.27320543 -0.19377807 -0.3963745 0.22625186 0.13817553 -0.24527644 0.16989747 0.20612156 -0.48585093 0.48169315 0.10469001 0.399342
22 -0.27636266 -0.3420721 0.103886604 -0.1547322 0.4018078 0.086888425 0.4384532 -0.353959 -0.23134345 -0.014902656 0.0642234 0.15186206 -0.25590017 0.28294078 -0.37024626 0.5774378 0.36030138 -0.21800217 0.096856065 0.44398814 -0.22109659 0.1441749 0.098435685 -0.10601969 -0.19229387 0.30717313 0.22800532 0.053457443 -0.36998957 -0.29517108 0.2299993 0.18033007 -0.27311268 -0.56615335 -0.112916924 -0.24721867 -0.36554322 -0.2720386 -0.4199259 0.26584068 -0.022881601 0.35661668 -0.25717962 -0.31827152 -0.117042646 0.35706845 0.077877425 -0.6462738 -0.08163033 0.4041544 0.28456733 0.13918377 0.2714201 -0.46064693 -0.08493968 0.0697033 0.19120078 -0.19439037 -0.48304 0.17094074 -0.23642074 0.00598496 0.25771046 0.45847058
100 -0.13045385 0.036852714 0.1383882 -0.23009895 -0.035723526 0.4574062 0.57726204 -0.022165189 -0.25263664 0.010848278 -0.4422462 0.20541053 0.171946 0.3879153 -0.26127824 -0.13863938 -0.41614616 -0.23283689 0.0073579107 0.6374532 -0.21701938 0.20390524 0.39931512 -0.13265052 -0.21461007 0.085092105 -0.097110875 0.18850672 -0.013683773 0.14528269 0.1555266 -0.12917817 0.0669136 -0.27381507 0.16586716 -0.040583044 0.09110316 -0.13904728 0.087173894 -0.5681664 0.11455948 0.0021393453 -0.2442651 0.2827656 0.011580827 0.093049906 0.3342633 -0.009549395 -0.23144813 0.007441336 -0.59187925 -0.07021685 -0.38422865 -0.14277336 0.1390515 0.22028333 0.0030670166 0.17636585 -0.30494067 0.3456139 -0.79485494 0.06353528 0.13641329 0.42909136
13 0.2827482 0.046258792 0.15870054 -0.16531162 0.17514862 0.07018705 0.036216892 -0.19086263 0.8922056 0.43809944 -0.115885176 -0.26991385 0.23206647 0.37697312 -0.4279085 -0.21678449 -0.063892104 -0.25976452 -0.09275597 0.100716904 -0.3448154 -0.49677372 -0.059037134 0.13792843 -0.068836085 0.27892172 0.07343596 0.7049464 -0.6365718 0.15486412 0.14790806 -0.32901275 0.05814105 -0.22380339 0.110235244 0.21081427 0.058719788 0.17115565 0.030037777 -0.46917522 0.21471487 -0.060373552 -0.049084198 -0.18699041 0.3919974 0.39037895 -0.19463968 -0.05907226 -0.25420564 0.4639922 -0.6140357 -0.36738804 0.1748746 -0.07725995 0.09716006 0.3413875 0.7731321 -0.22191586 -0.45126653 0.6394097 -0.39945492 -0.51384884 -0.15028119 -0.06748466
24 -0.085619204 -0.09336574 -0.047851626 0.012401743 0.3518771 -0.26642877 -0.15225758 -0.48758808 0.055501245 -0.19609715 0.19871223 -0.32616252 -0.060046386 -0.22070995 -0.038532697 0.32867652 -0.37673578 -0.21460627 0.025506185 0.10325203 0.1583058 -0.2542226 -0.111328885 0.036084417 0.31379816 -0.010100757 -0.18978871 0.4637561 -0.4579277 -0.15522031 0.343869 0.3585829 -0.40826288 -0.23543233 0.3770621 -0.35334113 0.14382653 -0.23278983 -0.25818533 0.42964837 -0.08402677 0.30366504 -0.30355084 -0.21603228 0.47884402 0.26868367 0.1577163 -0.4450741 -0.05775334 -0.13633634 -0.26879102 0.06632256 0.14490415 -0.20370615 -0.3633679 0.674397 0.12746751 -0.35363522 0.2767252 0.007383325 -0.2376594 0.20275037 0.03929951 0.022364303
103 0.16380326 0.1431276 0.34979215 -0.13446303 0.27188504 0.0075942446 0.026278494 -0.1692318 0.76129067 0.27335614 0.017690191 -0.2313381 0.17168571 0.38835824 -0.64650357 -0.29711238 -0.052898236 -0.22456604 -0.0658136 0.0040358147 -0.38645768 -0.4409238 -0.04004936 0.081543066 -0.18827769 0.5189844 0.017544305 0.54887176 -0.59561974 0.30666015 0.17079172 -0.27771747 -0.08015074 -0.0046528126 0.11965571 0.3632156 0.07293421 0.11704778 0.13020831 -0.33021256 0.013861342 -0.108190276 -0.05645479 -0.2631227 0.35623512 0.29251987 -0.097605295 -0.1501471 -0.24167119 0.49683228 -0.75846577 -0.3215626 0.19588885 -0.028705565 0.2787492 0.5601798 0.6563575 -0.039493933 -0.35744292 0.6819488 -0.4744312 -0.3971496 -0.06827675 -0.2386623
20 -0.37796056 -0.26536402 0.23919421 -0.19461462 0.45695144 0.14416862 0.31498793 -0.24240439 -0.17060414 0.016703712 0.027548784 0.16572799 -0.38633886 0.07950736 -0.38860285 0.5580469 0.35752386 -0.26881054 0.10496775 0.4331783 -0.18450996 -0.015197181 0.109752916 -0.12960021 -0.31824845 0.30152553 0.24276596 0.10004403 -0.38393515 -0.38100785 0.29527256 0.17033695 -0.18105394 -0.57597935 -0.046720788 -0.2539301 -0.42789158 -0.3558124 -0.3120349 0.31862542 0.054533876 0.3036256 -0.1940607 -0.29888886 -0.076288596 0.24653468 0.15195566 -0.62993497 -0.086595275 0.38832512 0.3168932 0.006161328 0.34149522 -0.5260535 -0.15252352 0.09958001 0.13420777 -0.09774205 -0.40824348 0.15707584 -0.34442928 0.008525332 0.18544042 0.38536382
27 -0.036643855 -0.113793485 0.3081365 -0.14157711 0.08382273 0.42977527 0.5448512 -0.012086338 -0.27549326 -0.12643369 -0.28771102 0.1936275 0.2748889 0.28831318 -0.334361 -0.24949867 -0.56391984 -0.084359355 0.073937036 0.544936 -0.22109441 0.092263654 0.34896305 -0.31740028 -0.21798469 0.13649021 -0.21842857 0.2316483 -0.1772974 0.13065583 0.14937003 -0.039561022 0.010499117 -0.3619853 0.06985165 -0.052093994 0.23863581 -0.24245733 0.10082819 -0.46128413 0.22996329 0.26048455 -0.30647612 0.3834224 0.06601237 0.03531831 0.22491561 0.19103466 -0.036204524 0.20433533 -0.40938386 -0.03892652 -0.20516577 -0.06673831 0.26709256 0.30496213 -0.052530833 0.27608475 -0.4392553 0.20692575 -0.7379522 0.11924803 0.28977117 0.18821879
66 0.09259258 -0.13381709 0.12747514 -0.38587573 -0.07500163 0.25855887 0.13792104 0.26061368 -0.106072634 -0.045182645 -0.30600184 -0.092107825 0.51238394 0.07849149 -0.009504689 -0.15856984 -0.4174627 0.039287534 0.07790889 0.52480334 0.009396188 0.01004292 0.014849886 -0.16374539 -0.24997875 0.2559016 0.19498764 0.13614373 -0.052357588 0.11881634 0.15819807 -0.06355089 -0.40199447 -0.34871435 -0.12739486 -0.17080033 0.26510063 -0.16446449 0.0804182 -0.2615498 0.21897697 -0.12913585 0.022668563 0.08532247 -0.19299245 -0.024544071 0.44426826 -0.04892134 -0.055797286 0.13442974 -0.35718548 -0.08453507 -0.33232585 -0.4900268 0.23632973 0.21585792 0.18136907 -0.04843042 -0.3643494 0.09113089 -0.5098826 0.17049013 0.15040551 0.2348873
10 0.33933076 0.29993764 0.35916555 0.12604709 0.42281675 -0.21990554 0.30631953 -0.56390935 -0.062453233 -0.3078329 -0.13238549 -0.2035727 0.5646294 -0.32138944 0.25615287 0.50503945 -0.351352 -0.2158638 0.8962124 0.2308194 0.27474922 -0.4042664 0.33927387 0.29698345 0.11848378 0.20064315 0.06485106 0.008643016 -0.28734243 -0.4536813 0.2488329 -0.16500247 0.09893498 0.038513083 0.6159433 -0.023190916 -0.34874955 0.21010283 0.3134527 -0.21582133 0.02279797 -0.29105332 -0.30073217 0.05991382 0.27504033 -0.02375073 0.29889867 -0.30143315 -0.6198443 0.25589207 0.028600633 -0.15441735 0.003944781 -0.13885163 0.24228539 0.46947396 0.5905124 -0.35085848 -0.5831235 0.36034456 0.14756921 0.23507474 0.21785453 -0.12118939
90 0.33999452 0.27130342 0.27321425 0.030548345 0.5151967 -0.119589314 0.41205493 -0.6847748 0.027691005 -0.2503185 0.021381915 -0.0868501 0.5330117 -0.21989983 0.23669761 0.42513615 -0.42460746 0.017183326 0.83304524 0.21754687 0.16518319 -0.2749811 0.31549823 0.2545155 0.21887363 0.11820605 0.011159783 -0.06621337 -0.23590587 -0.533386 0.2833055 -0.28375733 0.2083342 0.015602394 0.7351142 -0.07336295 -0.39692846 0.33613452 -0.01678415 -0.056352627 -0.05127024 -0.46050775 -0.053966243 0.14407986 0.02490834 -0.04384973 0.4774666 -0.32108784 -0.5485025 0.29593882 -0.14264204 -0.30939013 0.014640446 -0.16783755 0.06720234 0.42427164 0.6236772 -0.31945542 -0.5385038 0.3311382 0.13330849 0.23315226 0.13998377 -0.01201333
40 -0.32670423 -0.035731312 0.031148529 0.08386541 0.09470795 -0.28178436 -0.07025053 -0.6175463 0.26569426 -0.07190674 0.36500013 -0.052529942 -0.1793435 -0.26948607 -0.23250304 0.26346943 -0.6286825 -0.21405977 0.03650913 0.06411715 0.22890599 -0.19209313 0.041185908 -0.037959713 0.18586963 -0.4326902 0.0078059477 0.3408528 -0.46400353 -0.10725334 0.084720105 0.07991507 -0.27490932 -0.24801196 0.12475737 -0.0552112 0.3449669 0.01626348 -0.09488317 0.10821031 -0.18019396 0.23151048 -0.0349276 -0.31544474 0.1947492 0.14131267 0.04943322 -0.31785136 -0.045441873 -0.09831463 -0.22656171 -0.19600265 -0.10348987 -0.19272396 0.103072494 0.35683256 0.17929399 -0.06612695 0.05584802 0.08416097 0.036057927 0.39984268 -0.36364204 0.09718998
86 -0.5491139 -0.31598103 0.01660233 -0.20292065 0.10497492 -0.11060013 0.07178995 -0.623286 0.2043182 -0.060423404 0.14681727 0.30545095 -0.4325761 0.12714794 -0.29008728 0.011706219 -0.2303785 -0.3221109 0.5494686 0.118561685 0.30746105 0.021839935 0.057533324 -0.039272096 -0.12843278 -0.36777654 0.05822989 0.19531912 0.052879754 -0.10299309 0.18883798 -0.2550597 -0.1799448 -0.66901773 -0.10345132 -0.053477768 -0.08288785 0.24347842 -0.023179643 -0.10466817 -0.17394964 0.26110625 -0.017933566 -0.40108994 0.1826597 0.17271508 -0.03529994 -0.29682106 0.07257917 0.15441833 -0.23741248 -0.043388292 -0.18561904 0.10431652 0.26308808 0.53202367 0.3008973 -0.2736684 -0.038931128 0.13775817 0.0047027734 -0.19970098 -0.3630217 -0.11078097
82 -0.4245552 -0.46003723 0.1992667 -0.14093845 0.36920348 0.0072559933 0.110751174 -0.3674398 -0.17119718 -0.091078766 0.3098936 0.08170819 -0.10894107 0.14495963 -0.38163534 0.7538941 0.21649726 -0.14589217 0.030113377 0.31737283 -0.17474398 -0.034519345 0.13451774 -0.028270274 -0.3424434 0.04142149 0.33753765 0.31166115 -0.47433695 -0.37381828 0.4161717 0.12081118 -0.21414828 -0.62158984 -0.03841674 -0.20732431 -0.29337204 -0.51347566 -0.39998716 0.40769023 -0.2541278 0.2807247 -0.24764413 -0.21265277 0.14399163 0.26736763 0.15514031 -0.6298461 -0.23139602 0.3726414 0.11573581 0.26234034 0.48041666 -0.42050442 -0.342232 0.17715931 0.17516181 -0.15341601 -0.15105388 0.36122233 -0.5949863 0.26385295 0.27205253 0.73157907
81 -0.33626768 -0.48877132 0.1689933 -0.09555285 0.5971076 0.034613542 0.21192245 -0.42653957 -0.11215653 -0.0713768 0.28412032 0.20124176 0.043833334 0.14132367 -0.4477648 0.8220027 0.15617728 -0.17991629 -0.057799276 0.25141045 -0.29016978 -0.05654946 -0.022821713 -0.13194227 -0.3016436 0.1913393 0.14274189 0.31113982 -0.48287943 -0.3390772 0.43474263 0.14389369 -0.3155841 -0.60214233 -0.26825744 -0.15558049 -0.40751094 -0.46995735 -0.3993629 0.42147917 -0.15902305 0.36583757 -0.12520891 -0.21159352 0.092612475 0.29222834 0.14736894 -0.7692234 -0.24774835 0.34872764 0.018351516 0.2656249 0.41072908 -0.35188353 -0.3967569 0.1905069 0.10572247 -0.19303824 -0.11616153 0.22602707 -0.509188 0.2853254 0.22673759 0.59318846
25 -0.23371726 0.035811815 0.32163256 -0.25272706 0.08971665 0.3732901 0.8028733 -0.1674027 -0.36869916 0.03512045 -0.28667083 0.25072876 0.27960345 0.09147322 -0.113208875 -0.31382802 -0.29456833 -0.18623587 -0.035585176 0.8517006 -0.23075688 0.26065403 0.34002665 -0.23693572 -0.24879427 0.14670533 -0.3176134 0.19453613 -0.05799039 0.27103803 0.22384259 -0.19251628 -0.119155906 -0.057344314 0.20458609 -0.2288223 0.18788365 -0.16497763 -0.17423382 -0.344347 0.42553 0.17141643 -0.4381899 0.59579855 -0.0072209355 0.28511745 0.23678121 0.2247474 -0.24093512 0.064755365 -0.507245 -0.06309037 -0.29326022 -0.08523766 0.161949 0.38478342 0.16558172 0.209063 -0.24623303 0.2080204 -0.8865755 0.26863116 0.13292818 0.13382283
87 -0.19639844 -0.15859385 -0.15273221 0.063756004 0.68353957 -0.2923549 0.088013284 -0.43447748 0.039845183 -0.29558763 0.23693526 -0.30419427 -0.049297582 -0.11856314 0.040641654 0.5436341 0.10695858 -0.08527878 -0.045113493 0.2815244 0.023527272 -0.3589963 -0.18760395 0.013892999 0.1485946 -0.09118599 0.038311195 0.5432273 -0.6742671 -0.29281235 0.3243493 0.12758292 -0.28510198 -0.367201 0.41699296 -0.29651108 -0.026065415 -0.36656284 -0.42109084 0.577695 -0.32026616 0.27427447 -0.26133198 -0.23960409 0.38855267 0.084308274 0.17521487 -0.7009249 0.047544442 -0.12177358 -0.14027828 0.08446931 -0.04135112 -0.22672395 -0.47298345 0.615196 0.12186067 -0.26042366 0.1790531 0.18438572 -0.4824573 0.3365218 -0.038334362 0.30492783
98 0.031077262 -0.058623005 0.2905108 0.30875427 -0.335997 0.17767099 0.10098316 -0.23678492 0.21917687 -0.060118414 -0.050041348 -0.03488658 0.31164655 -0.62367857 -0.19761632 0.1578413 0.0075999466 0.24810152 0.2542164 0.3348836 -0.122343704 0.12070684 -0.3386864 0.0904675 0.004783379 -0.26722518 0.033084348 0.26028195 -0.05887103 0.3708911 0.6273607 0.16185613 -0.47400057 -0.05452999 -0.18222938 -0.026723675 -0.26990378 -0.12342051 -0.0057732174 -0.14756058 0.20043345 -0.14398575 0.20330496 0.17674738 -0.046901576 -0.15412128 0.56262445 -0.26279414 -0.032920312 -0.019714737 0.07229947 0.1041467 -0.041831635 -0.0024483504 0.30393276 0.070587166 -0.044160333 -0.2354941 -0.7875704 -0.13748153 -0.6812761 -0.2321277 0.13919704 0.20477661
3 -0.6629032 0.019734206 0.08572312 -0.3423281 0.09463482 -0.11860634 0.0925036 -0.57207745 0.09294277 0.15325928 0.174703 0.33589783 -0.4184481 -0.12025681 -0.24751925 -0.12632287 0.04926461 -0.23075415 0.5569528 0.22278693 -0.034567647 0.21250509 -0.15634048 0.2317955 -0.19667532 -0.14076896 0.12152203 0.30271032 -0.008791522 0.007402413 0.22432514 -0.23331954 -0.018885659 -0.8640983 -0.34020153 0.072884746 -0.14967425 0.15645123 -0.4808812 -0.024374932 -0.19315165 0.21189886 0.011196978 -0.46106318 0.3583289 0.049194023 0.06775813 -0.23605494 0.06731426 0.37908682 -0.08257723 -0.020756977 -0.029492944 -0.22877559 0.042676944 0.10702699 0.3018981 -0.33495572 -0.0545199 0.05047262 0.06339476 -0.1013257 -0.09948294 -0.043210007
99 0.11944485 -0.09756779 0.29952115 -0.14418416 -0.4525097 0.19955279 -0.11167237 -0.07675019 0.35388452 -0.09230571 0.000520578 -0.3436753 0.39051566 -0.5867015 -0.1329137 0.18053402 -0.0131213 0.043280408 0.45280296 0.5310758 -0.08660071 0.25506806 -0.101759784 0.13797592 -0.086316824 0.05237876 -0.13518383 0.008531362 -0.13528344 0.011406998 0.026585458 0.20831019 -0.4893771 -0.42136717 -0.061679095 0.11540034 -0.12786087 -0.16593286 -0.16832775 -0.054393 0.3108718 -0.26975763 -0.07566852 0.19898874 -0.43392274 -0.28182447 0.7103255 -0.06957258 -0.35443288 -0.08269354 -0.33285564 0.20811817 -0.23421434 0.12886265 0.3819658 0.38682255 0.015267262 -0.3491015 -0.72302043 -0.17039625 -0.5749685 0.0985322 0.26944515 0.078938246
80 -0.21288265 -0.5063455 -0.14736353 0.091888554 0.72118473 0.20540352 0.19991341 -0.3658363 0.10565307 -0.36532643 0.38832068 -0.16195996 -0.026606292 -0.15436047 -0.09140296 0.8362308 -0.04798105 -0.18264998 0.14269589 0.42533034 -0.29779986 -0.25700507 -0.016274635 -0.11994484 0.08887967 0.028860576 -0.013747059 0.53564656 -0.80501765 -0.6168106 0.53803277 0.04396021 -0.18535475 -0.6182445 0.14221792 -0.1238301 -0.11712127 -0.75578964 -0.34002262 0.36423227 -0.43277466 0.5334686 -0.3546473 -0.43115655 0.15628508 0.32983178 0.31407753 -0.66149247 -0.19728352 0.13614008 0.26380098 0.32180852 0.22356163 -0.4117217 -0.42740813 0.17583677 -0.08525784 -0.3778595 0.19312298 0.42735836 -0.53776985 0.36893395 -0.032024354 0.59188074
15 -0.40966946 0.24881585 0.59423554 -0.17067763 0.22347867 0.29574108 0.9524588 -0.46903858 -0.418201 0.07589597 -0.2833451 0.22880101 0.40449634 -0.03308578 0.0076744673 -0.4132207 -0.06264758 -0.05937132 -0.14630653 1.2627482 -0.3874981 0.1657979 0.13424622 -0.1352119 -0.13866694 -0.06419469 -0.2709945 0.35938847 -0.4389977 0.25575176 0.3496416 -0.5122011 0.08559974 -0.06344793 0.13296928 -0.29041448 0.6670237 -0.18190607 -0.34126234 -0.440053 0.31481695 0.022177223 -0.40206605 0.61250776 -0.055165403 0.17910036 0.27576637 -0.008034284 0.14884706 -0.1602603 -0.4370302 -0.24835926 -0.11460994 0.10846113 0.28122452 0.029498523 0.25775287 -0.18525898 -0.1622567 0.11582155 -0.7390517 0.37132558 0.13030651 -0.14945148
107 0.029611455 -0.04985352 0.29179156 -0.07561383 0.8670171 -0.17396802 0.28837907 -0.44958153 -0.026339179 0.031576034 -0.24148493 0.024232399 0.3861453 -0.24575418 -0.1021347 -0.2946707 0.1188509 0.21429789 0.34966677 0.022804623 0.42748597 -0.23812847 0.48347208 0.5109492 0.08420414 0.21160147 0.046283327 0.20729946 -0.039242435 -0.43440986 0.15687032 -0.25870964 -0.053524707 -0.35273904 0.48585966 0.09970469 -0.1360026 0.22899263 0.23595153 -0.5992469 0.19420862 -0.08670745 -0.11416303 0.12232439 0.35429016 -0.13344334 -0.0053610303 0.14567117 -0.342514 0.2950537 -0.47543883 -0.39418852 0.03668413 -0.11422195 0.4113085 0.5214644 0.11789206 -0.2578111 -0.1698785 0.3693111 0.14547278 0.20290744 -0.070765264 0.48875183
8 0.3626142 0.18749064 0.16567339 -0.18389319 0.2418629 -0.07302527 0.114436135 -0.22027248 0.5453538 0.059963077 0.20431556 -0.41233766 0.10492905 -0.035109848 -0.27400687 0.30737802 0.12295815 -0.24957456 -0.17175217 -0.21459915 0.03104523 -0.20186578 -0.2161798 0.26896834 0.6482546 0.2925263 0.7249654 0.3599955 -0.54893064 0.27190557 0.07494806 -0.018070644 0.18043222 -0.17266342 0.17268449 0.0015274533 0.23719211 0.2896064 -0.06701934 0.033959202 0.38932976 -0.12466909 -0.08814637 0.012579685 -0.03261412 0.3252512 -0.06981201 -0.32032347 -0.40186313 0.4376543 -0.42150924 -0.027124627 -0.20849308 0.17235087 0.16499285 0.4673322 0.3642382 0.018645674 -0.45797017 0.42934844 -0.77983695 0.05339012 0.091680735 -0.21507378
104 0.23746996 0.10602378 0.10671825 -0.22295208 0.28321007 -0.033132657 0.036265124 -0.26691854 0.94561607 0.33636147 0.04254214 -0.35126242 0.17036374 0.42873025 -0.47345102 -0.30721712 -0.07002117 -0.20066632 -0.024856305 0.1328604 -0.2155141 -0.41153216 -0.06617191 0.08900384 -0.22288536 0.43014035 -0.00052277604 0.56606984 -0.75866735 0.21683112 0.081082754 -0.34922576 -0.021283157 -0.10504085 0.041504323 0.2960165 0.0885884 -0.07550347 -0.013524981 -0.5079681 -0.027417548 -0.10141057 0.06925909 -0.10997794 0.43484074 0.29361126 -0.104832485 -0.051417522 -0.23438315 0.49437973 -0.60264564 -0.40880275 0.16788505 -0.03335891 0.28925714 0.40840653 0.82205975 -0.09802329 -0.47313464 0.9294745 -0.39753914 -0.5510462 -0.113158494 -0.19855197
16 -0.63053113 -0.23160462 0.07034085 -0.18843524 0.041203644 -0.025184453 0.16942401 -0.6732466 0.18924804 -0.0768213 0.33046764 0.2108664 -0.45926106 -0.03349517 -0.08864633 0.15065075 -0.20682375 -0.40610558 0.65627366 0.047344487 0.15945475 0.038670596 0.2122582 -0.015219222 0.034957465 -0.46178427 0.056382835 0.19431353 0.08272592 -0.11026241 0.14382413 -0.2973413 0.12757115 -0.61813146 -0.2687231 -0.16102166 -0.021491444 0.03892298 -0.25214657 -0.021286968 0.035438612 0.41189733 -0.090414934 -0.3942425 0.21152149 0.01321776 0.079686135 -0.29642025 0.19640951 0.39437446 -0.44832754 -0.0667897 -0.24062024 -0.08258799 0.3772907 0.4717956 0.24116969 -0.38719276 -0.055441502 0.1313574 -0.02321225 -0.37938362 -0.6326827 0.0137980655
12 0.36210403 0.35822535 0.3143413 -0.01499841 0.54812276 -0.09917656 0.5123735 -0.63380593 0.029361483 -0.28563645 -0.0033185438 -0.22604497 0.6365113 -0.40620363 0.17312965 0.5288634 -0.49076355 -0.17819102 0.9345247 0.10782586 0.20942679 -0.27641806 0.37953678 0.23035203 0.14050525 0.060958263 -0.068225205 -0.07444145 -0.32491317 -0.5514365 0.32076246 -0.19914907 0.1861977 0.1495446 0.71074414 -0.09285044 -0.41037264 0.23850262 0.06775483 -0.067657486 -0.13329925 -0.3773301 -0.28890043 -0.081543595 0.26117247 -0.03853611 0.48730594 -0.23441012 -0.501045 0.45913622 0.071603194 -0.31965476 0.030580904 -0.23174794 0.31856483 0.3784023 0.4732262 -0.31502694 -0.5486836 0.48485613 0.1802234 0.09053627 0.14220645 -0.046633255
